6.580097001969012482e-02 6.715234174701095217e-03 1.305662468342718985e-01 -1.349262547377542143e-01 1.190666569199259756e-01 -4.077346949879518401e-01 2.729640253263501681e-01 3.350284354474453163e-01 -1.678948849328465998e-01 4.115075469899897448e-02 -1.118514728656621118e-02 -2.256575881151807739e-01 7.063882807203131220e-02 -3.025596020221509863e-01 4.983440904012953476e-01 -2.889105009641108543e-02 -8.037696204152712520e-02 1.020792387003501972e-01 -1.929723954496861266e-02 -2.709080206629411666e-02 2.951735081103888381e-01 1.743888485543677314e-01 -2.780340221467996753e-01 -1.369876175028895138e-01 -2.143983889220707137e-02 -6.640809827430869949e-02 -1.374584336905331286e-02 -8.704891840237334588e-02 6.468103350432652388e-02 3.010915096863673868e-01 -1.855615598874075511e-01 -4.225023993510611947e-02 4.965883430873916510e-02 -2.414102538182823499e-01 -1.770441417696475006e-01 9.546328736097059453e-02 -1.759041558465243918e-02 2.371480545519696892e-01 -2.640887943795135542e-02 -2.548144847215496472e-02 -3.072599576281827560e-01 6.704541404448000064e-02 2.472452675490729654e-02 -1.574672111735922753e-01 5.671121932155517159e-02 4.040472656801479684e-02 -4.991041478459506270e-02 -8.470456009777582729e-02 1.387528017724885994e-02 1.213797909022778024e-02 -3.678892299363952650e-02 -5.873985526417579636e-03 1.573143159010623460e-01 4.703723918891278277e-01 2.188356812607717139e-01 -2.047783635467243513e-01 -6.403922984126677979e-03 -7.086032449722580451e-02 1.087371988951599949e-01 1.278965884219816773e-01 7.906110270554840558e-02 -1.608756023512580846e-01 1.008024915514471945e-02 2.225613696572032590e-02 2.817793340871482255e-01 3.211283289966823662e-02 -6.367618311628883698e-02 4.296902338509205749e-02 -3.854348131154626544e-02 -4.993414694272990499e-03 -4.087353942051453332e-02 -5.461202634346867812e-02 -2.206322925101248666e-01 1.108096501661008475e-02 -3.580100120897562466e-01 -8.458711215512020390e-03 1.527038907089499631e-01 -4.821829428175667398e-01 -4.474196884734530505e-02 1.692879112734964331e-01 -9.471864552084404212e-03 7.008889203937815338e-02 -1.495038536069478452e-01 6.578417952006668235e-02 3.691656725586746693e-03 2.230066210478853436e-02 -3.015389279949935893e-03 -1.799774085048284067e-01 -1.528501829054261518e-01 9.153083984105624474e-03 -1.104762027172038856e-02 -8.894814385170815574e-02 -3.628280348152609913e-01 2.205780980868263796e-01 -6.201560765605741189e-03 -1.738130227464714239e-01 2.793699133123226375e-01 -6.622719981508727594e-02 -2.794409137808309129e-01 -2.061026900717895932e-02 1.201304342237563133e-01 -1.013720291047083139e-01 6.703970951150993451e-02 -1.459368379271034355e-01 -1.589938591117318889e-01 4.829126566419875144e-02 1.074099824042233642e-01 -2.894630421184183344e-01 1.613093195328842849e-02 6.459383702738707989e-02 -1.145080742010204516e-01 -2.286480043296672260e-02 -6.710459645857531907e-02 1.131294123608613533e-01 2.112979159988326305e-02 -3.250404724697187886e-01 -1.942133697758471889e-01 -2.498578379451473278e-02 -3.116410796217041965e-02 -3.280288735660628063e-01 2.924888921115229579e-01 3.835135531271524623e-01 1.934650125973838564e-02 -4.054848233463957154e-03 -1.872764265124662042e-01 -9.539791740799898057e-02 -2.845049000281474338e-01 -2.388683856942587225e-01 -9.009907714385523292e-02 1.033012061837454282e-01 -7.283611327147398312e-03 1.624944689985009794e-01 -1.443624014217627094e-01 -6.497314349440508341e-02 5.877098280602082586e-02 3.227145365423630952e-01 3.623770195050921017e-01 -1.560194412480860326e-01 1.430331789200929848e-01 3.822578670325199046e-01 -2.889275672916066795e-02 1.774636185635927732e-02 4.524310405166120375e-01 1.565257996917776007e-01 -1.970145801651655981e-01 -1.048670997768339913e-01 2.882709925103981718e-01 3.138521218728418938e-01 5.569408821792396491e-01 -1.084306363757975566e-01 -1.199142658053550803e-02 -1.225728778380953260e-01 -9.137083823972055874e-02 2.708389928222583176e-01 3.571774504475959122e-01 7.087261090363988769e-02 8.347630960002029588e-02 4.385168261957361757e-01 -1.220650433546308783e-02 5.053699308967568582e-01 9.598623524593602463e-02 2.589091357603032217e-02 -8.221362254427856675e-02 -8.372182917236581368e-02 2.012093713733802483e-02 -2.456388163517448653e-01 9.654706538413182493e-02 -8.328312218563475866e-02 -1.033120745562143700e-01 2.520993156732137704e-03 -1.233949898254337041e-01 7.507004345871112760e-02 3.675839032216540181e-01 8.428015255265802752e-02 -4.158078557203740977e-01 5.419033257649819718e-02 2.921073440895367856e-02 1.980306205913585915e-01 3.654252042658577837e-01 -2.377119871265457457e-02 1.306235475047421157e-01 1.061303342235284664e-01 2.344717783156829716e-01 -3.629546252166188786e-02 -1.509085679057948493e-01 3.117680490331449783e-01 -9.103466200766168609e-03 8.579927012725413471e-02 -2.172426029243696918e-02 -1.660481169887653985e-01 -1.683173610917661489e-01 -1.834260684528383201e-01 -7.975747688956338899e-02 7.426296177485441907e-02 1.146907287308107475e-02 1.516990072156620441e-02 -7.462700566392191370e-02 2.510520200697865523e-01 -3.836327201086089933e-01 8.743104607200963274e-02
8.529667267576948597e-02 -3.114596872604452962e-03 -1.568544705740879119e-02 5.204469840320391505e-02 7.605577786443679100e-02 6.148214630253323425e-03 -1.708467709023335224e-01 -1.396504197509624845e-01 2.537235174084782052e-01 -9.258592933953244120e-02 -5.562008009793140140e-02 -1.463409701932470441e-01 6.845514589051027166e-02 2.455919363385124787e-01 -1.758035042483561683e-01 7.183894517369513247e-03 -5.523717346501564457e-02 -5.853646853460930249e-02 4.123069937861649492e-03 7.657378235985221049e-02 9.251453700095549348e-02 8.200756390942404161e-02 2.668817573245250707e-01 2.445694165280935528e-01 1.485158907864376210e-01 8.632569935016363993e-02 5.883338861880505616e-02 5.869697793699987093e-02 1.591741579678068730e-01 -1.026250676060605910e-01 -1.415893304721850543e-01 1.075449542980861373e-01 7.415177853996826607e-02 -6.798760501125707817e-03 -4.400194154574834510e-02 -1.203820429119273061e-01 7.269958145908250735e-02 2.883056071368175766e-01 -3.359351009575910207e-02 2.412331197543369221e-01 -2.868321922578491168e-01 8.720273831657482377e-02 6.839264648144065262e-02 7.684987054279506999e-03 -2.119141753379358561e-01 1.778018428541324261e-02 -9.452204832200940612e-03 2.910861006479594226e-01 -4.529141697397128657e-02 2.139752929216118815e-01 -5.893249094074107242e-02 -1.114018781313886458e-01 1.562098888634287919e-01 -1.701135624820995507e-01 3.605473157394822326e-01 4.965098666231585606e-02 -1.241711623015944593e-01 2.102379217204237150e-01 7.696343634514064835e-02 -1.062895707166735676e-01 1.401289176962456084e-01 -8.675459186034073511e-02 2.823869676743924820e-02 -7.064271047163672712e-02 -9.062582258418186432e-02 -1.179469015654691505e-01 6.348131273698472132e-02 2.631727014597923242e-02 2.859583428600591046e-02 5.653293966853318447e-02 -1.175420245139391917e-01 2.473539821313654741e-01 -7.458075770333201515e-02 -2.354868635130138652e-02 -9.365259791625980823e-02 7.367043804205088142e-02 -3.738642239502650705e-02 4.507947876976026169e-02 9.786019341906590507e-02 -1.264020840562720127e-01 3.906550063170718262e-02 -2.676175915775862446e-01 -9.037454537637229501e-02 1.798308003320370566e-02 6.628744715978049373e-02 -2.064746604737460745e-02 -4.895945435069258556e-02 -1.369844884534976437e-01 7.389928582808912016e-02 1.037031402473928207e-03 2.910658375412625842e-01 -6.572198997779368779e-02 -1.694898020843738917e-01 1.569554338683177841e-01 -1.710156630450681281e-01 -5.693235926575536399e-02 1.246898173153157124e-01 1.029396108051602518e-02 -1.726289036641947272e-01 -8.207085351567718068e-02 2.133289480233661328e-01 4.458566649751138922e-02 2.364593775897999572e-01 -1.878627750970516264e-01 3.554671491108708087e-02 8.334125638896225374e-02 -1.196166414601641526e-01 7.597672148176026763e-02 -7.040609438580738844e-02 -1.654841547255673784e-01 2.147147187616608999e-01 4.586735071802255231e-02 -1.258768258717788691e-01 -5.196471572356796409e-02 3.062608173814648782e-02 3.790897539053406616e-03 -4.644963798471202221e-02 1.532752776746081069e-01 -2.780635579624721188e-01 -1.384246362861259738e-01 -4.329576908234056276e-02 9.382708208251093474e-02 1.373039831192452709e-01 6.611011332071176083e-02 3.842901112030643884e-01 2.840561464594787422e-01 9.608972512953042888e-02 2.478667214080394754e-02 6.591432840616988365e-02 2.728204642233351684e-01 -1.228485461256900585e-01 -1.199716205483873227e-01 2.032344450697745608e-02 -1.476750202350527452e-01 -1.323810205063046530e-01 -1.292558094773332555e-01 -1.461285409249242773e-01 3.782299835286875161e-02 1.049523250337702296e-03 -1.634500588913899710e-01 -9.573854219918245811e-02 2.737817494175743410e-02 -1.685386153369368978e-01 8.734299382144032620e-02 3.281397413082553366e-02 2.758558837097541475e-02 -1.909876453037866531e-02 -7.768188600770858931e-02 4.089995822131491376e-01 1.851971463878596680e-01 4.603686001105575937e-02 3.285489122003257823e-01 -2.288402655111081985e-01 -2.744375424093364185e-02 1.123488963327022583e-01 -2.114873879033638340e-02 1.099401667492554552e-01 1.640477487274313514e-02 8.817867899048989488e-02 -2.049483546987183880e-01 -9.633547643329933019e-02 -5.576929073957403310e-02 -2.620955374532064619e-01 -1.345254118445411151e-01 -2.049434487408524630e-02 8.243662452946136365e-02 3.187465036385108696e-01 6.485563935203357555e-02 2.450865310031963284e-01 -1.225816256608704552e-01 -5.941556852189177479e-02 -9.138185024474967943e-02 -8.292701244767648749e-02 4.307580883342028953e-03 1.229252898918923795e-03 1.734486340475387689e-01 4.166654093243651880e-02 5.292946921737762267e-02 -3.300003144538128930e-01 -3.686456915468372952e-01 7.520396454869032743e-02 1.362430567950628779e-01 -1.252670494600083007e-01 4.149707626833227386e-02 -9.138971505566440001e-02 9.262279702274570092e-03 -5.221377876861703349e-02 -2.776750199296995625e-02 1.263768274731666141e-01 -7.568220054162878851e-02 -3.440608924385839262e-02 2.133759665639628766e-01 6.686632230756825446e-02 6.258800949081930187e-02 3.348198241998330549e-02 8.975386470936773387e-02 3.720191079937003320e-02 1.230325417303362173e-01 3.019459556301575323e-02 -1.007209901417631948e-01
-1.476490225151134428e-01 1.381864369295299488e-01 3.553058159196128551e-01 -1.129392138353019215e-02 -1.367571350452312928e-01 -1.600101196603047615e-01 -3.719644518918938797e-02 3.856348455843939260e-01 5.141876427233608993e-02 1.546550590572854378e-01 2.928854727003609715e-01 -1.036159213770206505e-01 -5.107785747804336612e-02 -1.879962148247640852e-01 1.642690459862099217e-02 -1.198442199697464239e-01 -8.528590578245177911e-02 3.698764298419447011e-02 2.252708298465143366e-02 -2.750961830944292918e-02 -1.283141761456472185e-01 -3.898690908553722329e-02 -3.145447958061105553e-01 1.307264273416856026e-01 -1.251286424506934114e-01 -1.694404141863306290e-01 -4.228030865557590168e-02 -8.338803138423546424e-02 1.170342196294048287e-02 -2.490813689411778761e-02 -1.800861159486598362e-01 -1.621018301654138516e-01 -1.991737322073169544e-02 -2.199071762248575590e-01 2.612196720290503871e-01 2.633289303712498253e-01 -5.237022491897012216e-02 1.989909219088674061e-02 -1.011096464721558258e-01 1.154055799577505120e-01 5.407467254690100783e-02 -1.303628861757314683e-01 5.986323372251502878e-02 -1.306431570074763904e-01 -3.005984236308675284e-01 -3.125134523332863921e-03 7.428431933270254750e-02 6.261607964423694661e-02 1.338821908771417601e-01 -3.719426847501401956e-01 8.202529732143275243e-02 5.615921942153924429e-02 2.215817039924562470e-01 2.998434605068512893e-01 -8.325580565505660835e-02 -1.187165460109770310e-01 3.293055764070557806e-02 -1.907334776705857660e-01 6.133878419278918082e-02 2.915107970485121269e-01 -3.321565305117771261e-01 5.498234428320390998e-01 -1.024883406053240659e-01 -9.890597891389069432e-03 -2.724156294478484799e-02 -1.180108659119796788e-01 -5.084171257527149435e-02 3.571915560018528585e-02 -2.655762042155917491e-01 -1.352629590435840135e-02 5.507412949779890744e-03 1.822439931420687664e-01 1.597949621334161796e-02 1.702714514591257278e-01 1.280870851153517453e-01 -2.055256226044316695e-02 1.265864151759251224e-02 4.294215381889245342e-01 2.590960842387460272e-01 -2.485908505451694395e-01 -1.391702167959298631e-01 2.972782953710363385e-01 -1.464634556180432201e-01 -6.769950585804401788e-02 3.519545603789861477e-02 6.365892072267322066e-02 -1.766697925564344324e-02 4.669102849329517246e-01 7.299407342136161880e-02 2.874304684997294745e-02 -7.910051946307528059e-02 -4.513903280950535418e-02 2.087011955597835033e-01 -1.125195769670211954e-01 -6.293552603153516889e-02 -3.787545135321537804e-02 -2.729705491770768599e-01 1.196408772994241899e-02 9.658418787150808982e-02 -4.964855929403252238e-02 4.683505611388291134e-01 4.385524290028956079e-02 5.815886724521307505e-01 1.005811888008464466e-01 -2.620269368152411404e-01 2.318352535808727299e-01 -1.728774329557087042e-01 -3.272667219937819283e-01 -1.582516613045816256e-01 9.581712590060800783e-02 -1.911074681068937464e-01 -6.387816647028395425e-03 -6.078851337332025206e-01 1.042491601334903095e-01 -8.164599547154302583e-02 -4.975326930292041372e-02 6.658908101539746660e-01 -5.186278726762888480e-01 -4.004889010091771673e-01 3.101526154001616464e-01 2.538112607117294292e-02 -1.947184975152467176e-02 -1.246326971394796507e-01 -6.854070102860755631e-02 3.333832086292516927e-01 -1.434362749602734743e-01 -2.398294109982388456e-01 7.304862466302433632e-02 -7.799462073100948967e-02 2.066590063238449293e-01 7.249656464201742478e-02 -2.678938635428043669e-01 4.523129897397763499e-01 -9.100082416878731151e-02 2.830388128514455537e-01 4.165828964377954989e-03 -3.507747571605196457e-01 -1.878232926603740777e-02 -5.232645231463928237e-02 -3.816606330108849310e-01 6.587121060854978644e-03 -4.383673517799109576e-02 -9.212927257720811280e-02 -4.228202840340099938e-02 6.521086442318588805e-01 2.544560823484305900e-01 -6.494116744305730715e-02 1.073007844660347210e-01 -9.819934717173038619e-02 -5.499238592170800285e-03 -4.541486762747765638e-01 1.409491629601486162e-01 -1.595715392051441361e-01 4.264138289451557817e-01 -6.898661898583979823e-02 -3.372264512423044092e-02 -2.183421307767556552e-02 -1.877537303665039944e-02 4.803043360150411126e-03 -1.865402606028788157e-01 -1.420298220876537731e-01 -7.458446550140807041e-02 2.300943066859522934e-01 -1.131189308710471852e-01 1.063842780378529418e-01 3.696412385402897405e-01 -1.349119814750312785e-01 2.723622957134030909e-01 4.279101524738465612e-02 -4.060358622427118203e-02 -3.493296930255499477e-01 -2.862966798462765472e-02 3.186540669301181627e-01 -1.743849908687915284e-01 -5.244440808251221720e-02 1.855300369415794626e-01 -1.960494999743395139e-02 2.556733787874376218e-01 1.845556721051962723e-01 -1.441168418539783280e-01 4.906883394679210225e-02 -1.980765703409027023e-01 -6.812420414052843681e-03 -8.085894128801751624e-02 -1.260215709777199322e-01 -1.422179398232791825e-01 1.685416180578007406e-01 -1.788729504798172720e-01 8.851614242941949207e-02 -1.837576040601813232e-01 3.567425763370308256e-01 3.555519424454052224e-01 -2.767281652912239598e-01 2.525182607362955189e-01 1.687238129461288844e-02 6.157783319886576123e-01 4.674666898763456951e-02 1.326574250660486898e-01 3.727824701250861267e-02 -8.815792382158571527e-02
-3.056748041370117505e-02 1.331441589833403383e-01 5.099196119250462567e-02 -2.776645686351254805e-02 1.246046219400819832e-01 1.282670248896467524e-01 -1.590729433454730335e-01 -2.052712066169898597e-01 8.352922593967980480e-02 2.046089298743156981e-01 1.339586826601503189e-01 -9.477357777769940261e-02 -2.396364380567599442e-02 1.659426075884951335e-01 -1.615176143049897872e-01 -1.711660454689419852e-01 -8.322325884254117012e-02 8.067404926487369010e-02 1.040600236061033634e-01 3.387468350150826119e-02 7.159072326264681596e-02 1.458577934085922012e-01 -1.046502676714056446e-01 1.456424524994388014e-01 7.024411249962261850e-02 5.263181601435033136e-02 -8.135619941126846777e-03 1.752350150400626694e-01 1.692163974693006445e-01 1.876918739841762929e-03 -4.630664834033067223e-02 -1.128468301276169122e-02 9.054417537129307025e-02 -7.264052663039281821e-02 1.116911442841792002e-01 3.476575079474924362e-02 3.571679431832441853e-02 9.086028567050223950e-03 -2.175340170216909924e-02 -1.139736351967758632e-01 -2.199313000971280310e-02 9.222346278985971146e-02 8.238036512245630605e-02 4.992799218839019670e-02 -1.913237035745880485e-02 1.371167278867841954e-01 1.866459742492380391e-01 -1.829380028028604679e-02 1.167015476847317879e-01 6.777010277784809023e-02 -4.239888340882778939e-02 5.373792105707955041e-02 7.850683360346419337e-02 -1.407460091345850151e-01 1.213888914170610095e-01 -1.591228829105811871e-01 1.354832068860833683e-01 4.383442768048266547e-02 8.530870702049903054e-02 1.186412365906054783e-01 1.383020536788401034e-01 2.400633497804463209e-02 2.804644522692639752e-01 1.141076919205391560e-01 7.455031329753729341e-02 -3.250477048244939521e-02 -8.278755403062734719e-02 8.786289080438831889e-02 -5.134564691411585419e-02 -1.787845892860063235e-01 1.234425728030987268e-01 -9.422977741596141182e-03 7.995135376986274578e-02 2.340671905887605486e-01 -1.462678774389871428e-01 1.085615639896945345e-01 -1.388677627851821368e-02 -8.319079994365397024e-02 -3.559367076781647793e-02 -1.094590037670547938e-01 7.745820632373362491e-02 -7.352385421462104276e-02 -6.510792247706873037e-02 1.281752839667903987e-01 1.079308877005098893e-01 -2.210306434229086792e-02 4.341221972739692930e-02 -4.026185679721918514e-02 2.870459017644876737e-02 7.243800527372486198e-02 1.587693240062886813e-01 1.559398240715413053e-01 -4.855504167713179525e-02 1.883787136129983775e-01 -1.616285539905528978e-01 8.734212142214914376e-02 -2.016322611887655381e-02 3.143183776981491040e-02 -1.860619233333436484e-01 1.213671096145573208e-03 2.406443122854778349e-01 -1.534960667916134523e-02 1.353320715709755741e-02 -8.570236104517994780e-02 -1.117453885481409781e-01 -1.041500193864880637e-02 2.295460333080267049e-02 7.147526644559328013e-02 -2.243984505260883128e-03 -1.052843155701316258e-01 -1.195809009731418487e-01 9.659629369326225290e-02 1.369032250154839370e-01 6.488813580350778765e-02 1.277602660620139052e-01 1.616911106245077709e-02 -2.898624066401206748e-02 1.508261305963587429e-01 1.400295367661929802e-01 2.421198910874700419e-02 1.415669161692248434e-01 9.777436008143439161e-02 4.962900482315750483e-02 1.556579222185901779e-01 3.032969097958737245e-02 -6.306943115320336191e-02 3.575377197481059421e-01 7.703958382910579446e-03 3.027846322500411524e-01 1.295312791874682068e-01 -1.470291599675489225e-01 5.213336746322032658e-03 -6.179411198421348728e-02 7.943394340574214119e-02 1.107121199455296662e-01 7.299932923269321534e-03 1.137958205464444650e-01 1.739909527610827011e-01 5.644954940297457896e-02 -7.594026310977257388e-02 -7.477122999233930083e-03 8.569973002029256104e-02 1.149928297122276150e-01 1.825349469059162344e-01 -4.584403460448912421e-02 1.397860804351776058e-02 1.739529163834280523e-01 4.288653831123741961e-02 -1.076009767325515343e-01 -1.948977645830351352e-02 -1.348514859102367507e-02 2.100709782997936259e-01 6.979102768993390715e-02 6.729372100760502851e-02 4.720822483118688323e-02 3.384279543836353488e-02 2.004038705948140431e-01 1.474043238681971846e-01 -1.534702634162259452e-02 -8.360329271142062646e-02 -2.931575730321873963e-02 -3.185956947079272156e-02 -8.884592460150370075e-02 1.819981178038791447e-01 3.746349266902028463e-02 5.535295301959242825e-02 2.047791914145097314e-01 1.545169336336101318e-01 1.466893745958830486e-01 -1.214468710743035404e-02 5.939041398399047197e-03 9.669628539548111301e-02 -8.752954545080068871e-02 1.269780417912342863e-01 -1.443082646895254562e-01 -8.242185405620158778e-02 1.596846043667942694e-01 -4.849702103154352600e-02 1.693214400632591932e-01 1.247432809818865285e-01 5.532930211516004504e-02 6.398686450660193148e-02 -2.686948591920943624e-02 -9.069331618083270596e-02 9.181346704649612916e-03 -5.767068013761452588e-02 1.233779198165097825e-02 1.949492198436676704e-01 -6.296012747974077950e-02 6.585437078671146915e-02 3.580900805693580657e-02 8.068601518776422066e-02 -9.765606152485363511e-02 2.030849105107082608e-01 1.633947618721038886e-01 2.232558418141387946e-01 5.221044338872175838e-02 4.669648578381425941e-02 1.685151215992423679e-01 8.651379076295251380e-02
1.482312323235100704e-01 -3.308983813950862052e-01 4.437709632555719014e-02 -1.089338114087418513e-01 3.824474463314120887e-01 -3.370043336647807197e-01 -2.247579138029211776e-01 -1.641521692653069853e-01 4.420171384954811877e-01 1.474079581229145453e-01 -3.652711448477289347e-01 -3.714106747659398078e-01 3.485471391916551698e-02 3.789046099121437527e-01 3.676065824872899457e-01 -9.205106371188166714e-02 -1.262898845476854159e-01 2.082825067631987881e-01 1.099393329071955694e-02 -1.002958638326412050e-01 1.907013095429249960e-01 1.779558241624417669e-01 4.385531891631170298e-01 3.143366835876212212e-02 -4.342072307746015075e-02 9.040466471651957547e-02 -1.027058979440106379e-01 -5.390597646562968887e-02 -8.441554571176827781e-02 -2.477863718653353087e-01 -7.482803139361321465e-02 -9.148619714361197475e-02 3.232820846744433596e-01 -1.220539854907698590e-01 -3.286338468072963481e-02 2.904890136109198884e-01 8.501489268823550494e-02 -6.295261625138642847e-02 -1.592107432974935732e-01 3.180085350809563893e-01 -4.129594436952834235e-01 2.166366679238089857e-02 1.028869425013016203e-01 -3.821280862987401494e-02 9.145921327564242309e-02 -2.076029971328451906e-01 -6.321399631814798858e-02 6.930598990453758212e-02 -1.285584052844925516e-02 4.161654896243618951e-02 5.124552036210852646e-02 1.875192142636344927e-01 -2.349355584659629931e-02 4.259328626768519865e-01 1.426228456547537771e-01 1.704281740919887274e-03 7.670111090696772604e-02 -7.525023067540702326e-02 -1.216694482288704221e-01 2.931126251673558947e-02 1.611193995490406428e-01 -1.986741237608819766e-01 -1.623841273319701420e-02 -1.549824246917657355e-01 -6.040716132185866560e-02 1.905415782027392313e-01 -2.934036672962187509e-01 -1.775117847647645908e-01 1.707285540941326230e-01 -1.544866834942066613e-01 -1.536674847934592358e-01 -8.169789451355183307e-02 -1.477862669572050647e-01 -1.954622682733908878e-01 -2.630233299724213381e-01 -2.341102721403766351e-02 2.332420687668035689e-02 -1.577508857909717122e-01 -3.482478256709510556e-02 -8.850847162507327615e-02 2.795975520582726428e-02 -1.231734799343863970e-02 -2.077463742971298599e-02 1.818199625432345978e-01 -2.604287350249061966e-02 2.734717077584293277e-01 -4.607469674403742721e-02 4.123444845682695120e-02 4.625024767586054936e-02 1.085104343040679264e-01 4.940677478391993782e-01 3.237376229990631127e-01 -1.343235432656679773e-01 3.181866727204898937e-01 -2.409891371788679126e-02 -5.009528884041991592e-02 -2.798556627220332160e-01 4.164084343856077480e-02 -1.848018903638404264e-01 2.157726571061965512e-02 6.176977919403832118e-01 2.626236845004491574e-02 -3.930591779212646020e-01 -1.048208125206007563e-01 -3.398897168009418213e-02 1.547826056959861474e-01 -2.616743292687189193e-01 -3.613405675396965111e-01 -8.487322173544230297e-02 3.966162671950121052e-03 2.763313614030983856e-01 2.216020736362173116e-01 -5.727033425485815732e-01 -7.707426002016158628e-02 -1.284468490387645212e-01 -8.150589095033088094e-02 -5.632644688415043566e-02 -4.047986226490968842e-01 -3.630828126726329264e-02 -2.801796050300813246e-01 1.331512716943364094e-01 -3.786990050453489104e-02 -2.007418407275392835e-01 2.562380054629266324e-01 1.382567055887185536e-01 -3.195242894051632254e-02 -1.633079898816840458e-01 9.226537861723105999e-03 4.182937015111952428e-02 -8.111365582858270917e-02 3.086424638814612431e-02 -4.624394497490084965e-02 -2.262754209532565342e-01 -1.426369962217430461e-02 3.066329017943554211e-03 1.865555101576910901e-01 7.936060382122163415e-02 4.503051266432744892e-03 3.381176187363346686e-02 1.157157868809348122e-01 -1.069514733270872115e-03 1.122446721982695433e-01 -1.314119260449856941e-01 3.889350297868701123e-01 8.731735891478133171e-02 -1.390145374552633484e-01 2.661499531120395390e-01 3.388022160089185220e-01 5.764546819315076176e-01 -1.962500759454745020e-03 1.545711681845594598e-01 1.536877915643800607e-01 -2.984699676979802874e-01 -2.343424986285379263e-01 2.703123130293187959e-01 2.256189687830373602e-01 1.280661764445740203e-01 -1.333830711346170317e-01 -3.883192257982758661e-02 1.491544642194936321e-01 2.666081571632703540e-01 -2.510648476775535071e-02 -4.992501452200222463e-03 -3.465704960903399634e-01 3.353162759279857547e-03 -2.553402420884157698e-01 3.122635971597900184e-01 1.078247732807756792e-01 1.640799812375144662e-02 -2.874250210691631224e-01 -3.166624320144623139e-02 4.307080691001567707e-02 2.471796401280887678e-01 2.804473678853324631e-02 -5.440554610551363163e-02 5.137998823771265933e-01 -1.537435494308179648e-02 -3.282079356446070961e-01 2.157784012303759838e-02 1.244121741097568429e-01 1.138649135796207801e-01 3.522546573182515628e-01 -3.089742082254376063e-02 -1.355022390709293700e-01 -1.053586830067255176e-01 -2.185588224803813873e-01 -4.507183379316207633e-02 -3.804228069847138682e-01 -8.297965945194338278e-02 -1.290125906214528440e-01 1.271060855034999437e-01 -3.903431711141178671e-03 9.392197282254027835e-02 1.074056295442058634e-01 3.687871482468302875e-01 2.734868016566883719e-01 -8.504581559267795909e-02 3.477512078238474413e-01 9.725455608017044562e-02 2.242710288366694948e-01
1.926653358995165100e-01 3.121778647269578544e-01 3.343913821921017382e-01 -1.972561235085262821e-02 -1.621483156119935820e-01 -1.068610341780019818e-01 -7.081856023231376807e-02 2.647287559365641418e-01 1.025383822468895062e-01 -1.590382238351725486e-01 1.016619836752382378e-01 -1.426834134056391146e-01 -1.386119718672121082e-01 -2.643329244535712677e-03 -2.786486109909153130e-01 -2.580103680233060692e-01 7.919838012478154499e-02 3.373917830521322991e-01 9.299813434938669632e-02 1.499260800617293610e-01 -1.265069678428619171e-01 -3.319221538260429261e-02 -2.459736929479069967e-02 2.302050357787545354e-01 1.048189994648354162e-01 3.160772160395915187e-02 1.139277259239090817e-01 -1.062932002608936166e-01 -3.844000025727723618e-02 2.345956955748492445e-01 -3.446027622192527340e-01 2.664634525944064095e-02 8.134083774095274277e-02 -8.543943102661744060e-02 -9.580067409548366497e-02 -6.492445502904803378e-02 -1.131344844641936909e-01 5.071440638923221944e-02 -1.729442760563363601e-01 1.352167726117132485e-01 -2.091227437375987874e-01 -1.897128922019198360e-01 -8.311983794849674145e-02 8.596167297620116443e-02 2.245563324642895486e-01 -1.992341224813318212e-01 2.390991118060849588e-02 -2.563836150406461623e-01 -1.598435824030824612e-02 3.221134007169937918e-01 -1.261124461415853992e-01 -7.353604206132834109e-02 -1.030830795979990194e-01 4.270244553318529313e-02 -2.112013184881163796e-01 -1.090592681773510514e-01 2.908351440413765171e-02 7.738794358520687325e-05 4.317880985257374626e-02 1.695502849708070414e-01 -3.158820019915246080e-01 2.360396134588699513e-01 3.208922602444361921e-02 2.837302529590703948e-01 -9.307128500842676289e-02 5.599747467383872079e-01 -1.669168064966175813e-01 -2.106526309647554496e-01 5.198367481462330408e-01 4.740374828875364155e-02 -3.436907768892282222e-01 -2.162324495990369522e-01 6.041971015290480418e-01 -1.110409848514562758e-01 -5.651402177274619104e-02 -3.807530316590039265e-01 -8.606448127752858168e-02 -6.030081059203347416e-02 -2.667487730347383734e-01 -2.845090388797782976e-02 9.234347689909290502e-02 6.703559513409821161e-03 3.926016220525495037e-01 -7.082632857601900422e-02 5.608476472328658563e-02 -8.886593915359584928e-02 1.353555423647122280e-01 3.878254109677824885e-02 -2.290619558475979478e-01 9.730253656595858058e-02 2.781814853174396918e-01 -1.786877352537745989e-01 -2.306599975278670056e-01 -1.086341625472513756e-01 2.463043002327175782e-02 -6.647789271546573897e-02 -3.372121522931740834e-01 -3.696815583760177520e-02 7.676249218820967446e-01 -3.379355238081191426e-02 3.587706704482389597e-01 4.977214632097024666e-02 -2.219020558933733345e-02 2.267065243963718724e-01 -1.989193981281394685e-01 7.160998986408592670e-02 1.306847595403800022e-01 5.981373409757543280e-01 -1.165105278687885021e-01 -5.663041480548878376e-02 4.183366080293217659e-01 -7.450191995224199337e-02 -3.638467463104565203e-02 9.040781474525458328e-02 8.780534930216848943e-02 -2.602516966957275565e-02 2.217141640999235885e-01 -2.037958986073558354e-01 9.103008795829832522e-02 6.543776466295710137e-02 -8.170638525175155653e-02 -2.670117121102709712e-01 5.137394988436826126e-02 1.117864321533482488e-02 1.906881897247602042e-01 1.949162202641793462e-01 2.485786897389180850e-01 -6.892851130192295672e-02 -2.720838457539996869e-01 5.721444676836887622e-01 6.321330401300105928e-01 -4.081462699595299337e-03 -2.915318112375767795e-02 2.049630892285922157e-01 -4.477554427355703165e-02 3.241061806542666068e-01 -5.225527844561334012e-01 5.121202438406872309e-02 5.417744456676231585e-02 -2.757351655845629024e-01 -4.539402782650178020e-02 1.305074876315323595e-01 -2.066488857127280754e-01 -2.999074802488379057e-02 2.800846644642046579e-01 1.852690934395741507e-01 -1.515037233257891247e-01 1.630023972546994770e-01 -9.362778146722143535e-02 6.096959802242113771e-03 -2.370793590304656473e-01 1.268382449731505768e-01 -4.363906379246827449e-01 -9.857824385431347702e-02 -4.916151261585780669e-02 3.009233975983637357e-02 -7.655832604079932345e-03 -1.393402938473744246e-01 5.911714363906901692e-02 -6.327626212942664627e-03 1.952547342882855058e-02 1.867514985154390406e-01 1.079722261566954528e-01 -1.902341028438223891e-01 -1.641466625272441915e-01 5.306776210478224565e-01 -1.781414244176681705e-01 -3.096252416071992308e-01 -5.106596138686490122e-02 3.676067669679745076e-01 3.812473422121892552e-01 -4.432383828263161685e-01 -2.530584691735127678e-01 2.645244475095443609e-02 1.821281586499666760e-01 1.745867385592366761e-01 1.700764478004812563e-01 7.691254912411318867e-02 -9.589289717533740209e-02 -1.820854321082752136e-01 -5.681779434288256048e-02 -8.315986695158278375e-02 -8.847425398136164743e-02 5.718079539761821567e-02 -2.627404590823525718e-02 1.987567737278116420e-01 -1.063657786115716486e-01 -1.850372297088580253e-01 -4.245140772930838802e-02 -3.269764532491390430e-01 -2.340095911274699403e-01 3.230248104855395486e-01 2.549979368439780902e-01 -9.733208519725105104e-03 -8.413666841622705062e-02 4.429257466647948949e-01 -6.495428498038872955e-02 -1.511752458223765139e-01 2.836052546651057216e-01 5.011407224986619280e-02
-1.821846505179388898e-01 5.508798582931655891e-02 1.032459450777619553e-01 2.110048047017388517e-01 6.281186469822198741e-03 2.575252574415972523e-02 -5.454597608746765414e-02 5.711034549202218674e-02 9.308816943782186049e-02 6.500521235767083017e-02 4.542706308671304533e-04 7.702087387699106669e-02 -4.331914880129605905e-02 1.154204338820172676e-01 1.384712834144345706e-01 1.716662789153101665e-01 5.002040566494234813e-02 7.834088358700731780e-02 1.027801585840566606e-01 8.028903293183431433e-02 1.371768062081310524e-01 5.249196027838826106e-02 -8.396884536451787798e-03 1.180777311945429564e-01 3.406869895185993258e-02 -2.212324374355247383e-02 5.835950214921470369e-02 6.978618925934239325e-02 7.223842430223620381e-02 8.338374805470899487e-02 2.058253080467012941e-01 1.668434140872606386e-01 7.768498255269914998e-02 1.448407786554267440e-01 -6.860813175652706901e-04 1.372536024758859614e-03 4.953740221920640424e-02 5.810391591940466255e-02 -5.702360142584992492e-03 6.066594099558118847e-02 6.582721919802198007e-02 1.373116974903134391e-01 4.219429511916666237e-02 -6.643169123673751952e-02 -9.079257152349112792e-02 -6.515913823060867638e-02 2.527028384859142732e-02 1.396650865851573747e-02 1.217023527790718623e-01 -5.071684321816863350e-02 1.158840660265591654e-01 1.210964026221893058e-01 -9.313592823833516041e-03 1.393359566395034055e-01 -7.874401595842572821e-03 1.809187996967809575e-01 1.041704578548094916e-03 -7.771506713336688577e-02 1.620400850186029806e-01 6.374533577126574591e-02 -1.666469909550679154e-02 5.698803492169184082e-02 6.958116286528753802e-02 1.079703566646316171e-01 1.284909123055208435e-01 -3.619698100178430494e-02 5.622436167966442938e-02 7.361059398104423390e-02 3.596975013486197054e-02 8.796437647531296644e-02 6.385326804057329941e-02 -1.557769802421950407e-02 -4.162541623509981303e-02 8.219913475247370149e-02 -1.225811807755067609e-02 -4.549601533599182540e-02 -1.064605969656973739e-01 9.791554565386674167e-03 -1.937058934228370888e-02 1.022652914677805308e-01 -6.598608729401185882e-03 2.025104193527817523e-02 -5.675258439850039416e-02 1.898348670779711478e-01 1.015322125113795326e-01 3.048720875055488042e-02 1.070792423500011997e-01 1.634314340073254046e-01 6.146670642605948920e-02 -7.693504216327886475e-03 7.987164246518370370e-02 1.004638208094848079e-01 2.016683409493568932e-02 1.159575044852664549e-01 4.427782156896992172e-02 -2.895412229968468212e-02 -1.762385042257541209e-02 -2.274320790283983901e-02 8.042667860347867126e-02 4.156040565321858504e-02 -1.420537728104629693e-01 5.518223064386371807e-02 -1.159209644331626876e-02 -8.065230164897263521e-02 7.796715574966378570e-02 1.426218043665029023e-01 -2.274989007282177816e-02 4.026824920803710739e-02 5.228584066152931059e-02 7.331860329587558400e-02 5.661934144041689404e-02 -5.509493557994192547e-02 9.394055645591917192e-02 3.398847824574839638e-02 1.559776016348699834e-01 2.574026886690886431e-02 5.984741966919700229e-02 1.855078823183556932e-03 2.324124991956525582e-02 7.778376316432167314e-02 3.690554644752293972e-02 1.242683730449703344e-01 3.602010864084901481e-02 -4.370310074824239333e-03 4.090680347472133715e-02 4.005815322730917755e-02 -4.368471701925277784e-02 3.485894888352529530e-02 1.602505656652563337e-01 4.154114746765418670e-02 1.269891109518590799e-01 -8.243406513972707794e-02 4.933287952826100747e-02 -1.080065433634741223e-01 -6.227543040231642985e-03 8.052095116250750084e-02 6.015650935773610153e-02 1.992655541395603469e-02 -7.181202419964187456e-02 -2.425774523874012212e-02 -9.145250888059860972e-02 -8.316834236110072845e-03 2.324426868367079208e-02 8.668004602390651236e-02 2.236912448036467924e-02 7.930267383464267850e-02 2.269915410545567461e-02 6.282392991447963149e-02 2.749792395563097763e-02 3.944946124449465880e-02 1.534688527592959970e-02 -4.960950014230502969e-02 1.106157744433381059e-02 4.781356716043997507e-02 1.093461320649624369e-01 1.951686501975971946e-02 1.048526907727619639e-01 1.080249249661203587e-01 5.140201020547947863e-02 4.966902511656708791e-02 -7.363219823523346579e-03 9.072510805190120431e-02 -9.177008945564520126e-02 2.511799184967369435e-03 2.499747891239800235e-01 8.717484272231820763e-02 1.410159511189131021e-01 -1.371661421529410951e-01 9.410670819093364114e-02 7.180304997071601525e-02 3.844203747922312481e-02 1.008725368616459478e-01 4.635641557273430940e-02 7.412594050256381129e-02 7.308947571548297939e-02 4.453346009533117045e-02 -9.777927575542830207e-02 1.182583284077910329e-01 -2.427981219901101037e-02 4.402068943167338801e-03 4.054046129617733599e-03 3.201122058567423129e-02 7.273436807879032906e-02 5.663200578639195765e-02 -6.840546867884554454e-03 -6.244711019188349532e-02 1.509618468158147875e-01 1.272060870751511308e-01 4.366790506423487081e-03 1.553796764743956837e-01 5.137310274054394249e-02 2.064567101055263948e-02 -8.123640112341137809e-02 -1.215106150432897353e-01 7.948067542398158658e-02 -1.027049137421649078e-02 5.015479680818262648e-02 6.817539920044385360e-02 5.018470778533645760e-02 -3.558512072226795164e-02
9.625040584411821698e-02 -1.114752025495521076e-01 -1.555654364769427922e-01 8.658663862277193868e-02 -4.767483201852442537e-02 1.161487848423873870e-01 4.696734030582948999e-02 -1.853672055042717565e-02 5.242119937683306641e-02 -7.839125176312493337e-02 1.762103276319518519e-01 -7.337018963830693741e-02 8.490269844235091845e-02 -2.547958035070461147e-01 5.532109035575329473e-03 -2.211511169761111173e-01 1.697998771922057740e-02 9.468451253443638249e-02 2.478952622505238568e-02 1.642200785547599517e-01 3.842873872762449933e-02 -1.337622136704886555e-01 -6.491640083594013566e-02 2.076521072303090867e-02 1.371987828881255367e-01 2.982372476906143197e-02 7.830871923793869538e-02 -9.683089949495944648e-02 6.059051655531985658e-02 1.023724336366275099e-02 2.650031976299341285e-02 -8.221248347602613804e-02 4.727290865351870680e-02 9.115944577893740630e-03 1.895069731431084092e-01 4.881956594107708138e-03 1.570507539146745180e-01 2.374307033050734594e-01 3.122970825537382811e-02 6.051758225827293461e-03 -6.770487878548311737e-03 -3.764968974832216125e-02 6.311180829156615157e-02 -1.460262681482728808e-01 -1.003303238562710566e-02 2.033061016907070917e-01 6.404014186672501996e-02 -1.823374075817680018e-01 -8.167311727664085252e-02 -1.247209342894582823e-01 1.105120812227811805e-01 -3.310522693428241681e-01 7.873972341802379371e-02 -2.828082076430946112e-01 4.125205788254384109e-01 -1.298605294511483987e-01 6.662935709465372947e-02 4.038005006064626645e-02 9.480803949231041139e-02 2.211224522594844658e-02 -3.256404080516980826e-01 1.818947850827636048e-01 -1.511393760223133688e-02 3.093627603403013501e-02 1.627558080671885343e-01 -2.757577447974739471e-01 1.818268961961967134e-01 -1.382450502413115623e-01 -1.276318893022277690e-01 -7.185430079007915083e-02 6.487181088992541311e-02 1.260944802748629467e-01 1.872648571330086942e-01 3.908045927161299948e-01 1.637227527413227801e-01 -8.951887469468740310e-02 -1.253990822700720431e-01 -2.357528029245836987e-01 9.122500324940108207e-02 -2.816220762107373710e-01 1.235185195841835733e-02 -1.733856758756794486e-02 7.431573225397097165e-03 -5.295011159069943490e-02 6.805750163679868958e-02 -1.545564574461808990e-02 -3.198065793878968749e-02 -7.591800799431977324e-03 -1.904264366552930743e-01 1.047960436255500200e-01 8.635274521786649726e-02 -1.143221657059088209e-01 -2.403627253670541086e-01 1.111780546080457302e-02 3.475674260454890696e-01 1.348445229359878650e-01 1.841269100841380069e-01 -6.707365318437463753e-02 -6.987140270071980075e-02 3.252227295528940798e-02 -1.857961940829080949e-01 -6.079342782972459169e-02 1.693544422527759608e-01 -7.671216783399999184e-02 -2.797275503395169061e-01 -4.970630670826902547e-02 1.656527771946754712e-01 -1.459345218728569094e-01 -1.610241499229932982e-01 8.315228961979269362e-02 -1.811663533935971571e-01 -1.869280853319462907e-02 7.110299832861018132e-02 1.923168503515788053e-01 1.479010920215025338e-01 1.486084130528527586e-02 -1.885407132330162716e-01 7.953568130154899107e-02 -2.232198620537243633e-02 2.494911393532074362e-01 -1.768557098796934013e-01 3.532783035274200678e-01 1.511931301682224206e-02 -1.293381075687178861e-01 4.854248001796827167e-02 2.430345049884613876e-02 -1.710073097622501481e-01 2.210530164938068753e-01 -4.229735967521404405e-02 -5.527422462144005941e-03 -1.076976067931723763e-01 3.141080014587201985e-01 8.786172706368744478e-02 -6.644299522144023196e-02 4.789150202916012816e-02 1.191700189736212417e-01 1.769889450796443067e-02 -2.452522564926241239e-02 -1.339868856820297383e-01 -1.663567601730377987e-01 -1.284290309659340962e-02 1.764608299983501036e-02 2.232624478879749463e-01 -2.388637549159470519e-01 -1.821751678169538854e-02 4.763952423526179869e-02 2.520587381663892401e-01 6.771432614118466642e-02 -3.185514232899563924e-01 1.263180187711300806e-01 -2.516971526568953510e-01 -9.841149651160150530e-03 -4.190207636947768793e-02 2.509710896832776927e-01 -1.885240601134826333e-01 -1.973600944980611893e-01 8.299284950840747632e-02 4.446700040950554156e-01 1.880509931738346199e-02 -1.971086823031876489e-01 -1.314724103822426382e-01 9.654826327812811304e-02 2.510623297606586202e-01 -2.041264699643285108e-01 2.484484518354733440e-01 2.357870082933243017e-01 -2.352811919536749174e-01 -2.169029389267349006e-02 -1.795434911727680077e-02 -3.079978038959100411e-02 -1.300930139908113015e-01 7.325798410878350819e-02 -4.076341065803243749e-03 -8.630335609320803625e-02 1.415500573276255447e-01 -8.577230091456038152e-02 -2.597386561344797867e-02 3.513917755805795462e-01 2.583742029192695466e-02 -1.069079243229301562e-01 -1.840034280856394644e-01 -4.897661308821231463e-02 -1.039210694467675167e-02 -1.360401566041024024e-01 -3.794411473658567541e-02 1.115367383697831033e-01 8.928700123212952866e-02 1.617107038283806600e-02 4.945991237783730482e-02 -1.288576406050631895e-01 -1.477919960881963757e-01 -7.525997646220813908e-02 3.713902772052985173e-03 4.389643609251942524e-01 -1.364986518108164681e-01 -5.202408074969087221e-02 -9.498093699804963097e-02 -7.145917276634190796e-02 -3.267526186689025808e-02 -1.855702010625631115e-01
-1.199400423944095989e-01 -3.749034240160278864e-02 1.799627929470621057e-01 1.741263054547317890e-01 -1.582701136388979177e-02 1.110148470294574363e-01 -6.469886876917906038e-02 9.520757749453867547e-02 -2.300541068662134009e-02 2.066451369484028078e-01 6.736624387935653824e-02 -1.243015426687362965e-02 -1.100337233733126099e-02 -1.323379708463741020e-02 3.743058501757499934e-02 -4.491677514148197450e-03 -7.944873104526259042e-03 -1.629870209416567003e-02 1.177761632378320766e-01 1.926036894579334358e-01 7.411599580122558983e-02 6.779955366707492159e-02 5.962970224935110891e-02 1.845295943574023489e-01 -2.967052593089376106e-02 -2.072127934587085843e-02 1.433922547545783688e-02 2.923403770728872850e-02 -7.005381348531368457e-02 5.040711917831387778e-02 -1.225132529204443245e-02 2.234510893836812867e-02 3.820166832510170363e-02 -8.163455161720699349e-02 6.173144775835987669e-02 -6.520003869399017271e-02 8.631051264907557696e-02 1.829710549006475506e-01 8.798190160091574896e-02 3.555245105266451044e-02 2.070136292762096708e-02 4.413283077294199302e-02 1.057332801187485793e-01 1.895743718761895569e-01 1.198253319099179398e-01 1.872458880078034515e-02 4.417339636300864070e-02 -2.714258647138382413e-02 -2.640923292398393574e-02 -3.129078594624979531e-02 -4.690831921723045451e-03 8.907743735140301322e-02 -1.618929286828873701e-02 2.278654016352233413e-01 1.076625915009375364e-02 1.205921257673251284e-01 -1.016130828879783718e-02 1.123036341671479199e-01 7.463229310200197864e-02 7.140511539110924732e-02 1.233243474071313850e-01 6.361785128798590205e-02 8.392139559992448095e-02 7.832908152066209162e-02 8.914910216749594163e-02 1.700595375389521990e-01 9.757054599778276771e-02 6.474271681497227593e-02 6.675628676703282416e-02 3.464467376256433889e-02 -3.515213308148545240e-02 8.780471639062621680e-02 1.803874909605198557e-02 1.184230333881880759e-01 -1.754948221364880517e-02 -2.425710916100730623e-03 1.473845597129150309e-02 -9.306558560765021415e-02 6.327356388294014256e-02 5.534541855169957530e-02 -2.217972726231392730e-02 1.503585925603212470e-01 3.931882435594240277e-02 1.622966738236602258e-01 1.459002918977838070e-01 3.692613600544296382e-02 1.112299960205024724e-01 8.513158184998863287e-02 -1.262697946010771233e-01 1.083249060922235468e-01 -1.333063844150586714e-02 1.236631579846653728e-01 -1.054532050572441343e-01 1.505167406777593586e-01 1.329864500933421734e-01 5.627559519811587557e-02 -4.949921561364215017e-02 4.227869570155674134e-02 -1.352573217562979269e-01 3.492013379002537748e-02 -4.473289716639645280e-02 -1.461707632544884672e-01 1.181803076148838089e-01 3.060504089159245961e-02 3.167929101333166134e-03 -8.139858002427106942e-02 7.030155783855006335e-02 1.764924245498959710e-02 2.430437390416533439e-03 4.470425567586239213e-02 4.314649493205244962e-02 7.991821174094436431e-02 -7.617798212526279145e-02 9.145802135378151843e-02 3.514897909816337186e-03 -7.840919459742892728e-02 -7.292266475971732886e-03 1.305747758580654005e-01 9.782316597461161722e-02 1.631013594413044665e-01 1.652423011355146354e-01 2.172836760077892851e-02 6.441271096642266214e-02 8.939259667230343986e-02 -5.381573859108360058e-02 1.484848245666602895e-01 1.857875439093857996e-03 -7.697617127209087362e-02 1.675391570270724217e-01 1.074622136347113191e-02 3.990297712568820210e-02 -1.957238695843102790e-03 9.376411476474406925e-02 8.060636439562758604e-02 6.178178033349030623e-02 6.920309260084887837e-02 2.668182945811462328e-02 2.754825364219978118e-02 -3.639087580400142061e-03 3.442328949516343384e-02 -4.355882585183661060e-02 -3.140958649296869687e-02 -4.959991169235801467e-02 9.185176645160360309e-02 -1.709929998179305494e-02 6.360039486132415543e-02 -1.098396373190246335e-02 5.935328323426972141e-02 3.426821629497195376e-02 5.426052860330853218e-03 1.462813700517352489e-01 1.054009021311688721e-02 1.917175119317504062e-01 -4.718479411533477164e-02 6.106756942086256218e-02 6.673607766501954419e-02 8.010643614307835780e-02 1.074286717387754470e-01 1.794901739271107313e-02 -1.845108655677689391e-02 1.919357936725626587e-02 1.028275733678412629e-01 9.243636138275342085e-02 1.307829631630612333e-02 1.233431893939421209e-01 5.433119247346746700e-02 -1.121626535972023234e-02 3.787955671812799630e-02 6.005007736621532574e-03 1.142302530258367324e-02 9.413399430489496900e-02 -6.944403176658310584e-02 1.433264502907708182e-01 2.301812998708932523e-01 1.151026692582922811e-01 1.859345744077545983e-03 -6.460674993712584024e-02 9.226296746650393399e-02 9.575459809086246665e-02 9.949209272064343801e-02 -3.940343126552242441e-03 7.121769060466431878e-02 4.237518140281212181e-02 -5.686305507797911147e-04 -9.125103616246642985e-03 -3.548133678411875824e-02 2.066788409201847920e-01 4.478761949743845228e-02 2.598013149032387531e-02 -1.122942786038088059e-01 5.751677490947287863e-02 7.246520084685910412e-02 4.630092680706665575e-02 7.079258538831674497e-02 -1.479514059011889475e-02 -3.303376092537005631e-03 -3.352217085360034710e-02 7.605945539960791424e-02 8.501425251513802794e-02 3.059350081783632561e-02
-2.166735213058161857e-01 1.856855018258504741e-01 1.593880958638479173e-01 5.055670977772692976e-02 -1.860751414094317935e-01 8.497395023396717151e-02 -1.204389676889704164e-01 -1.426894287142743412e-01 -5.382591394483023095e-02 -3.180214300494156685e-03 -5.457509859299282395e-02 1.937797281672585525e-01 6.115467975759324160e-02 -9.256793663027780561e-02 1.751046111928180327e-01 -4.619650794951841999e-02 -6.699251338447705095e-02 -3.370598828002347586e-02 8.398084273962534707e-02 5.338250409459104756e-02 -4.793904525639511305e-02 1.679915405826578126e-02 -1.997245880029823173e-01 -6.040376368815868896e-02 -1.696936317947949913e-01 -4.161597914262720604e-02 2.698380014133490434e-02 2.267876154409966538e-01 1.154345832812228578e-01 -4.217516827105316675e-03 3.285645361032789036e-01 -1.132776366113177474e-01 -4.321506715864673609e-01 -9.060202459396252128e-02 2.892571889290052219e-03 -2.140465470590170727e-01 1.103516749608045022e-01 -3.281389174712711077e-01 -1.912420562277704628e-01 9.943435519164657913e-03 -2.329299070530202465e-01 -1.173448013203569340e-01 6.099628079201497438e-02 -1.362441115357026222e-01 1.425542303873928995e-01 -7.849294800112242843e-02 5.061702347063561092e-02 6.334516240315636593e-02 -5.002733028199297938e-02 -1.265531692904616479e-01 -7.934813431483900281e-02 1.401074506713705370e-01 -1.155303690923038529e-01 6.115740428868244455e-02 -2.153367869551007507e-01 -5.721419364845205247e-02 1.506371276365858769e-01 -8.829672682812512996e-02 -2.840478938415071930e-01 -1.255261882518200200e-01 8.315272358669949238e-02 -2.063232502854806805e-01 6.393019322349266509e-02 1.225425541053299094e-01 -9.557521433997777371e-02 2.679509811494450999e-01 2.141443884175059029e-02 3.390225292251297096e-01 2.722386162094578288e-01 1.061725516485868548e-01 -4.422861214965090326e-01 -2.186467314554055852e-01 -1.952970393836600971e-03 -7.626671684739555479e-02 -2.029412835900528123e-01 3.952933827665067734e-01 -9.348280391874365380e-02 -2.305233370958066352e-01 -8.988095572158551205e-02 4.065686630834783877e-01 5.817801164796732039e-02 -1.787023993693641691e-02 1.478320756151963178e-01 1.133353899654807560e-02 6.717260849570934333e-02 -2.012038811053625809e-01 9.944362714161296413e-02 -7.136058466170432102e-02 -1.384468547963510487e-01 1.310941979679260683e-01 -2.270738915238658673e-01 1.179832698125476004e-01 4.106238525560926972e-02 9.353108998356647608e-02 -2.051495054259962203e-01 -7.938474719394880696e-02 -1.382440301543790551e-01 -3.243574786555488559e-02 5.072085630402722867e-02 -2.520351853263878839e-02 -8.893439037491990273e-02 6.481180019476047438e-02 -5.477060465218097640e-02 9.979097767530854812e-02 1.158532233456444627e-01 -1.868606088459490167e-01 1.177962912103901194e-01 1.128414534184631890e-01 6.200992608134594380e-02 7.393350010779718706e-02 -1.781506907545524487e-01 1.326162396086710271e-01 3.671082183877857202e-02 2.414451344955964932e-02 7.519082511649885503e-02 1.507020263067703966e-02 -1.060686187227082439e-01 -4.509485130166608624e-02 2.992487542455095073e-01 -1.310535391317935450e-01 5.542657043184377047e-02 -1.704024447693663069e-01 2.375211944541111841e-01 -1.029435456567150964e-01 -2.719435699901068260e-01 -3.815208960799393312e-02 4.505436944223781826e-01 -6.961890255370124792e-02 3.613588643264270539e-01 5.158945868321711259e-02 1.629509553678794020e-01 1.277716238775345459e-01 -8.523336630975676675e-02 1.207510080501311561e-01 2.656851449107499041e-01 2.810030515416439556e-01 3.755992756564631718e-01 1.125773625427111679e-01 3.332629956063324350e-01 -9.694161687322920551e-02 -8.590248840731406566e-04 2.390058336167912023e-02 8.101510604390060877e-02 -1.190330660004174507e-01 -6.302076449309357287e-02 -9.697965629527165177e-02 -1.157637174246537448e-01 3.621168628473078743e-02 -1.948741555382256796e-01 3.404945435442281731e-02 -2.116387274919680206e-01 2.860195613594400665e-01 1.661457568338296498e-01 -6.199839312756579707e-02 1.179315273227246469e-01 3.849005872850329996e-02 -1.348180819446313794e-01 -2.080622983909803381e-01 1.201247394403435684e-02 2.399657850159674921e-01 -5.044462799659814312e-02 -6.871505005286339916e-03 9.880577139131002662e-02 2.560780242325486622e-01 -2.635720711904712341e-02 -8.270905792669309151e-04 -2.587702352030681330e-01 -2.062235809454976698e-01 -3.502263704734500521e-02 2.851505540174963382e-01 2.076921979997417844e-01 4.217533695093936830e-01 5.755980468535184386e-02 1.783466834183548670e-03 -6.904112397902531506e-02 -3.521325213524501008e-01 9.947618797099690158e-02 -1.355264882207739274e-01 1.752394644577999136e-02 1.001209428040303606e-01 9.982647380174845819e-02 -1.767983149147301092e-01 3.068361263086860635e-01 -1.546896350936921849e-01 6.414847162302868278e-02 4.176307427809452522e-01 -3.585375569824434533e-02 5.522824335268626816e-01 4.073340175067752256e-02 1.264199996098649970e-01 4.250904565535001955e-01 1.639859341225514133e-01 1.201190427940347777e-01 -2.699679013651604675e-01 -8.284875961217659512e-02 -3.223945193348804611e-02 6.758122162746023343e-02 -1.537900628851749385e-01 -1.189740614339294261e-01 -1.045841016103905424e-01
2.703369502901102339e-01 -1.279557380486407714e-01 9.244156944323690672e-02 -1.393050508727356439e-02 2.515214793151931416e-01 -2.890436589030917144e-02 5.666289909963925231e-01 2.002091480338406004e-01 1.112828879095965062e-01 3.465554366853049184e-02 1.167796119814992345e-01 -4.067445951166431262e-01 4.181951383380066306e-02 -1.682409440167769443e-01 4.792842788186225667e-01 -2.589206673859414387e-01 5.029524515810369217e-02 3.040292957113533423e-01 9.141826794701664316e-02 1.248827499999790452e-01 6.588602053507226905e-04 5.147441674261480499e-02 1.568193416868325640e-01 7.716254806346060924e-02 6.539199505304855130e-03 -1.289617500613332302e-01 -3.345042520257149321e-02 1.008929585568626858e-01 1.556997138298037986e-01 3.566194975987841409e-01 -5.682816919796062488e-02 -1.038588783085228756e-01 5.490101581527583041e-02 -2.548318446092103784e-01 1.128353387611026187e-01 2.938032488980663604e-01 -8.968453057745687934e-03 -1.544440339803211659e-01 -1.485640532200159791e-01 2.380463144253377461e-01 -1.805374580017811148e-01 -1.619319521778592730e-01 8.835735138291192503e-02 -8.820008111520696858e-02 -1.344133495078245200e-01 1.148347334873473929e-01 3.949394539038362378e-02 6.264760087619469786e-02 -3.868155140767255973e-01 -2.212161166342820617e-01 1.137279879136130802e-03 9.586007371649230002e-02 -1.400888749350899520e-01 6.955282903382968840e-01 7.568546066460339616e-02 -2.171442234612905309e-01 5.962732964784409062e-02 -1.386466699186330101e-02 -5.907951012281698056e-02 3.478204426835160290e-01 -1.841708691813532806e-01 -1.233895977314707765e-01 9.487466089292287408e-02 -2.188481133765766695e-01 2.719950976587947045e-01 1.982788163937456577e-02 1.825275034903239705e-03 -1.470643174084270144e-01 1.392939891436406064e-01 -1.551028982345633300e-01 -3.451046381564880638e-01 -1.663895122918380431e-01 1.270846910727771173e-01 -1.485475159371889287e-01 -1.775773456112738485e-02 -3.000430120744605744e-02 5.348615649988179566e-02 -2.368135115450517580e-01 1.823710066121772833e-01 -1.069977357124094475e-01 7.440355293550846016e-02 -1.305915532966523407e-01 1.895174242431544032e-01 -5.816401389317823328e-02 -6.912051929388611515e-02 1.414075929883849836e-01 4.429729422283211308e-03 -1.017611945336145962e-01 -1.216457074913024350e-01 2.164943589250383493e-01 5.306479682059194077e-03 8.024901125877122177e-02 -7.831737466527091684e-02 -1.829734729659180104e-01 5.220466942068974214e-01 1.190358826407080309e-02 -2.710985344243660444e-01 1.285542265970558429e-01 2.517635011004994497e-03 2.120592143549239750e-01 -3.357233560679513951e-01 5.915262046262001472e-02 4.848290979278394031e-02 4.490993709517217963e-02 1.531591059909023604e-02 5.071914212695542018e-02 -2.719157253043237854e-01 -2.896139493931699782e-01 -1.178788319157649950e-01 -5.143584775132794412e-02 -1.429775629447626317e-01 7.203827035663759593e-03 -1.164941004395471658e-01 6.512557264694046610e-02 -7.003141236706068862e-02 1.036456258396065283e-01 -6.845411343557882000e-02 9.445649834757154431e-03 6.826428426887390377e-02 -1.494943809998693640e-01 -2.235800724678239371e-01 -1.938938508275663388e-03 7.215471000056739026e-02 2.711671706806606519e-01 -2.403988298462999829e-01 3.466077729384012263e-02 -4.232519800718718139e-01 2.347282969762118088e-01 1.717477099956253861e-01 -1.541287373458695431e-01 -6.492754791605334641e-02 -7.815065032921460209e-02 -8.087643045879759629e-02 -1.349035704367216038e-01 1.661307845691100404e-01 4.010509057159257484e-02 -4.825228644601210065e-02 3.285043141738331479e-02 9.223647767586409807e-02 2.832344987223274768e-01 -6.879629832733864803e-02 1.788997494793975046e-02 1.467887321063116313e-01 2.287648369216025920e-02 -1.867983611760316576e-01 -1.031851852325016417e-01 1.528068222056883363e-01 6.051858352851943179e-01 4.036189792687297495e-02 -3.824824942363889979e-02 5.064925521551242454e-02 1.059783298320722544e-01 -2.622531504060194862e-01 -1.313067033627771663e-01 -1.050552962651083305e-01 3.701789697731886486e-01 3.298943803329683344e-02 -7.607415387688223896e-02 -6.287281569297323292e-02 2.068578256687302053e-02 1.223313607093515498e-01 1.473335806517249991e-01 7.462316611321648252e-02 -2.038848723684959785e-01 -5.908411168117574247e-02 3.967847087363843284e-02 -9.702840229562578744e-02 -6.789756425600215750e-02 -2.384705796590423921e-01 -1.494883589892115894e-01 3.336550281963659992e-02 -1.350191402311439783e-02 3.785788194641482862e-01 1.138943836556984522e-02 -2.377051041044724727e-02 2.836204546234505908e-01 1.256363861643553792e-01 -1.194460563020773858e-01 -1.137590814129249561e-01 -2.050638844570326982e-02 -1.551575669953592362e-01 -3.775759935325816857e-02 1.069643196280258973e-01 -1.272471363082093021e-01 -1.083406555714175740e-01 -1.080235286765125757e-01 5.052055183569660189e-05 -1.560838118668807506e-01 1.465782696823794973e-01 -1.152676645416081114e-01 1.607006920223141566e-01 1.171933803211702152e-01 1.120573125551663773e-01 2.713738154161348115e-01 3.779413399934630768e-02 2.704691069329593911e-01 -2.786121574331080434e-03 -4.594544173423081163e-02 1.626556251145340748e-01 -5.093098591472630665e-02
-1.596079513302765471e-02 -3.069114993803348512e-01 2.787830835892560200e-01 1.529706245704101804e-02 6.601448014200136938e-02 -4.332515814075055260e-01 -2.131223183233353913e-01 -2.881007547441130079e-01 2.807717629608452170e-01 -8.152316727696920506e-02 -5.075607725102251888e-02 -1.675704307160046092e-01 -2.142436847535669070e-02 1.876430150409330588e-02 -3.301404625769834289e-01 1.859467898769835703e-01 -1.130059316234327538e-01 -1.325803750377809731e-01 5.549106419688181607e-02 -5.075672780698797792e-02 2.799769297478636454e-01 9.538815180313243991e-02 1.974712518316789900e-01 -6.299174488573461295e-02 3.560037849815968491e-01 3.484457480081312210e-03 2.054201243153109743e-02 -1.536600334548789970e-01 -3.873738594617541497e-02 -2.877787813864392530e-01 -1.151687726967192682e-01 -7.286245146495351488e-02 6.001290814590086453e-02 -1.928947875739227269e-01 8.265766578534726461e-02 -2.114027319194548837e-01 -3.846155532182923137e-02 -3.670928208697698397e-02 -4.099751724210763393e-01 -3.359775571584266984e-01 3.027959921825084666e-01 2.416112545399048683e-01 4.584655613052565637e-02 4.865290623405836568e-02 1.918166554803562782e-02 -1.711593558683328631e-01 1.123287757503767942e-01 1.768128324295074605e-01 2.864385239286071361e-01 1.583310982681122303e-01 -1.011801014674015287e-01 1.258390859426167518e-01 2.736199359915925666e-01 -2.457146838046393444e-01 -1.166622219667840799e-01 -1.217937921350373959e-01 4.228307266710778362e-02 1.026618101490415352e-01 -9.974199952295932647e-02 -3.004770840127044540e-01 5.407751308644465071e-01 -2.128859399676980013e-01 -8.572482807564636709e-02 -2.692387683731567449e-02 -4.631748924779683918e-01 5.538104071958126207e-02 -5.400256927763401327e-02 -9.475120764246981742e-02 -8.378463995319353902e-03 2.681192687535362273e-02 -2.965608190080371021e-01 4.855531616649848003e-01 -2.491783736247176195e-01 4.262467524773846245e-02 -8.272358170075175265e-02 1.288212602720965362e-02 3.450001445573855352e-02 6.490692264935212785e-01 4.892578704951584534e-01 -2.925427925879065319e-02 -4.701242042616072397e-02 -1.180689460612553976e-01 1.986903668040933962e-02 -4.565125776325421048e-02 8.175639598436672262e-02 -4.192244020886444211e-01 1.050153688908289362e-01 5.619044618637982769e-01 1.326648617138255770e-01 8.022990400979349013e-02 3.505260332155609726e-01 -4.915374794729717722e-01 5.665902234987469921e-01 1.110707050425463610e-01 -1.601534072788095842e-01 5.321853227280431281e-02 1.895004642901841618e-01 -4.482751081843314167e-02 3.842203572861582761e-01 4.012840046556399864e-02 3.160070951154085872e-01 1.645052988284767814e-01 1.300958731722428319e-01 -1.726542611699967075e-02 2.285393286599385343e-01 2.298515100154354396e-01 7.786556705537435452e-02 2.788702952412851488e-01 -7.144322674289160791e-02 -3.735723388507052878e-01 -1.849459102546442690e-01 8.025925032819403171e-02 -5.372749817169877179e-02 -9.069343310193116528e-03 6.733304889482269462e-02 -5.900436887132877450e-02 -1.094217465641865589e-01 -3.250149117498862261e-01 -5.258156087100893279e-03 -3.006357257669297067e-01 3.051367454159886194e-01 1.807486336880364391e-02 6.301794926958716181e-02 -3.870337758382901006e-02 2.552053494484923246e-01 3.974470296075766074e-02 1.189378227829472889e-01 -2.954387181683921226e-01 -1.351142092766318692e-01 6.299880365255126902e-02 1.066405927496454353e-01 -3.876923326281795923e-01 2.385157594453716501e-01 -1.492545231740801115e-01 -3.430838296902711249e-01 -8.939649400760291131e-02 1.914286610502849151e-01 1.021729061639728015e-01 -2.627319932809001335e-01 -1.491143146512485806e-01 1.178776084879649827e-01 -7.240053857074721377e-02 7.606479347337150032e-02 9.789893350371453584e-02 9.892682403306388150e-03 -8.878137845644189230e-02 -2.628647463246747487e-02 -1.044892306300213430e-01 3.010854772453790407e-01 1.463940564581214625e-02 -2.154140677008672955e-01 -1.645891111581382349e-01 2.650634459276924870e-01 2.615577442481326620e-01 2.383684121463466310e-01 -7.876126232018872131e-02 2.031409495821505928e-01 1.397225229450946293e-01 4.634892742598389730e-03 -1.845894193690854890e-01 -1.318433464649796105e-01 -1.060092810250111428e-01 2.721727363316550630e-01 -4.466828452996312593e-01 -1.291400496183805757e-01 -6.914335490554178454e-02 5.122616144962535145e-01 1.198389275211274585e-01 9.676244277830235718e-02 2.849971315770662428e-01 1.576398609104162629e-01 -1.064423467828440051e-01 7.744219920456903161e-02 7.186734033300275215e-02 -1.808872180222945436e-01 -1.823204803820610564e-01 1.729575094841171723e-01 -6.327852983866661014e-03 -8.419847417998151118e-02 -1.072564306250903959e-02 1.245190887692331633e-01 -1.616536334612750647e-01 -2.662962771274104967e-01 -7.087288524211754481e-02 2.785407740621302988e-02 -1.748411522070541790e-01 -6.947339630676888089e-02 -2.020092187344592616e-01 -2.152298716351741525e-01 -1.422989819092549957e-01 3.268709755794823035e-01 1.024707147124427620e-02 -9.589797564501678639e-02 1.383220229344549017e-02 2.445658415847264955e-01 -2.118592457404640597e-02 3.028723669285777187e-01 6.511148284140999554e-01 -2.229276925793623187e-02 3.202582971982691207e-02
-1.850771934539975627e-01 9.811655791466701582e-02 -2.142731100345872663e-01 7.554536527862528578e-03 2.353560730080687113e-01 1.927504133284368981e-01 4.696270928059170791e-02 -1.409988612770516903e-01 2.182781785188784435e-02 2.262285223584290794e-01 -3.367992686205584230e-01 6.059779300615001502e-02 2.295410601237889842e-02 -1.876589560049988711e-02 1.166015138468072532e-01 -4.498516980041969426e-02 -2.811620268404814091e-02 8.020390763768113496e-02 1.038116217947607396e-02 1.207200628275617582e-01 -1.550101809345642567e-01 2.252608050309408839e-04 1.477201090163244579e-01 1.670777252755538123e-01 -1.807985955911165510e-01 1.222597984995709430e-01 1.430872806790677021e-01 1.407682231984842824e-01 -1.238269802184475965e-01 2.700738343894447668e-01 3.217588868779129307e-01 1.873774563796278825e-01 2.353924193821136102e-01 9.621510909567347614e-02 -9.054025707511165200e-02 4.694651272253017038e-02 1.112242054832414222e-02 -4.630358729964154096e-02 -1.543256525248370148e-01 -7.104292612768399462e-02 1.052451881172598303e-01 -1.282653404090421112e-01 1.078809323050972518e-01 5.545414529887507382e-02 2.625550046905991142e-01 2.082762862246880509e-01 7.798961261534276268e-02 -1.683562341468460566e-01 4.636298450882648386e-02 8.069934652572685607e-02 -9.409499617254452053e-02 -8.036630239104994300e-02 6.210017173023652665e-02 -1.650019892687908801e-02 3.533731634228774038e-02 -9.083923702854010819e-05 -1.074520305444922885e-01 1.486678457915152352e-01 -4.403171809894317057e-02 3.022584925499979466e-02 3.299127376015422164e-01 1.164260025644723098e-02 -4.278778528058677089e-03 1.509970295487226555e-01 -2.920898874994857022e-02 6.155272413778065110e-02 -9.242904954696271047e-02 -1.383649922046402969e-01 2.522096650705327181e-01 -5.968297615306562137e-02 1.688639981584339200e-01 -2.898035046165823303e-01 -8.917271994043397820e-02 5.049374152645563427e-03 6.604632783533098683e-03 -2.322072993494386089e-02 -2.974142897105900348e-03 8.470047307662906949e-03 -7.865809193867723259e-02 -5.835338124670265414e-02 -1.096805656816343330e-02 -2.452892595683453525e-01 2.050838512233987276e-01 -7.724764710681020219e-02 1.427880903046456484e-01 4.244142456542979724e-01 2.865295670194883612e-02 -4.255239091918005395e-02 -2.670818809739544664e-01 5.284827836200083756e-02 -4.798610616137504586e-02 1.611136390684018982e-01 2.308828780456421634e-02 -1.043433782756126305e-01 -2.378463852748573804e-01 -1.511637623194069524e-01 -1.459332733845453665e-02 6.678268769825412843e-02 3.087847551895279707e-01 4.071832715358993104e-02 -2.883233538153650438e-02 -4.393391997409404337e-02 -2.010310785503896525e-01 8.538791115023401657e-02 3.495640711702666797e-02 -2.254070434154007152e-01 -5.266513757185969924e-02 1.317251561299849216e-01 -1.800854996263863139e-01 -1.368847398377271429e-01 1.642413767011398629e-01 -1.828856478410098574e-02 2.222925740295731700e-01 -2.309396238018552316e-01 1.378274928526798497e-02 -1.995100140866739452e-02 -3.531139394552619826e-01 -3.490733650166299440e-01 2.658647441289076485e-01 3.869449449665091079e-02 -2.227209230270549567e-01 -2.857040674153217830e-01 2.385144576620007884e-03 2.909984497335754150e-01 -5.767285698468954669e-02 3.544188926959888214e-02 -6.298174226520830699e-02 1.016109601575028304e-01 2.488741032165996403e-01 -1.100100437853392954e-01 -2.112953202781635981e-02 -6.253063742738475261e-02 -1.444149490603978125e-01 7.481144755783949996e-02 -3.839017968417097193e-01 -1.344683046967114215e-01 1.895272316849372640e-01 4.697247860726610352e-02 -6.819854284659350452e-02 -1.833451600171839557e-01 3.668510336035337577e-02 8.952344110317696224e-02 -8.697586161353276779e-02 7.256321460953608915e-02 -3.702124269007846524e-01 2.354839690488632342e-01 7.840481677896883606e-02 -7.095028196134399445e-02 3.809331089293842981e-02 -8.170179638126457561e-03 6.825444868070908166e-02 -1.882622759935913548e-01 2.881909591814231231e-01 -1.250393520747208886e-01 1.015514736525596762e-02 3.043659089394168960e-01 -6.339245768251659807e-02 -8.521942241368517246e-02 6.158069887859666386e-02 -2.426458860235863879e-01 1.054391918389025323e-01 1.176948854342873690e-01 1.183143964267905773e-01 4.574123442257180955e-02 6.760811552716464168e-02 -1.066001114495760682e-01 -3.172747565153719584e-01 3.081265830876502715e-02 -1.213913076694227711e-01 -3.198620980038215933e-01 1.652622378139902981e-01 -3.745161722830004508e-02 2.512300686481868661e-01 3.649197912705722663e-02 2.601506194739625633e-01 9.817191810947166475e-02 3.410643003987581801e-02 -4.676955974739114424e-02 -1.164018076608938912e-01 5.227452205562752724e-02 5.452396562526692914e-02 -4.709857202424305028e-02 -1.800745447893871976e-01 -5.784418825820476090e-02 -1.202684519998295856e-02 -1.861453977546812799e-01 -4.425672705068205148e-02 -6.933068349674792463e-02 -1.096400124718666623e-02 4.999982836692806049e-02 7.914851715869822280e-02 -2.916748521357356416e-03 1.740526143324965247e-01 1.785256045855027895e-01 1.670305083532989260e-02 -8.774284626052379632e-02 -3.735287968907253231e-01 -4.962276462945445360e-02 8.978986933527326186e-02 1.793123194563526202e-01
5.318897722901100994e-02 4.547297337720886123e-02 3.003085752089479712e-02 7.889263407183182142e-02 9.586855406167778260e-02 4.750439401531140332e-02 1.565042418470159735e-01 4.802409734628711180e-02 1.182918438495013207e-02 8.621440631573941415e-02 7.955619749558480447e-02 7.815576591858494626e-02 1.763960968846768063e-01 1.805826751523990359e-01 5.922643410061462221e-02 -3.425334886022507463e-02 1.003037563024880841e-01 1.426094714252231777e-01 1.570638768429125920e-01 -2.585524158422617194e-02 1.179762058260439006e-01 1.561684994813529459e-01 9.529862294816367208e-02 -3.626976867655928166e-02 1.198184021400822419e-01 5.437726290262844681e-02 -3.437796962923290317e-02 1.306790703868733750e-01 7.320444308242778086e-02 1.002974022680716421e-01 -6.154854662408370397e-02 5.430484540422999412e-02 2.449774408167297232e-02 7.157293724623160769e-02 1.341672164570721637e-01 -1.186937006794623467e-01 5.620897689833020960e-02 9.825543970446348752e-02 -4.350826731302686289e-03 3.916825552340106459e-02 2.460054977125014641e-02 3.818762314669325864e-02 2.001459031074536918e-02 -2.312174599474409794e-04 -6.224873349508798503e-02 8.007020564971975563e-02 1.399168161364800211e-01 5.187981096382788399e-02 -4.631147685275797954e-02 4.005547535828748312e-02 -2.535683327034184403e-03 4.563218303504425200e-02 8.956109929308907203e-02 1.509767310066088310e-02 1.810720359077576738e-02 -5.588752859023607411e-02 8.651549095251385990e-02 2.023104881763868323e-01 5.086216423577820389e-02 1.089294881801342180e-01 -3.474769149891135389e-02 7.203433170848737299e-02 6.378192923493360318e-03 4.453831452900727100e-02 2.229323025390629875e-01 -1.251589190424138853e-01 3.898326883839885529e-03 -1.768815169397292553e-01 -2.461099246071704258e-02 1.388492482182511131e-02 3.059912643899994223e-03 -3.147443872711566670e-02 -4.486351730842251528e-02 7.774208767195288361e-02 6.767226457443258937e-03 7.645111539328142136e-02 1.820959338179144182e-01 1.258386279493361182e-01 3.450390519176076837e-02 1.752374005944719315e-02 2.685889363884590431e-01 3.578229902638310062e-02 -1.230784197393546692e-01 5.844009317994373898e-02 8.752887462922391559e-02 7.572249867576882378e-03 1.669588642707879045e-01 -3.363288806933224795e-02 -3.781742190379688839e-02 1.654899797899979930e-01 -1.930634433875525607e-02 1.029704858547841051e-01 1.196175254255071041e-01 8.238430196071251654e-02 1.128655145440290563e-03 1.080463950327812811e-01 -1.115244646107529797e-01 4.693997613202126329e-02 2.877380509069543332e-02 4.193586953977634924e-02 -4.499590161841812014e-02 9.047870200909405303e-02 -4.306250705800472589e-02 1.017890792898136360e-01 7.810649965120726457e-02 -2.949367053132694039e-02 7.204956648134376584e-02 4.146054427012467458e-02 1.195166596386362107e-01 5.589230138427350725e-02 -1.119165319352094651e-01 8.463795509627458635e-02 2.203943379196784610e-02 1.379568435183797445e-02 -5.185311464179009205e-02 -3.918370643759855332e-03 1.645450339665968653e-01 4.557651132463229207e-04 -8.741121144019697994e-04 4.459211145948820121e-02 1.575629077837069902e-01 3.964711088944604389e-02 7.517169328115658189e-02 3.765307364206037233e-02 5.066443095281703696e-02 2.749411890797373581e-02 8.502822349310486250e-02 1.007452159678880327e-01 1.331289770218347102e-01 -3.839431469320821882e-02 2.788524500876553985e-02 -2.934508440894455575e-02 1.098384238829021725e-01 -3.540828236349641972e-02 3.597616979455666580e-02 4.433254074494042546e-02 9.670401623003214986e-02 3.824017407129460394e-02 1.553605610132398063e-01 1.083668284946056326e-01 -2.600818223085291786e-02 5.369990581376755251e-02 1.128689289394068859e-02 -6.586240538316422144e-02 -6.392377134419184592e-02 7.622895848722652246e-02 9.574913374454770143e-02 9.761077425284384046e-02 4.590472241030438272e-02 1.210893747940792187e-01 4.742184762431508882e-02 7.357305114436139826e-02 1.189881979499167741e-01 9.780109834726675999e-02 -3.874317951718696425e-03 -4.411740251361419979e-02 8.581650276095660612e-02 1.046869555554753861e-01 -2.310908085491254413e-02 -1.834037432722194008e-02 1.144470750003139109e-01 2.240317790975716525e-02 -3.645837979434076587e-02 5.379590041793936434e-02 9.870540534579495817e-02 7.561795899757314809e-02 1.366599969818894922e-02 6.778309319444830727e-02 9.960624900384207336e-02 4.761158005362118445e-02 5.209174485530104065e-02 3.674518813123758831e-02 1.250239283040252003e-01 4.044194245787726544e-02 -6.231957364535067878e-02 1.015320107113161334e-02 8.518315191864349323e-02 9.831787897916628716e-02 -1.911835801791009898e-02 8.478231026064345088e-02 1.573532412308720251e-03 5.103361886932837599e-02 6.104328111400009887e-02 1.513527757300771326e-02 6.169808810790405884e-02 8.085156852683061945e-02 5.125963274035558008e-03 1.079157001782773961e-01 -3.518307663674969613e-03 3.621914809048884520e-02 -1.814183229143803422e-01 7.026891914698892017e-02 2.912737621242951144e-02 4.136239676200910431e-02 5.346916354121929171e-02 7.724192297095303084e-02 7.185906711491171772e-02 -4.493795291527807184e-02 1.506146300767552682e-01 -5.364651273573753376e-02
-6.054627345335131805e-01 -3.409960154452630898e-01 -3.666393647660746158e-01 -4.044509163049472139e-02 4.006547422873183995e-01 -1.418271503953574819e-01 -7.521751096449004470e-02 3.199333487645835139e-01 1.454723087645147517e-01 7.596106532955031188e-02 -8.567072392243654799e-02 -2.248872892129650733e-02 -7.997070593616924065e-04 -1.679231522441938518e-01 1.196210146725558143e-01 -6.286661279434307970e-02 -2.217880283020710885e-01 1.683345640131598542e-01 -6.593141283556865073e-02 6.176550838284777800e-02 -6.444125913343459744e-02 -4.884748517356145986e-02 3.595035767707417951e-01 1.386330009366135985e-01 -3.805366099041597450e-02 8.917009856553063940e-02 1.871605463062975044e-03 -1.663749037737868863e-01 -6.058786694109655202e-02 -4.084145190154329919e-02 -4.092249466438297768e-03 -4.206122975470357600e-02 -4.874308276425358688e-01 -3.247348509406997735e-02 1.467545265159844459e-01 5.474369644154887526e-02 -2.552301091239270528e-02 -1.183166968223157700e-01 2.122880818961193072e-01 1.715371438224670975e-01 -5.085442190579746446e-01 -1.090494783895933628e-01 3.490669653176424470e-02 1.269470349858967395e-01 2.605800304542750176e-02 -2.010880852629249108e-02 -9.976996046849352651e-02 3.102676690672164783e-01 -2.077241044674591752e-01 4.751254729319087655e-01 -1.586926571241527306e-01 -4.785095389379085545e-02 1.593259256574368387e-03 -5.763881819218509561e-02 2.335538130143660629e-01 3.541145809987382431e-02 9.233197626604597308e-02 -7.939047736032227298e-02 3.443783750901868168e-01 1.979235920851725450e-02 3.662814826642562527e-01 3.138685889705561949e-01 5.994446605825083652e-02 -6.524287775701257397e-01 -4.253640988636437914e-01 3.851356401158515519e-01 -1.414965987769888633e-01 -1.450676900415599074e-02 2.627091025103854283e-01 -3.335755562554973408e-01 3.911101759590735472e-01 1.773820012026800230e-01 3.474055735597291750e-01 2.990073875505513956e-01 2.109423637036177135e-01 -5.323827389784250297e-01 -7.895151434932702605e-02 -4.178904674998514812e-01 -3.618236233670756308e-01 -2.471218987020274704e-01 1.079555441716052167e-01 -1.068663980823823939e-01 -1.106352741101198217e-01 -9.097952845160535429e-02 -3.831889116817945029e-02 6.561137579115031149e-02 -2.959277096594215700e-02 -2.153190058769242632e-01 -3.360504635417251862e-01 -7.897883570528022035e-02 -7.297566074982810014e-02 -1.739170170028854490e-02 -6.199193563587682698e-01 2.486688446245738926e-01 1.716065226910150343e-01 -1.535199310014619678e-01 8.818022442403014582e-02 8.826966759655737946e-03 -2.680415826232294685e-01 1.470345492063067916e-01 2.516355022772600036e-01 -7.861010270444909742e-02 5.896805967408094012e-02 -1.620680330347021580e-01 -2.777563959635592217e-01 -3.694979811785427115e-01 1.648206899150647664e-01 -3.982862204928011018e-01 -1.605663765850671998e-01 -2.351817269259438847e-01 2.168707912674643357e-01 1.603172976747287148e-01 2.774591142665273624e-01 -2.402995705351945455e-01 -2.260411083239433766e-02 -2.980559165053680015e-01 1.428940033224490591e-01 -2.678961819485498053e-01 2.243046665042852383e-01 1.784622570134628827e-01 -3.375113998841700602e-01 -5.867094152535812235e-02 1.244569931317776046e-01 9.365992656992873366e-02 -3.013934491504972613e-01 4.225762691522406272e-02 -5.286076496160399540e-02 -1.478148236455496985e-03 -4.334777256837958337e-01 3.503994690745058094e-01 -1.538759543831007826e-01 1.739604466156773610e-01 -2.430579484409416124e-02 -2.267677151559280638e-02 -3.201625147144177563e-01 5.902550637121095622e-01 2.762693413862869485e-01 -1.256361226696684277e-02 -1.524164769476213724e-02 -3.422675905747766811e-01 1.395148844848156378e-01 -5.315422149297992227e-02 -3.930804069759800956e-02 3.302916847155900060e-01 7.501206443256547285e-02 2.340311645880120139e-01 1.208304520818472422e-01 2.404073748629718954e-01 8.553107654758083933e-02 1.314891998949627855e-02 1.841194493352133754e-01 1.363925485456449205e-01 -1.505647336320978802e-01 -5.438364636764313198e-02 4.900451737519738449e-02 -1.147123694835796709e-01 2.464056774692470128e-02 -5.699108012936682927e-02 4.740308104703452180e-02 -1.341205922346722923e-01 9.342472461798770333e-02 -3.221393491471256920e-02 -5.177208796785031514e-02 -3.351579916974924966e-01 -1.459245353464227839e-02 7.776834369399372726e-02 -9.234579927469589722e-02 2.296101288882622937e-01 1.928600856040278144e-01 -2.799525202047264960e-01 -1.301939825147454266e-01 9.713109441658638417e-04 -5.020235878845197980e-02 -1.463091749070472292e-01 -2.743990897082382863e-01 3.546988962203743156e-01 1.918412484555341579e-01 7.086170795224704111e-02 -2.267069327700979020e-01 3.675280387478815358e-01 8.019298307313764418e-02 6.472301205532194901e-01 1.627718357014055761e-01 3.008000655300324122e-01 -6.174578485931306315e-02 2.018686565316384907e-01 -1.249852366222643230e-01 6.140021615413292916e-02 -2.264358061470481409e-01 1.721732096257369837e-01 -1.841250119510313699e-01 5.028035593698787498e-01 -5.058377778870681851e-01 2.411213205764689005e-01 5.064681160469503007e-01 -2.393134437091036862e-03 -1.133948946775678174e-01 5.315270269129865333e-02 -1.772175361494243151e-01 6.207623494362420891e-01
1.754979984440108165e-01 1.519015429830365693e-01 2.017144527755805883e-01 -6.538943939463340294e-02 -2.465526415868351529e-01 -2.908300211028125859e-01 3.140442860035684847e-01 3.229162914073495372e-02 2.405400293359753403e-02 -9.868316117204861682e-02 1.997082119361106300e-01 -2.572421329442192706e-01 9.612745857055614643e-03 6.159416913378430725e-02 -2.697363350194842968e-01 6.734435835589545893e-02 1.190594735040367003e-01 2.389341293639170583e-01 -1.204148045368720887e-01 -6.249258076973111808e-02 -2.532830564358955552e-02 -8.143611997710854811e-02 -8.592075404700001695e-02 -1.787844108001022392e-01 2.985075927625985975e-02 1.050997641431738738e-01 -1.052986918287732304e-01 -5.713421447169262507e-02 -1.512852064145501496e-01 -1.152023101770818375e-01 -3.023162791674451899e-01 -2.350228259757860816e-01 -2.744982834428947305e-01 1.195338348601414635e-01 2.633799351229383634e-02 1.029197833928323508e-01 8.109680964747874657e-03 2.579453026351192779e-01 1.610377653571567758e-01 2.015630141391669961e-01 -2.042911737352924306e-01 1.768815138128271292e-01 4.162317662502625082e-02 -1.040407818232919474e-01 -1.343708743627190505e-01 -2.099885852595927693e-01 -2.131288971157817291e-02 1.508886123559883830e-01 -1.068821777160334080e-01 -1.726866244785597859e-01 5.291054915142530402e-02 8.314644656321966421e-02 -4.186269017240903390e-01 2.556351075710716885e-03 -9.996518432158398026e-02 5.751879597418987911e-02 -4.042760603276603082e-02 -1.246579969286622236e-01 -1.754028041269178190e-02 -6.890493629705825296e-02 -3.652249493288863835e-01 2.901178681053519504e-01 5.434510104964337257e-02 -2.388902984348893754e-01 1.869192742039861022e-01 1.040728343134082884e-01 5.718477366317250427e-02 2.423107021601133282e-01 2.631277241231553404e-02 2.210304065120029804e-01 -3.557151639152278388e-01 1.240367015899458414e-01 3.183205716212912928e-01 1.528596082838804271e-01 -3.013925613107393819e-01 -1.238195222906181628e-02 -5.296141337735007365e-02 1.242632467261925305e-01 -2.152194293877661979e-01 1.013117766457086004e-02 -4.914360516842480181e-02 -9.156438734132113511e-02 1.053485054401400445e-01 1.701352836536472804e-02 -4.674664285015622811e-02 -5.008767475974795769e-01 9.011105707763479924e-03 -1.338661046207325345e-01 3.422154592590207489e-01 1.815539614457760409e-02 2.803780681441644385e-01 1.786299565416490931e-02 4.765548659501672030e-02 1.588277469172388878e-02 4.973059811638531058e-01 1.588647062059293236e-01 -2.546183221544936481e-01 7.912304396635894133e-02 -5.043204858314122990e-02 -6.795733274792675749e-02 1.257134550309006032e-02 2.173281869656224982e-02 3.301019889085289316e-01 -1.827964229022933929e-01 -1.618836267813552124e-02 2.124594932616530873e-01 -2.942416076900475352e-01 2.648392798166214826e-02 8.252165169886073459e-02 1.392144038543877971e-01 1.237108849342287431e-01 -1.145955882387689889e-01 -2.408927109733529082e-01 1.569477982791683546e-01 5.220643673524511669e-02 1.958186178912194320e-01 1.012000081062100487e-01 -2.698712406566552372e-03 -3.241503257959481021e-01 -5.396742206312543644e-02 -1.318194321628886334e-01 1.269578171565408364e-01 8.199960360052853392e-02 2.081291985300894876e-01 2.366774713046411287e-03 -1.014425799715587811e-03 -9.908688320067181310e-02 -1.548344834663923919e-01 -7.868078879871275022e-02 -9.046785403860146610e-03 -1.523123793696857797e-01 3.015087392330750848e-01 2.938941334538459557e-02 -1.177729885565030749e-01 3.246069061811638901e-01 4.295528528300873033e-02 -4.613731411659034998e-01 -5.778338600434241440e-02 9.083069691907870447e-02 -6.331137392942874642e-02 4.809284555717154713e-02 -8.652778653379708529e-02 2.060435080655690643e-01 3.436372244816893184e-02 3.492336681343526927e-01 -1.166890884826918447e-02 -1.373212925620195812e-01 1.205412648439033868e-01 -1.338624370945034892e-01 6.144298678017640590e-03 -1.574068916587516853e-01 3.642814585233771218e-01 -2.464933712620993589e-01 -5.960348069723642520e-03 -2.033485857333199032e-01 -1.772579275560666467e-01 1.032914154409954599e-01 3.042307164516626361e-02 -6.907195468448207309e-02 2.418395255225672946e-01 -1.141525045280693124e-01 5.954409359988349811e-03 1.042610826584399325e-01 -1.367723305175015669e-01 -4.449259619610540506e-02 2.483966493197460323e-01 7.425430398287366507e-02 -2.370678849633723051e-01 1.112495232332863931e-01 4.326795207928232218e-02 -4.112686055260118823e-02 -1.158922409714659152e-01 -3.735438783947597208e-01 1.622925417868143622e-02 -4.667750849328472507e-02 -8.065293490080671646e-02 1.831470882189394356e-01 3.527682080579794266e-02 -9.273404008842330015e-02 -2.869514262123706305e-01 -7.332014151208800234e-02 -9.515641337081394424e-02 2.377670620177765176e-02 -9.680906867142012595e-02 -3.851173072607405601e-02 1.536775540853754507e-01 1.038794777772297367e-01 -1.824854429035525083e-01 -3.786583134850264598e-02 1.110267446514540818e-01 7.572288073448125989e-02 2.566841022515595552e-02 2.382429464081646242e-01 -8.015983517989677676e-02 -3.997039591410522959e-03 9.347721500354255753e-02 2.906030300020810420e-01 -2.554904610811779136e-02 2.043284669078573312e-01 -5.530167381934949361e-02
2.214716295860452155e-01 -5.360743758041059542e-02 1.019792606476371648e-02 7.777668541625269716e-02 7.844510402872516275e-02 -6.338334650641075374e-02 1.809032514912838618e-01 -1.125274092023518802e-01 5.055626760667449732e-02 1.218167253826753227e-01 1.254864510143372525e-01 3.986342999044906882e-02 4.335505417998524597e-02 -2.354083803193443014e-01 -7.873280268720150854e-02 4.345871246148230727e-02 -2.384956709877419576e-02 3.326729798386581782e-01 9.854383134562576252e-02 -4.405066232796055886e-03 1.163565938897806601e-01 -6.096477935327178875e-03 7.346822483464587883e-02 3.017862691028098607e-02 -5.000350614686416284e-02 -5.282009164521465905e-02 -2.416601590881023096e-02 -1.148766753773333565e-01 2.047694366138221381e-02 7.511290475390480781e-02 -7.893156797853072282e-02 1.691278940641087747e-01 2.472622312438442216e-01 -1.974361840860732950e-02 9.594807388889245447e-02 1.056175811167264500e-01 1.502484889538756654e-02 1.584447254308202491e-01 3.156192777362082369e-02 1.089428336287132509e-01 -6.916034505948853717e-02 -3.592033150649501932e-02 -3.857697050528079846e-02 -8.756263303732456094e-02 2.523375683442971584e-01 1.619410458003941664e-02 -6.503605961585319506e-02 -3.476628341483489759e-02 -2.424413017726610720e-02 -1.895657731221207440e-02 7.342255099328348633e-02 -1.078993093904810074e-01 -2.218507076760451169e-01 3.388467277279041956e-01 7.349053576911904195e-02 8.776379858152340285e-02 1.180917221518378024e-02 -6.573508657982828074e-02 5.525316786420519932e-02 -2.269529749941499863e-02 -1.340419466852485475e-01 4.526807459040522313e-02 9.274986598986366404e-02 -9.690047616552530108e-02 6.552092348027485635e-02 2.778827171363775772e-01 -3.978205083918344431e-02 -2.866202954300758332e-01 3.389057402071142255e-01 1.164087031958313256e-01 -6.141161989266393645e-02 -1.365145675089234067e-02 9.131296003235455858e-03 3.965669984182923491e-02 -8.851659651085791447e-02 5.680243645113623036e-02 6.510378269785849215e-02 -1.419310655871917071e-01 -1.940465982587039617e-01 -1.356650433755342104e-02 -8.799335898955182311e-02 1.449808283863125713e-01 2.305207741006551070e-01 1.516980432239793397e-01 -1.726068325873551801e-02 2.449243711580450233e-01 -6.082165795385421903e-02 2.982149252545177043e-02 -8.887500460175583317e-02 5.417760553219469477e-02 3.190466452858962132e-01 -1.133479598374121343e-02 -1.752010522560902839e-01 1.101031671007217556e-02 7.093191341578641840e-02 -1.166739370475874671e-01 5.000463778099420442e-02 8.671806519771364796e-02 -2.198746738575775295e-01 6.249499528937906695e-02 -1.264713929829480721e-01 -1.235804242889823601e-01 -2.084247297083084982e-01 7.967107423591938964e-02 -1.359969677193431647e-01 1.637690755665896780e-01 7.405951531724000447e-02 -1.414700471446363739e-01 8.695780554431144227e-02 2.729171649057383214e-02 1.553068464149361672e-01 -5.697438600699288036e-03 -4.431326218960423115e-04 2.644841723597399566e-02 1.200927250221959924e-01 -3.486209457052105720e-02 -2.607364556041768741e-02 -1.385462664874269334e-01 3.294002523388592230e-02 5.493169971389450651e-02 -8.056426609442245146e-03 -3.816778993483055382e-02 -1.081205943741957720e-01 -8.592388855199104003e-02 -1.717947004042614245e-01 7.126064266437086292e-02 -2.656782960560468143e-01 5.291578210931811160e-02 -1.282518067521931371e-01 -8.205045100767595356e-02 4.761316945609086332e-02 4.830205061748842066e-02 1.268951408734571122e-02 -2.261104304015788824e-02 -1.165563481349349145e-01 2.068624353999259924e-01 -3.871512059559412827e-02 -1.444104814977932583e-01 -1.046480088641386363e-01 1.243781412126950536e-01 7.204410863068613780e-02 5.593827257754999810e-02 3.350127189298267999e-02 -1.300763240785041408e-01 -6.703856744020603164e-02 1.515818430563351492e-02 -8.642306492648306471e-03 3.250255881289096371e-01 2.058052836635862193e-01 -3.703687403386034249e-02 2.067364057756151605e-02 -2.984626213405275688e-02 -1.559141516593124874e-02 8.601974228492480223e-03 -5.664527953698788275e-03 2.036117052739521982e-01 1.423600072864321386e-01 -1.185491465447283677e-01 -3.912408763841018766e-02 1.437134178489956338e-01 2.420749675740114792e-01 1.539863422298062279e-01 1.312279923711779650e-01 8.231347107655725970e-02 6.523757625977164021e-02 9.317620601493482868e-02 -1.187722952895474138e-01 -8.924817916326238665e-02 -2.399221291196141151e-02 -9.407684676570625404e-02 8.390773992492259192e-02 -1.426914689737394069e-02 1.945432221944580209e-01 1.338890592173046512e-01 1.180499409257164956e-01 1.514489880411737099e-01 5.563650162544432620e-02 -1.416892811809309094e-01 -9.258533754476493127e-02 1.824381452509155066e-01 -1.179300349228184219e-01 9.496900069151939516e-02 1.883888064331703041e-02 -8.612483224141891103e-02 4.382281296333171566e-02 -5.214168184253434313e-02 1.222329105978726266e-01 -6.673309336151529714e-02 -1.679545556857037492e-01 -1.327445203726530243e-01 -1.397935147068757669e-02 -5.318615058075143454e-02 5.355115817283695456e-02 -2.293440842389705969e-02 7.031106675592244983e-03 5.224360992565533178e-03 -8.759661724510896252e-02 8.174561735406514484e-02 1.124731388648077951e-01 1.705001823033962249e-02
4.749524860847895713e-01 9.998113395749261278e-02 7.980052743396812143e-02 -5.374935540688450392e-02 7.977247268593734564e-02 4.601700276058137695e-01 -2.425750247003738980e-01 2.692872108840047574e-01 -3.206316446955337351e-02 -4.836648489293714302e-04 -1.905065576684679060e-02 2.189316796186965008e-01 1.263448264771745710e-01 -9.874264694315464108e-02 8.053970617005956623e-02 6.998733664967332624e-02 -4.536889667903711704e-02 -1.329340002677563241e-02 3.718325714579771152e-02 2.737735043682499800e-02 1.141369634196487959e-01 1.410949436658853473e-01 -1.017330793354052632e-01 -6.012500594973190643e-02 1.440502635023475919e-01 -6.904983638462165729e-02 5.711133963502183775e-02 -2.959759675210285601e-02 -1.229284946450369259e-01 1.576155759443302051e-01 4.519388589044937704e-02 3.310752348250362576e-01 7.987584971129217670e-02 -1.775719627802380685e-01 -4.441495727572237345e-02 -7.716308831908165466e-02 2.087191602761150760e-02 -8.129800833175744590e-02 -7.822942289947894257e-02 9.472064001734567529e-02 -1.856435408889240204e-02 -4.442470324227060230e-02 5.261650981971940921e-02 1.214485529525657637e-01 2.518935968164001116e-01 -4.979827565546622592e-02 5.202883806802257455e-02 1.147923593426153910e-01 2.515119210213939138e-01 -9.758037548502168645e-02 -1.024909174256736361e-01 5.727751748653626962e-02 -5.422263263862259902e-02 4.772537034823863544e-02 -1.554313480444672879e-01 1.174878766717925294e-01 6.921846861784235194e-02 5.886256015527778149e-03 -1.673409356568293302e-02 7.128179423576885831e-02 -5.727344907455873130e-02 -6.494326519898979688e-02 1.816302026574595149e-02 -1.877023539520932937e-03 1.720654783458569134e-02 1.022874933977708928e-01 7.271742236081182864e-02 1.862575968652189218e-01 -5.043782787639552317e-02 6.345610180055932803e-02 -9.100691653750797583e-02 1.682212939742199626e-02 -1.187062808805230685e-01 -1.470613530696773252e-01 -1.402065280955469007e-01 1.287871430475230443e-02 6.214110527672776080e-02 -5.179447863115706208e-02 4.512533105430241442e-02 2.822586819910251621e-01 2.288152308467774221e-03 2.086398015159445785e-01 -2.025878558708810451e-01 -1.661975803425086440e-01 -1.589206492265389861e-02 1.141669975888624233e-01 1.544800622991220618e-01 -9.252226953774592144e-02 -1.607965757483357516e-01 1.107633010382224822e-02 9.058045438346429279e-03 -2.247797622111004090e-01 -8.816813750870837463e-02 -9.984114026006470077e-02 -1.879977313021180541e-01 2.972191370975764760e-02 1.898339696400134780e-01 3.000229284018235063e-02 -1.365999706709140338e-01 7.045181310078799629e-03 -1.498355039789671106e-01 -6.100433034360457779e-02 4.034718413920634211e-02 -6.284627059685438111e-02 1.840196582747621878e-01 6.016788583345725194e-02 1.688452585860136246e-01 2.273418982343127295e-02 4.472113114718734989e-02 -5.456167279101516165e-02 3.586667488298778128e-01 3.648324547202401111e-03 2.613375052899790177e-02 -7.663767880453546677e-02 -4.929047567278069253e-02 -1.073530446015132228e-01 2.035457530799028580e-01 9.681220297581816236e-02 -1.067610284306037549e-01 7.158510485919232502e-02 1.040691235499493494e-01 -1.986007732060762754e-01 -5.072765725728822783e-02 -1.936717510697031353e-01 -9.769810445564582058e-02 -8.617872321058167584e-02 -1.441945529285126593e-01 8.191492945153117100e-02 5.635573359275256045e-02 -3.020941052730404253e-01 -2.329166673727210701e-01 -1.760942865949876451e-02 2.900608595067092829e-02 2.731422832209855489e-01 8.705175607740928134e-02 2.410836257274698302e-01 -6.400209870551937241e-02 3.433394943201457244e-02 7.104048304276756876e-02 3.341134389985181974e-01 -8.119830405505398113e-03 7.240297239593514178e-02 4.954859854556706300e-02 -6.168063152122613135e-02 -2.794691324007228181e-02 4.847200943584779043e-01 1.066095043074571369e-01 -1.222764662662147311e-01 1.342418717298477504e-01 -9.902810379234096988e-03 5.607082308514308930e-03 -1.858085991854044328e-01 5.085097273516347993e-02 -6.795774243369747400e-04 1.759081759523874189e-02 -8.792562737053744026e-02 2.338352133794022875e-02 -1.512617102938512183e-02 8.528101203865164071e-02 2.745292567589175947e-01 1.097808167980412614e-01 1.292034635594179193e-01 -8.614352757654968051e-02 4.066424585928005708e-01 -5.229214190832916567e-03 2.131266412173485683e-02 -9.152613688548720539e-02 -1.107872689291192203e-01 -2.292182220521550573e-02 1.357551079963752738e-01 -6.303989272804493005e-02 2.216978117466415765e-02 7.726157034211707242e-02 9.268606332431676698e-02 -2.178580423211043393e-02 -1.261922683780705157e-01 -4.766035506204860210e-03 -8.892594525389221904e-02 -2.295836067358721089e-02 -3.165643674575446126e-02 9.499545494526534517e-02 -1.151875720068729807e-03 -9.362523290823482249e-04 -1.072946150045472752e-01 -5.732496654623463889e-02 -9.524168107846407716e-02 2.479782210682971583e-02 -9.150094485013617052e-02 -1.772037978724267868e-02 -4.559604120109588161e-03 7.210692793253205279e-02 -8.362744328648778758e-02 -2.628321287708781928e-01 -1.592782764980447407e-01 -1.981068202929615191e-02 -6.982442287763208910e-02 -3.941660829765946533e-02 2.479784693793826017e-02 -1.400338585085268983e-01 -8.075092552213468389e-03
1.189361155474465137e-01 2.601003714200868233e-02 2.310313373929233083e-01 1.082951023729100404e-01 -8.572363765974805316e-02 -3.846754312979554224e-02 5.156492589546416393e-03 -1.626072427154728536e-02 -1.714056707878347866e-02 -1.522809705639179174e-02 1.213174397337050264e-01 7.538849963399733844e-02 -7.450300846794587206e-02 -3.070262094920380401e-03 -3.600939711213008154e-02 1.315487319380030662e-01 8.696912455896999017e-02 -1.631951782309588039e-01 1.051531437880446201e-01 1.247155697276282615e-01 3.473255044644475015e-02 -5.588961705258343321e-02 3.883241415583881667e-02 -2.515935210322661764e-02 1.719124066885828472e-01 -2.025773819800083531e-02 6.770318350736127810e-02 6.701417558410366349e-02 9.415323957088055085e-02 2.433376770773405806e-02 -1.207098688462995839e-02 7.754078706665692988e-02 -3.147055365213777267e-02 1.213984610110131583e-02 3.250346624588864447e-02 4.256534902611770060e-02 -3.845284370254422462e-02 -6.463343826139285320e-02 -4.256716510526907526e-02 -4.412526331357122245e-02 -5.913687272054886368e-02 1.140483216611607176e-01 9.537912352203010979e-02 1.953334097568803704e-02 1.264500587379940588e-01 1.830547989134717335e-01 6.647266395038672893e-02 -8.835967351802106670e-03 7.167411759942558802e-02 4.201110477444135183e-02 -5.216297734340032827e-02 8.777552337265030757e-02 -6.621521083676389086e-02 1.127464414759827005e-01 -2.153029904094985181e-01 1.409646269604013930e-02 9.647929414843370299e-02 1.074239010450170478e-01 4.524733279586241191e-02 1.640415684406326680e-01 7.421827938360191224e-02 8.033855101921258401e-02 5.835156785953946046e-02 4.944095546160783700e-02 -1.139573217026936328e-02 8.629177409460084269e-02 -6.669093731150839421e-02 1.045430657229678428e-01 -7.134612020609212846e-02 1.257388339429276192e-01 -5.156431706033440948e-02 -1.535712833669830232e-02 -4.711278174249530770e-02 1.300837864453693316e-01 2.179254986139447514e-01 -8.160315546788719787e-02 5.739180916821914891e-02 8.586244528525896480e-02 -5.381800463296215059e-02 -3.376541282030303542e-02 3.496715063466799417e-02 4.845444119803526961e-02 5.525049586218165609e-02 1.673806873991465216e-01 1.038597859138681023e-01 -5.160327220648074781e-02 -6.323431568687953863e-02 -7.170495685525812152e-03 3.085711493275648809e-02 7.191767263117980480e-03 2.517753620884630519e-02 -1.408457253066265971e-02 1.131279234599738732e-02 1.381634891992808032e-03 3.071004259457955632e-01 4.475020306712176876e-02 1.072587403508977466e-01 1.677298956563386123e-02 -5.243083490145507286e-02 5.921498841870367208e-02 -3.242447305494079723e-02 1.761105987633268533e-01 -1.930726001449160206e-02 4.453804889053659261e-02 -7.969867719887039140e-03 1.438937437979499745e-01 9.746108031900117818e-02 5.900535285779692773e-02 2.113812235447787846e-01 9.937907044799536294e-02 -7.399088571986520146e-02 1.076848389252765131e-01 6.217950346882438611e-02 4.434152093918915932e-02 -2.540945693949727552e-02 4.215594377949577476e-02 5.249941182248912125e-02 -8.918179693197780464e-03 -3.087355165629007692e-02 1.168779927130450258e-01 6.778358875147620644e-02 3.711231702527230392e-02 -4.162636184012639268e-02 1.572116359422614032e-02 -2.099529455633278863e-01 7.923065613538154972e-02 -1.354754740386457101e-01 6.847051490148359232e-02 1.456077885891879642e-01 -6.248635128843669367e-02 6.724525004817004381e-02 8.963777710811747512e-02 -2.918757958098663896e-02 3.657577064308790288e-02 -4.731338605329116209e-02 2.755501502196878311e-02 9.496994427521499678e-04 4.584149717984908889e-02 3.080934562194507370e-02 -4.515990234605444555e-03 1.387927613119269987e-01 7.709200342576202902e-02 -5.927867492559597135e-02 -6.214835018685457152e-02 4.451985459919615556e-02 -1.014480897771479666e-03 8.705135578709283228e-02 1.446639176678993777e-01 -2.803649067532183910e-03 2.824561944161952873e-02 -8.717282748349970689e-02 5.591438920599192675e-02 1.820306473016897741e-01 -7.494909946117331301e-02 1.130338438439346255e-01 2.405507326352544079e-02 -4.692660693159782931e-02 1.205751961428242897e-01 1.269184057616873362e-01 1.358749645268446660e-01 7.459725663531004136e-02 5.649220531987055732e-02 2.015471323079902621e-01 3.200749675322235588e-02 7.061542824950418906e-02 2.929055401951412632e-02 -5.878418633101340635e-02 -6.343651106209327595e-02 4.049373782985485337e-02 8.036902084308876482e-02 -3.099835617748565239e-02 7.704081953166209973e-02 6.263708882940902112e-02 1.029900075027790629e-01 2.145694772977015385e-01 -5.633206887884839413e-03 7.232311068298312440e-02 8.532898383596862479e-02 7.185695754515583622e-02 -9.387936770344713910e-02 2.478397230318289419e-03 -2.064275599401886249e-02 5.343781989482738332e-02 3.356965294386828058e-02 1.405486514655343855e-01 1.322162117261098668e-01 4.864408465491597278e-02 1.301312260232281512e-02 8.808810624976048942e-02 1.662125250233319751e-01 9.353697675174256487e-02 3.259328886254370117e-02 1.635898932655164562e-01 -1.726140027710108479e-02 -8.147377718408167768e-02 8.503208866607317451e-02 9.529457502469391994e-02 1.191163174428711870e-02 -1.518121935237246554e-02 8.529639799201821360e-02
