5.088977818271092982e-03 -2.929726875447064699e-02 3.016727437095939601e-02 5.581324173098927560e-02 9.394009653094247125e-02 2.149671748120663556e-02 1.108462481077387568e-01 -3.391949773194092438e-02 3.117686343884355782e-02 2.508292585256465673e-02 4.011164618496885353e-02 -3.534790120351024439e-02 -1.452982995872617068e-02 -5.264660664809883359e-03 -3.394138288612067941e-03 3.387067895534533885e-02 -4.621342763644046420e-02 6.769457146580346377e-03 2.011848359271287134e-02 -3.116578958290100107e-03 2.880102675707148230e-02 8.322385741968934061e-03 1.527227813343211629e-02 -4.120169615936999236e-03 -7.448741036485336496e-03 -4.240612576429910602e-02 4.665882862545463888e-02 -6.669937119220601188e-03 1.574601564392357975e-02 -4.320089543948173877e-02 7.353535723205699426e-02 7.437108199909904169e-03 -1.647612839872066113e-03 -2.200824466883150726e-02 8.433757605333254415e-02 -5.022905523437099645e-02 9.288985983294568635e-03 4.218082361811219955e-02 3.784740283808362554e-02 -2.887187792827954763e-02 -2.035368710805689207e-02 5.524553251987792540e-02 9.123590991009948581e-03 2.775293819723437250e-02 4.026069135280643113e-02 -4.133927934809301236e-02 4.333990425066337054e-02 -7.990424092612139623e-03 2.731522567507781857e-02 -4.717535256795166859e-03 2.113661694938696878e-02 3.106067524393874013e-02 1.747972885190103576e-02 2.662177370946287869e-02 5.465461389598220282e-02 2.093024806306774399e-02 1.294984636726461552e-02 -2.529872642574434310e-02 2.466194466614844705e-02 2.805185114041053307e-02 7.983727024139698758e-02 2.609121363639470281e-02 8.263095489783224210e-03 -4.062627234553433525e-02 2.006504439375081383e-02 -5.700876855139640209e-03 -3.255329999349464848e-02 -8.738679397275222333e-03 1.564887547334070650e-02 7.412112121521182220e-03 -3.048939490567110708e-02 5.101119589466102805e-02 -7.402565783217366670e-03 6.697892237003526261e-02 1.856916644940791172e-02 7.251820947139178686e-03 3.357504149279066409e-03 1.500709310625733539e-02 -3.927618291856291646e-03 2.136200051842562092e-02 -3.288230158629317640e-02 5.474114805286645069e-03 -6.830194922297956606e-02 -6.536730619637377837e-02 4.034104013678600081e-02 -3.222993321073574363e-02 6.907312694548732590e-02 3.644704739244939568e-02 7.188292768169020353e-02 4.418519009926310387e-02 9.219533716910883331e-03 1.547807727949722031e-02 -4.726894176472357795e-02 -8.716733719743040287e-03 1.031821649623421069e-03 7.630246725408705577e-02 6.807576504709587570e-03 2.149733275159541185e-02 5.379653353352948503e-02 1.843266998980944496e-03 -3.252889807026398267e-02 -3.284840206822256178e-03 6.123625100022827422e-03 6.185112101697378545e-02 7.792887495972702222e-03 3.815595271091103829e-02 -8.978769774970708772e-02 5.312312976710562712e-02 -4.407608135750242656e-02 1.736832566327973452e-03 3.601222778809718555e-02 6.593094282841835754e-03 -4.725621446216165394e-02 1.460345834424558314e-02 2.930410450839939646e-02 -4.117579375161669469e-02 1.472442513063847679e-02 -1.148618582436742586e-01 -5.410599406310493548e-02 3.952988342096509095e-02 4.609880987224628662e-02 1.237717887650708337e-01 9.048529509027665452e-02 1.628567284115956804e-01 5.666045816631711668e-02 6.016179692713942602e-03 -1.163212313605039711e-01 -3.265797602185219195e-02 -1.845365963619383931e-01 3.655176324007308047e-02 -5.720406528933215384e-02 -3.918599171353437938e-01 1.298698415656414085e-01 2.515913402699946899e-01 3.163441455895191212e-01 1.863807180564405475e-01 5.332276145230204975e-03 1.570061773830827220e-02 -3.271903596709980350e-02 2.273096228925116508e-02 8.364263291334871064e-02 7.034970912380518471e-02 1.828241438062494506e-02 -2.397835897895093243e-02 7.196421564229084356e-02 -7.560063671156286302e-02 -2.459064457254275249e-01 -2.324848460373080961e-01 -3.356783409228003556e-02 7.276205057755834316e-02 2.570856510111987903e-02 1.944280377556497075e-01 4.210006351342954894e-02 -6.871093155199453108e-03 -3.227032155110082789e-01 -4.813288627741101333e-01 4.628309558272179769e-02 4.418578247895014188e-01 2.864751436805837992e-01 -2.358097463095638335e-01 -2.773427560717784193e-02 1.440719057684078930e-01 1.230826719672509229e-01 8.060690605105679668e-03 2.481708287847287503e-02 7.539740198682219618e-02 5.616305238541118711e-02 4.831029220868861968e-02 3.443812747005991354e-02 7.696511673449178692e-02 8.000143977385824889e-02 1.889258200588682379e-02 -1.773849094255617112e-02 7.699760764829656490e-02 2.880133955751994559e-02 1.008828394037519262e-02 -1.154085001109064583e-02 2.887738228640193694e-01 -8.301047531284713732e-02 5.163054230883638851e-02 2.328364451263666979e-01 -1.632697520737306229e-01 -4.508337746322664263e-01 -5.722531914314993307e-01 -1.883929728578693785e-01 -9.202055209836539074e-02 3.024116640577216297e-01 1.965372813091738891e-01 5.590491494462539873e-02 9.925659176047372731e-03 1.004158071768677524e-01 -3.469118658937385413e-02 -2.644096325648955664e-02 -1.296333155479231433e-02 1.470813063400314841e-02 -1.867615306683945153e-02 -1.095332564770332834e-02 8.795927509728653643e-03 -4.563295007088979255e-02 8.117074365848674089e-02 -1.351799810762363829e-01 -6.672873647691855703e-02 1.166802718219447643e-01 -1.710383086038433104e-03 3.326013694704196139e-02 -1.322057778603275557e-01 -1.702721102971479772e-01 1.180655947631918806e-01 -1.651664205233529525e-01 -3.951007090123767052e-01 -7.083672797548457023e-01 -3.091161820913388980e-01 -6.324676643716806157e-02 -2.838226053397984588e-02 -3.033884707648102502e-02 1.908814057158138844e-01 -3.238823583983140974e-03 -2.311139081542014084e-01 2.171967109915049488e-01 1.043642395232608905e-01 8.568003829619839917e-02 6.266603037992368730e-02 -8.485887684844754808e-03 7.821466963295141406e-02 -4.978014707998781180e-02 4.025601699815153055e-03 4.135634377138718704e-02 5.500992232779088748e-02 -2.897873643728732240e-01 -3.340962109690102100e-01 -1.163041421317665552e-01 -7.112435071191587632e-02 -3.969287315394555149e-01 -3.233137475938988037e-01 -7.478338528411423991e-02 2.583015376136502117e-02 2.072262396517910235e-02 -1.395505436616946981e-01 -6.807445257036942587e-02 9.947046500446399264e-02 1.252073570337307040e-01 1.432509494658746885e-01 -1.401654878345657274e-01 -1.988896501574716549e-02 -1.115414353660393876e-01 -2.772714849564388850e-01 -7.330720364232032327e-02 -2.111365727292131289e-01 7.688093156476496918e-04 2.157118977454455105e-02 1.780344844874439184e-02 9.225171998466110898e-03 -5.673702014442173064e-02 9.710949293782938918e-03 7.419138498475262578e-02 3.339122552814621087e-02 -4.020993785350070460e-01 -1.164468358890852900e-01 1.594522081393963675e-01 -6.493752056031625031e-02 -2.990382499091137070e-01 -5.776573697861199230e-01 -6.480501652291933423e-01 -3.491830317639115777e-01 1.546010769770367506e-02 -1.134241076660723879e-01 -3.351888709737280148e-02 2.297723073131916760e-01 2.245035190432831951e-01 1.125304111197779483e-01 -1.208283018478696798e-02 2.125059255049816798e-01 -4.733890418142569501e-02 -2.775276140127297952e-01 -1.223225821287573650e-01 -6.378573724104542875e-02 4.280682249895945840e-02 1.986316707157519297e-03 -2.833647338663320379e-03 6.896962694894150092e-02 1.316194714690769804e-02 8.947492462743816604e-04 -1.808407142898144776e-02 5.512875247653185179e-02 -1.813986923309152122e-01 -2.512005623519987241e-01 -6.639773200771101336e-02 -5.489538802530539163e-01 -5.696110618151895011e-01 -6.011084966433705157e-01 -4.740218327549653998e-01 -1.062492386032916764e-01 8.614435186878233175e-02 8.616995270200829282e-03 -3.730939783465052617e-01 1.244560392011308941e-01 1.175846994783245059e-01 1.667589213746310528e-01 4.488160748543369993e-01 5.289343112842938011e-01 3.556382423107594115e-01 1.391242533232012746e-01 1.984749541192267208e-01 1.108330852013444529e-01 -2.568715170168736628e-02 5.091311839936988465e-02 -1.893091398125211489e-02 8.619185322029756721e-03 4.137666567567186565e-02 1.206538110478629338e-03 3.256250483835160942e-02 -9.137242487290732351e-03 -5.269278701654934310e-03 -9.424348003465829113e-03 6.768507151377255171e-02 -2.904518018243862909e-01 -2.192976214580187877e-01 5.394227648685168131e-02 5.266550450121885302e-02 9.050762633197433071e-02 1.902302109463029078e-01 8.660788292175161662e-02 -2.649284887997784832e-01 3.891735626637063961e-01 2.791380519487829948e-01 4.147466462424415634e-01 1.446094116439851363e-01 3.032002730544761659e-01 5.423145241843049247e-01 3.796382123960329591e-01 1.725103203291708798e-01 1.458770448199578351e-01 -4.968193355015449592e-02 7.356238709922575947e-02 5.028587661273282300e-02 -8.747290401888444195e-04 1.431359328059099521e-03 -2.067924299049468673e-02 2.878224053008036215e-02 -2.737399982874839412e-03 1.388351480273913030e-01 4.142874753110977748e-01 3.692371124888435552e-01 9.025138106989483155e-02 1.473099940731422142e-01 2.175152592071165902e-01 8.168234072086372199e-02 -7.449642107972384575e-02 7.441594283175294311e-02 1.084967787360840707e-01 2.715218206897866415e-01 4.915052343156815495e-01 2.808160526957068082e-01 3.055993859150522018e-01 -2.705340283720782807e-02 1.120609121227731930e-01 1.600242060558294266e-01 1.789503033888926453e-01 2.319704058666406665e-01 2.452085246690182962e-01 2.824762622026736475e-02 1.000532761882121785e-02 -3.320795209007944976e-02 2.156898916194072841e-02 -4.778828017993879546e-02 1.437587538393790554e-02 2.842168115135722088e-03 1.596019756741717463e-02 2.154237173633020141e-01 4.532779962775820293e-01 2.468713023188171818e-01 9.805114636015889451e-02 3.683974887191280856e-01 4.232016630672236768e-01 1.379725574651359532e-01 -1.428294118161189397e-01 2.279894362975654898e-01 2.021339150248232519e-01 3.560932957973886315e-01 3.430167559413959677e-01 1.742622119213853571e-01 2.730429446908441138e-01 -1.462228630002022634e-01 4.077763771410493343e-02 7.483239076253808686e-02 2.239861001363468718e-01 4.103639306672965392e-01 2.116606978247155546e-01 6.313967051140285947e-02 1.887424731192467731e-02 4.717392467350268320e-02 -2.133686639409276137e-02 -3.937687079321768729e-02 -6.619717234943438625e-03 -1.097981438510474070e-02 4.791652957529787121e-02 2.243018392323494759e-01 4.044398524661551031e-01 2.807864467867799974e-01 1.068099785128372864e-01 5.101480714061719102e-01 5.333928140319811328e-01 1.140808503626589282e-01 -1.489399810733882112e-01 -1.812516572189224462e-01 -1.272640939421728623e-01 1.844848700328096947e-01 4.409132014000725630e-01 3.739191002826754845e-02 6.557593884101542425e-02 1.824252004021736581e-02 2.745007072388895297e-01 3.647663764631096095e-01 3.912713755478748334e-01 6.404819252379335692e-01 3.743413473409424874e-01 3.041548367369737577e-02 -3.226095295723153261e-02 -4.636043305891298510e-02 3.978648309407362832e-02 5.806925420086183481e-02 4.912328830083605678e-03 -3.842427628148543852e-03 -5.434684951641078829e-03 1.063480723600060268e-01 1.340758378880823332e-01 2.248361557529848787e-01 3.615916944228032004e-01 6.351746381414369313e-01 5.951098692221620245e-01 2.360218070030205006e-01 -2.443893228232391357e-01 6.214554525369950927e-02 2.595228045476528078e-01 3.660566881823192897e-01 3.341872393796033180e-01 3.077592154070460939e-01 3.351519999482590051e-01 2.504699963475696123e-01 4.139557137005465681e-01 5.049694896642381581e-01 6.939786351258482311e-01 8.841674050993683087e-01 3.539312727690498428e-01 6.522453221000322487e-02 3.872010346614122335e-03 1.092530202330846412e-02 -1.226209954242821545e-02 -4.307636372737790389e-03 -1.006077923009342234e-02 3.554657980368696596e-02 -7.004197909054309112e-02 5.442465111905684522e-02 1.002964642013015606e-01 1.929232624273282404e-01 3.074693303763640362e-01 5.531225967694967105e-01 4.763342635898058508e-01 1.752143786212501109e-01 -1.906692986391346767e-01 2.374976208599900995e-01 1.900163159802892576e-01 1.374414984854785138e-01 2.849185311888353112e-01 4.769595111036284418e-01 4.196237834561150626e-01 2.840216499441434728e-01 3.142970585898751668e-01 4.230924423204313056e-01 6.003981640472425552e-01 6.295246230317028679e-01 1.215246015918482192e-01 8.066462012128365611e-02 4.543533297290016509e-02 3.913746158796314184e-02 6.816700287986234008e-02 -1.762121625914240403e-02 -3.411338324917665560e-02 5.772641022338111799e-02 4.344451108852914051e-02 5.841621616006952705e-02 1.000084004179294106e-01 1.542606399500216947e-02 1.791529351922666047e-01 2.238244198763058024e-01 2.537564359527652025e-01 -5.339929015139149165e-02 1.856899228734500140e-01 1.715686926121599842e-01 -7.790499792318025807e-02 -2.471387514522659090e-01 1.140976836832739150e-01 4.102111165791422209e-01 2.697892192768959752e-01 -7.073841460791252533e-02 1.570571723494761929e-01 6.907517313612251963e-02 8.338884043357637499e-02 -4.931407459049284327e-03 -9.825314265851016471e-02 -1.731699403959929828e-02 2.389114497702281292e-02 1.401229355122774259e-02 1.864514384263456920e-02 3.526452709331363150e-02 -1.129184793538316744e-03 -2.006900088530548520e-02 3.763869229896994045e-02 -5.026909014819263416e-02 2.587543012942994936e-01 8.811963231417004050e-02 -1.279293009172915128e-02 -2.580028691114649164e-01 -1.770711915725123042e-01 -1.263934241620786603e-01 2.169205318231657784e-02 2.838909754711283189e-03 -3.463931113944385687e-01 -4.042689696455817883e-01 -1.543088554138890289e-01 2.121298219436240640e-01 1.666765344977635954e-02 -1.171057600792650144e-01 1.210841781862910943e-01 2.219674486774825262e-01 -5.908197422053175496e-02 -2.021666977248808561e-01 -3.751054174984054801e-01 2.326361374808206400e-02 -1.374973979084846351e-02 1.517384598633689154e-03 4.098640258097729222e-02 -7.945216073954687597e-02 -5.259040768371189140e-03 -3.341725778520321377e-03 2.805641739917093258e-02 -1.668838501694865084e-01 1.269776903563270831e-01 5.865130161390885721e-02 -1.149218755723933477e-01 -5.411884087159388734e-01 -6.123893853912540930e-01 -1.331618974063845939e-01 2.454243261906671469e-01 -1.655794453014469980e-01 -8.860667984205108927e-02 -1.864988995854531262e-01 -8.250188453569312630e-02 -6.415402990008188533e-02 -9.793180990529447294e-02 4.413798213815615934e-02 2.451861284021042420e-01 2.758632720656555848e-01 -6.477393935611941433e-02 -4.193059868153046210e-01 -2.569122980286740465e-01 4.917928591812562727e-02 -5.503233788132770588e-03 4.863826589117103277e-02 -4.148357457938666587e-02 5.603828444754230947e-02 -1.094564404548474534e-02 4.128482171650049021e-02 -5.202070498124194281e-02 -2.274530324701321271e-01 -3.495865335183585831e-02 9.181590187303298456e-02 -1.950950152202838433e-02 -2.073935088911094682e-01 -3.951750972914336857e-01 5.075955694682187519e-02 -8.219147130339929386e-02 -2.488600066912026454e-01 -3.798219781550495888e-01 -2.019307552938681694e-01 -2.735728116299047108e-01 -2.046307606897133369e-01 -2.026012018689207772e-01 -1.982985799887839601e-02 1.554931619158874123e-01 -4.085687069666497223e-02 -4.757928074808015495e-02 -4.025027743633066701e-01 -1.035537898456351802e-01 1.109858432333445805e-02 -3.292702727519199180e-03 3.773445764295422361e-02 2.980172700661575663e-02 -3.432392287820074800e-02 2.288585494245660990e-02 -9.698789189338526823e-03 -4.016292527381055272e-02 -3.737547606745031392e-01 3.481496183308693034e-03 -1.853633250179066161e-01 -8.899172607877128827e-02 -9.109457289845095118e-02 -2.263506224468297967e-01 -3.780573711175038570e-02 -2.165935708831080025e-02 -7.786353469283315010e-02 -7.821077222361783043e-02 -8.800652656238379390e-02 -2.479822175954385088e-01 -3.374814366815592770e-01 -5.899021988553382334e-01 -1.169641283491075490e-01 3.137223100847919693e-02 -2.262202919749009833e-01 -6.032626619593368655e-01 -2.859828845817818932e-01 -7.318289240140102292e-02 8.329328196161121800e-02 6.231876873067274808e-02 -1.561114553423862458e-03 7.232480708582778722e-03 5.680880925381135566e-02 5.232365062613988232e-02 3.331612570498963810e-02 3.382866580046042793e-02 -9.196282010601665880e-04 2.219876820027280595e-01 -1.253520864735727935e-01 1.001340110908467348e-02 7.007250568598000218e-02 8.958700385474452355e-02 -1.100114075096962629e-01 -1.563859114452828825e-01 -1.180608023417887148e-01 -1.659000526667241127e-02 -1.663078940705693953e-01 -1.967807467971954549e-01 -2.096444170225746639e-01 -2.512789757062219853e-01 -1.620645389908575706e-01 -1.572003740290343621e-01 -3.487592804320754913e-01 -3.858233229323272395e-01 -1.576051402012413338e-01 -2.536325431239610378e-02 3.966126776107802704e-02 1.599438692799270978e-02 3.972548723911836950e-03 8.464281713944403485e-02 6.033774199267567112e-02 1.662890498599871661e-03 1.893144517437213119e-03 4.779099923455828319e-02 1.891910537758026145e-01 4.011368626495681045e-01 2.186509740734313145e-02 9.852816607840295116e-02 6.649215330404595337e-02 7.127743664464976370e-02 2.895816149578700482e-01 -1.001133073966754654e-02 -2.112056816506152623e-01 -2.119704773680943788e-01 -1.547940446068742093e-01 1.881591672534940664e-03 -3.606671964151177134e-02 1.140173508853450368e-01 1.566049111297906915e-01 2.460499977700439725e-02 -1.325993634371239356e-02 -8.718129741962910018e-02 -5.018106695888616131e-02 2.530570617370902359e-02 -2.156231038083013252e-02 -4.634456533989644508e-03 4.632447020126575360e-02 -3.356135492186031188e-03 5.170046194923603490e-03 4.407157348453225564e-04 -1.870907814552601883e-02 1.475592023512851611e-02 6.124152775961500678e-02 6.120557098539144286e-02 -6.744304490997450607e-02 4.551003774546565767e-02 3.597610784459533834e-02 1.730237895617528845e-02 -2.569419213454056383e-02 -3.087470346464047180e-02 8.457368189423551327e-03 7.970921217087338639e-02 4.762409241896376627e-03 -3.083004456138410676e-02 -1.870920456688752315e-02 -6.383478669541926831e-02 -3.058027023188097937e-02 3.666046782609801852e-02 3.294782696263015564e-02 -1.843842583630656007e-02 3.710333821916782585e-03 3.734385259455346578e-02 -3.581847413232871341e-02 2.021411998418660982e-03 1.429722995372740418e-02 -6.138989629229978096e-03 4.776079185175260457e-03 -1.648656012583434721e-02 -1.013780974948030739e-01 -1.598384509121831415e-02 4.185417614101680922e-02 3.655783369585403203e-02 -3.037888693423456202e-02 -1.319799154135520292e-02 1.701398608129907689e-02 9.143794593240735236e-02 1.550323130602367094e-02 6.014239959309514855e-03 -1.327899754631146553e-02 3.115682037442189800e-02 6.389903349919183462e-02 2.542434776964861559e-02 -3.624403037742569139e-02 8.229870968663120789e-02 7.365417867918028216e-03 7.407248146864549992e-03 2.591024936375675020e-02 -5.817892010164846250e-03 2.703776210018967591e-02 -3.029014591575376197e-02 -2.451114509893458082e-02 -1.834893275083086112e-02 -1.540775240994918423e-02 -7.309090212241158534e-03 -3.023544591553534513e-02 -1.838896655922701850e-02 4.062199916611087223e-03 -6.274091255803315031e-03 -1.367546324509625461e-02 5.213265619236297915e-02 3.092110074508559042e-02 2.718347139700679621e-02 -5.300113512245444372e-03 -6.885858119450118109e-02 -2.995971642539104959e-02 -2.026633783064738653e-02 -2.241372713862870014e-02 -1.940997382084310883e-03 4.933688509130785410e-02 3.940574923047390071e-02 -1.880948397718514020e-02 9.854150674718186592e-03 -5.523401782274943439e-03 2.857654674203492090e-02 -5.306644328160507046e-02 -4.779229994977627488e-03 2.273824528589562383e-02 2.272341935552336933e-02 6.003182934399402954e-02 -1.843602637802661771e-03 -1.334652166175862020e-02 3.907590200536183861e-02 -8.370159598011060742e-02 2.078289033393247720e-02 5.195376972124734344e-02 -2.891811521445091654e-02 -7.648002789921530195e-03 3.259519556467289914e-02 -6.657972683942421643e-02 8.328899079324857124e-02 7.862178817701353725e-03 1.857747131491039455e-02 -2.542596247207726951e-02 1.441577351711281069e-02 1.522003255936163393e-03 -3.530002627678659015e-03 -7.073400993096208220e-03 1.609048410336034324e-02 -4.809775891098693607e-02 2.546000894705720968e-02 1.905274385689758460e-02 -4.505647191906147678e-05 6.797815809318553948e-02 2.615925678579068825e-02 -3.912357867339621119e-03 1.349090111824376853e-02 -5.406949219212895535e-02 1.373051451392544309e-02 3.007601091813557129e-03 1.689040391994539592e-02
-3.582143467299347527e-03 -1.100298337134781798e-02 -1.099545191075290348e-02 6.708728546934063751e-03 6.663236006378377325e-03 4.762841651256795317e-02 2.573121649398279684e-02 1.098462849886723200e-02 -4.926489796898696205e-02 4.224323325613957292e-02 2.946904189133242938e-02 1.503721662730644892e-02 8.935349216399133404e-03 5.627531980325168985e-03 1.613551319556166819e-02 3.823183431940017918e-02 -8.386914463217390314e-03 4.218415783210856251e-02 2.330816053663182716e-02 1.068548505640409471e-02 -4.229712078055025172e-03 3.874078062006365564e-02 8.004626815467850293e-03 5.800778187049579482e-02 2.464687519854243461e-02 3.198942321836087399e-02 4.403473596753527952e-02 1.720990809670427252e-02 6.841694014176699645e-02 -2.026444128184854906e-02 6.347575010763101266e-02 -6.714327933835425623e-03 5.659781388000115210e-02 -9.706311674405235235e-03 1.137846773716611956e-02 -1.056627460936604727e-03 -1.089420462928193320e-02 -2.605745729947865977e-02 -1.181315235280394962e-02 5.524711910722329700e-02 3.052460451678630157e-02 -3.702083513950965663e-03 1.822808905069971119e-02 4.616043843249394152e-02 6.494594010888887770e-02 6.927767697087422460e-02 -5.361552608506157946e-02 3.309740921018616833e-02 3.160230458000199555e-02 -1.933468229244436273e-02 -4.870449453698987019e-02 -2.668288436340908801e-02 2.091843188134502249e-02 6.193838865675810323e-02 -8.677553507764002028e-03 1.763306965492632619e-02 4.069325089683782648e-02 6.812325932178914245e-02 3.139219802303005319e-02 9.650550561315757170e-02 6.176866214783059694e-02 1.282512486811628093e-03 4.919897176071977296e-02 7.393784010239946728e-04 5.283259158431596880e-02 1.463581639644914723e-02 4.521861935107299927e-04 -4.533806612597812702e-02 3.551729525153168865e-02 2.011708719916871502e-02 -1.619939145302686997e-02 4.014092673376645770e-02 7.681278560775792186e-02 3.856843669053092172e-02 1.838611180808042561e-02 1.995533677629599684e-02 -8.314327581774749731e-03 -3.029536842675013136e-02 1.289918420843575234e-02 4.361306201899006751e-02 3.716486425633895585e-02 1.591540352801639911e-03 8.415871588290688154e-02 3.291624484152767816e-02 2.460629082911167456e-02 8.634719615331909459e-02 1.898104282106207255e-02 4.380460869180806405e-02 1.026288126286321878e-02 -2.928155861332427945e-02 1.341250303652035542e-02 2.675434645491585675e-02 4.311456205567024136e-02 -6.058987647486324159e-03 6.291955209257010274e-03 -7.571158959512253213e-03 1.618556973977609836e-02 4.124508832664948443e-02 -3.082265020307842565e-02 1.058794438960240503e-01 -3.094308831777455027e-02 -1.154796601256563235e-02 -2.317480356095538707e-04 5.131696574333446947e-02 1.092831006932862628e-02 -1.447399621366718750e-02 4.981839169551779967e-02 -3.948379543561635063e-02 -7.807996487240586626e-03 5.762655066093963496e-02 1.442215693827631623e-02 3.303380294487204272e-02 -2.150648025812441729e-05 2.547704257372534684e-02 3.184698584621067918e-02 -1.585513782386349310e-02 1.979163198127638704e-02 7.379500987152347313e-02 1.046662751822163562e-01 1.866804523455195264e-01 1.115035946860376825e-01 4.851116878491486262e-02 1.016037267221455570e-01 1.987896870073922739e-01 -4.052033267366799557e-02 -2.503478157571515372e-01 8.256374552245517029e-02 2.502004656748132438e-01 -1.788343411896070601e-03 1.044693383996137537e-01 -1.988967941757406599e-01 -2.723882473389535597e-01 5.314782785375209845e-02 3.735552518635310570e-01 3.276037737647291004e-01 2.140880359676387568e-01 3.837842563347486358e-02 2.321138090632383563e-02 4.681088645392202097e-02 4.435928403314316759e-02 -2.299314446309307439e-02 4.528002614172495222e-02 1.945080725858443216e-02 2.021075375313082303e-02 -1.675114172622578848e-02 1.519434730111011156e-01 1.028253669517139451e-01 1.021392999815037145e-01 1.425727954121362995e-01 -7.874343001836002498e-02 1.229753683221559979e-01 6.258321494111076522e-01 3.842728223527361875e-01 -1.174052597617954163e-02 -3.159096515577367731e-02 -1.730583681640379401e-01 -3.382271023300122970e-01 7.754207213109301500e-02 3.400392177166957491e-02 -5.130583582827494826e-01 -3.569273837822292683e-01 -3.557301491214792666e-02 1.605514358020717625e-01 1.137772431216503982e-01 3.339153764082260223e-02 -7.259703887064433703e-02 2.566525699904822003e-02 5.090235372391337110e-02 3.492536823121462908e-02 -6.925871706230701634e-03 7.004586099987345806e-03 5.791521215784799226e-02 6.513684514989705188e-02 1.528092664986835936e-01 4.554087430201426701e-01 3.365384993302048544e-01 -9.205019804195728461e-02 -5.615253149945294633e-03 2.873662682597252771e-01 3.933838929730832379e-01 -6.082472589547170683e-02 -2.952953614535567262e-01 -4.943965461904670788e-01 -6.682444261160771504e-01 -3.496089481524989884e-01 3.228252341919014834e-02 -2.508176478128918974e-01 -4.751110740641431573e-01 -1.060233074255423902e-01 -4.493735927236824912e-02 4.820280284202529963e-01 3.020060262723926470e-01 7.271203749405591443e-02 3.355620487745006320e-02 1.725497523409690731e-02 7.679984014414040217e-02 -2.190368350733165864e-03 1.381940457974236910e-02 4.439139318966436876e-02 4.619404056413436988e-03 2.651444951160912278e-01 2.505065731921820027e-01 5.817293813785977541e-01 1.090715511648724795e-01 -2.898764779953049153e-01 4.845981044349472605e-02 3.773030766344986353e-01 3.967168557842689069e-01 -1.728080617748340153e-01 -1.777431472674940172e-01 -6.582892846168737488e-01 -4.227252877023287003e-01 -3.124398279198972728e-01 -7.626980588672591099e-02 -1.932731216846449440e-01 -2.194349482796804918e-01 3.852135252109278873e-02 -3.469026163630498649e-01 3.263701588026644562e-01 2.795568117745283465e-01 8.588480034188878190e-03 2.877513115481282122e-02 3.494766722693350147e-02 -2.875531213875027244e-03 -5.501941323002214161e-03 3.330313212904478792e-02 -6.808754471312167440e-03 5.577130299950480707e-02 2.527054339014473960e-01 3.198242876267159418e-01 3.591686513461943009e-01 -1.553695367288445428e-01 -4.732369603467740382e-01 -1.916678078006517905e-01 5.805749811010421091e-01 3.074229111363250833e-01 -9.767800589369456110e-02 -9.478078182429008902e-02 1.512449445832732969e-02 -2.500677294446644883e-01 -4.066381698701863195e-02 2.659100796097609298e-01 2.205466215017818643e-01 1.427100234774189916e-02 5.759582585743895644e-02 -5.227946196215735863e-01 9.154937572783072852e-02 1.065143953173546959e-01 -2.033333815265274749e-02 1.233177983389903073e-02 2.932278812832522438e-02 1.136035772119693144e-01 -2.950631100874535288e-03 -2.414561231690350376e-02 7.875812276741217532e-02 3.399129494300026557e-03 1.430122846364839662e-01 2.676914638248288347e-01 3.256500949159875091e-01 -2.128833294475632187e-01 -2.841676319701888498e-01 -1.093257444815366880e-01 2.754732477505379973e-01 2.448703938600623187e-01 5.438667381502522158e-01 5.562628673496563536e-01 3.619792679379081890e-01 -2.417384121864163127e-01 -1.931068219650972917e-01 1.664795255292395304e-01 1.857366058613197091e-01 2.939716918022372560e-01 1.007783415133227251e-01 -8.662225000815142184e-02 -1.370821024470658955e-01 5.284085717626877537e-02 -5.249925411483039039e-02 6.951186377142865025e-02 1.908553293783331328e-02 1.959807286875867027e-02 6.425650876669034006e-02 -1.795449846500308741e-02 1.573705373458216331e-02 -1.217306237768785268e-04 4.955287673810847976e-02 7.011215841785377323e-02 4.825729466230768705e-02 -3.240166102561726769e-01 -1.666280440414797670e-01 -1.633089634976300601e-03 2.190347206380309775e-01 -1.741570295847868488e-01 1.982703616323528151e-01 5.116430141763429473e-01 -1.578824865544680711e-01 -5.162574648513565956e-01 -7.772139860298472869e-02 1.684725390378651877e-01 2.093640209532179886e-01 6.690769292406485713e-02 4.630068197253263684e-01 3.119050292772156951e-01 -6.381858347811787679e-02 -1.301819564809415797e-01 6.974177329240066441e-03 6.733945804962069952e-03 4.855000938061337923e-02 2.572667898746114692e-02 4.010397204153877404e-02 -9.481852548941467618e-03 1.501227682046347642e-02 1.124013339404873746e-02 7.946343280404008502e-02 1.871186811233635783e-01 -4.201300345139921677e-02 -3.522272873845154195e-01 -1.453801495740962013e-01 -6.823085120447197616e-02 -7.300357750346940511e-02 -1.178212634360818190e-01 2.286843138112546747e-01 1.181009177708381708e-01 -1.331568812895098930e-01 -7.713298877154261060e-03 1.146097897393369008e-01 1.232733422462668899e-01 -2.548752447167624766e-02 -2.906193606570440791e-01 7.285190201332208959e-02 5.584819618366517746e-01 -1.682015456297648592e-01 -2.200867545273167414e-01 3.411021030891588091e-02 4.082123134427098621e-02 7.321827292893171892e-03 6.536839233336305677e-02 3.295406607640383179e-02 3.159366854343208936e-02 -5.742403409968191430e-02 2.130141204357205095e-02 1.953756297051683355e-01 4.114381688730709974e-01 1.544853724553948114e-02 -2.222926088280591794e-01 7.574882081686171165e-02 -1.645196528228282662e-01 -2.144217659644754581e-01 -5.473121919686303044e-02 1.036989722272219916e-01 1.421874321753082426e-01 4.368190725651125428e-01 2.061687766541169531e-01 -9.904660101367998223e-03 -1.080463327152942909e-01 -1.996014682285926489e-01 -2.177172707604537183e-01 -1.955225887840958132e-01 8.028115223098312991e-02 -4.749371961754671190e-02 -2.991292942937222032e-01 7.674896146573326021e-03 4.341855148263084468e-03 -2.831329225592248144e-02 4.483428550895567077e-02 -5.151242561153010491e-02 4.208379041509856255e-02 -5.232103015473019147e-02 -2.113827502387157983e-02 2.936260266445626654e-01 3.910557167821019364e-01 9.830231823780800557e-03 -1.989387219451334843e-01 9.535396327997458510e-02 6.438137559833384538e-02 -1.856819560643162559e-01 -1.484964984019822576e-01 2.339741045833910738e-01 5.426233323443840906e-01 4.186304983957115922e-01 -1.007661663957138722e-02 -2.025970525002707689e-01 -9.387508636227516468e-02 -1.310265434749835756e-01 -1.773891095987697175e-01 -4.298706925012617530e-01 9.896023526711307527e-02 -3.676542912096371629e-01 -2.772092373385706132e-01 1.066971579440682133e-02 5.433071192138194672e-02 3.371081819910860811e-02 -4.883105437769261377e-03 -1.154261298190943294e-02 -2.103524140584301858e-02 2.174248759714699289e-02 6.700725652749559003e-02 3.701863596115684274e-01 2.808962052595719294e-01 -3.075712694584054052e-02 -1.131997893982988751e-01 1.862711582867749849e-01 -2.239977746148081594e-01 -5.251677844669989659e-01 -2.346283474978808625e-01 2.073177798014713968e-01 4.195756600422922422e-01 3.115389940320317796e-01 -7.173356499947423914e-02 -3.982823725004639437e-01 -2.879204664840998573e-01 -3.391544959344358623e-01 -1.635304172310254531e-02 1.367267866993100711e-01 2.778871342591609506e-01 -2.374476844923011920e-01 -1.540182957000648355e-02 1.079316621724526679e-02 2.152989846931854453e-02 1.938739860280789748e-02 -2.925303476531474281e-02 -3.458673564138872725e-02 -3.970811926212726439e-02 3.131437960694968131e-02 -1.123510956211563536e-02 2.722618947193741756e-01 -8.021323949229043626e-02 4.453060559930803464e-02 -5.068775858971058534e-02 3.524268090266545195e-01 -1.818933311521520602e-01 -1.319908668246154715e-01 -6.474475271279733768e-02 4.071643965875990090e-01 8.364367858362495856e-01 4.739838190036910759e-01 1.523261656002624920e-01 -6.252161136688108752e-03 3.293275499630010563e-03 -3.966907865762161478e-01 6.134754258770633989e-02 4.022000325505518670e-01 3.892245555900679665e-01 3.378889668701513527e-01 9.373830100694052758e-02 -1.401410223928355875e-02 3.371812450623508373e-02 3.969645039768140982e-02 5.885373932940898313e-03 2.640230363376890130e-03 5.273505667659747487e-02 -5.625669784501183268e-02 7.153394742596230760e-02 8.106095119493694767e-02 -3.334718725861158806e-01 -7.530931071983062997e-02 3.467643696782163332e-01 3.200393169830416107e-01 -2.170049057736671283e-01 -1.517033297365754096e-01 -1.724616003423055099e-01 1.687831359310728307e-01 1.482887590551781043e-01 -1.773198242124698343e-01 -1.261653983616485564e-01 1.710870125868106939e-01 5.071249411093924769e-02 -4.108385565136355999e-01 -3.582037517362879897e-01 -3.505225408261277570e-02 2.351803323248990718e-01 3.868313722294863810e-01 -2.137701728187767491e-01 3.738078120330622089e-02 5.061150197067768031e-02 9.933538262830669124e-03 4.638205280077202508e-02 -3.072098316104044085e-03 -5.159544255496562558e-03 4.328495188418800266e-02 -2.081979203867867154e-02 -1.479936137179315991e-01 -4.427961861705045910e-01 -1.132898726176198995e-01 4.174154376379750619e-01 3.594678669113804959e-01 4.055366897530820330e-02 1.274168473431222526e-01 -9.635372219559899809e-02 6.240708857964318707e-02 1.486892410678090568e-02 1.253246072040427039e-01 -3.631970065711137563e-02 2.569379027316196495e-01 1.808314018660663602e-01 -2.853764851472382347e-01 -4.006791236610960927e-01 3.939304671640874583e-02 -8.122530432799679456e-02 -1.279186771449956905e-01 -1.716355336375537943e-01 1.519568442297193969e-02 1.491216137605689412e-02 5.165453076167343671e-02 -2.735038257608152570e-02 2.329204260925009026e-02 -4.376062782637107906e-02 9.974519500083828261e-02 1.595093541774712451e-02 -1.490705024657690836e-01 -1.025197906667099229e-01 -3.889544763963782154e-02 2.343939991273972512e-01 3.356513145723148406e-01 5.871566699709972470e-01 -2.540744396112172912e-02 2.004676627756839941e-02 1.883289978130165132e-01 7.188976907127177240e-02 3.224193397751330681e-02 -5.268242625452396188e-01 -1.357619716073003302e-01 -1.750642966904394082e-01 -2.538379034033207970e-01 -2.863815575980644401e-01 6.519562590861004148e-02 -1.867512767102670057e-01 -2.352111942120422017e-01 -7.486092994516470311e-02 5.035161785630158648e-02 6.693833614123653741e-02 1.970507315694019698e-02 -6.573913759605931779e-03 7.774221497244010286e-03 6.250369780150957788e-02 1.098804309735065604e-03 2.831425946579880278e-03 -2.714822861304295176e-01 1.227937078073718380e-01 3.614756151501248571e-02 -1.470949584573250646e-01 -1.113340706682683645e-01 4.567186604234192426e-01 1.001485996058121830e-01 3.654362634660337505e-01 5.710521834355458681e-02 -1.483110788687665993e-01 -2.418283770529005561e-01 -5.055876335931184240e-01 -5.917444473957096385e-01 -2.934310518970452142e-01 -2.828865414516240628e-01 -2.498776805666473033e-01 1.825761770385556371e-01 -1.055111486824748257e-01 -5.067230830914109391e-02 6.665936682884074371e-02 -9.202952953670690299e-04 2.605014265442306617e-02 4.744637486967649698e-02 6.345449958884305519e-02 -4.615425119566689272e-02 7.089464746330991114e-03 1.889326151395736425e-02 -1.237514198025622264e-02 -2.378016457034884956e-01 3.037130019671493986e-02 1.712782276350133803e-01 1.699487480792713501e-01 4.140174636706885902e-01 4.018952381374623073e-01 5.589106470858435927e-01 3.754692618782849989e-01 1.442713288539476321e-02 -3.635842041675127478e-01 -4.658354597790388407e-01 -3.899925541298286946e-01 -1.919927965911147894e-01 -3.336004725049740438e-01 -2.689363752174903088e-01 1.137012194307258223e-01 -1.208417621797726743e-01 -3.890066968541426307e-01 1.658277948465148310e-01 3.562280723857785825e-01 4.179988050696419044e-02 -2.823110076886386783e-03 4.049519837973761249e-02 2.413834096684356820e-02 -2.507655286835036319e-03 -3.391688170160932214e-02 1.095325901948410174e-02 5.768322413120992309e-02 -1.527714349819833846e-02 3.649616555055302802e-01 2.838388724072427038e-01 2.242131814786030644e-02 1.379933798983717930e-01 3.416316016754350482e-01 3.712537574110186811e-01 3.319940783143509599e-01 1.183448162991646430e-01 -4.036994859736705438e-02 7.232296519182199179e-02 4.199988070646439031e-02 -5.415932372483350798e-02 -3.311801806159960226e-01 1.100295494141139141e-01 3.367471911318934419e-01 -2.542639393228504630e-01 -2.663498874522476911e-01 1.574830097037068499e-01 3.038010501054684287e-01 4.601031355309737059e-02 3.519484908503281440e-02 7.890666751327062370e-03 2.144097578593529355e-02 -2.540480017519717790e-02 -9.478899166195466075e-03 5.956720574001019008e-02 5.909608643274998074e-02 3.261118222962494095e-01 2.721118563006744706e-01 1.617146662008712155e-01 2.016142895949205732e-02 4.624178705311434573e-02 1.623739992999232995e-01 3.286381369612415559e-01 3.365736046899652778e-01 3.426408845848171736e-01 3.765632736580548645e-01 3.841079006318833255e-01 3.299516080651567623e-03 -2.156871680172230965e-01 -8.705285714918416240e-02 -3.848282251507648133e-02 1.024933321291779109e-01 -3.123387481661128451e-01 -5.046143397985877188e-01 -1.056642398984465603e-01 1.860289195442519361e-01 -8.746736682614962349e-04 -2.927986423592023740e-02 -6.050508308274735181e-02 3.442901394247124824e-02 1.775170297884678949e-02 5.994274509542452112e-02 6.337807509626551018e-03 -1.880750576046550174e-02 2.980913020034997030e-01 4.564550658281623652e-01 1.283756269298148012e-01 -2.300059889649257172e-01 -9.678505359081368553e-02 1.528048914746945111e-02 2.638795529659954675e-01 5.945841918607722154e-02 1.422782668063731631e-02 -4.022239349490751986e-02 7.518064987113913522e-02 2.772715496089053211e-01 1.964466816838902619e-01 2.698435284984248006e-01 9.404273589108566589e-02 -7.244352102464633736e-02 -1.362158262123134567e-01 -2.943622758529614858e-01 -8.873107932629137329e-02 9.668109651603945531e-02 3.386059981434243193e-02 2.860902441632482904e-02 7.399562607285858906e-02 -1.681932147683306775e-02 1.579495938663526972e-02 1.081915467816912599e-02 3.297043395498487628e-02 2.888073542865708318e-02 3.912341213436516807e-02 3.215982067258275900e-02 8.856227299094826533e-02 3.976363904509133684e-02 -1.199562678133661922e-02 2.551380130193262388e-02 1.123565766299598756e-02 -3.467900441387488080e-03 3.066690264632512472e-02 3.525728582751916362e-02 -7.883381340115978853e-03 8.057937128926445647e-02 -2.496133658220307458e-02 3.183863344443570165e-02 -1.930770925326174767e-02 3.389908292907348186e-02 2.236121525257060358e-02 1.045399712842018380e-01 1.446734053557715421e-02 3.525451698566083644e-03 -4.213812027777866231e-02 1.860098632277742969e-02 3.138030352171097825e-02 -3.107613138795359709e-03 -1.255064741089275543e-02 5.065449969531192476e-02 2.204626804760684636e-02 4.963620672571583681e-02 4.371006239539979021e-02 -4.142655998487196345e-02 8.640659090914886917e-03 3.427317882807152938e-02 8.924305562444523332e-02 -6.329347215044525687e-02 3.287073520885670785e-02 2.290253176657027021e-03 -1.313776321170233297e-02 3.168477108589632524e-02 5.104795525784576460e-02 5.700667269463607911e-02 2.937164635976631868e-02 -8.232914502376738330e-03 -5.427850589414309757e-02 -1.217375596538125895e-02 1.180752822282802109e-02 6.070970499568083267e-02 2.006274768213950691e-02 3.342152638922750441e-02 -1.743381235529241000e-02 1.051798839549049477e-03 1.233366625470053504e-02 3.798772305893780097e-03 -2.151529752839448709e-02 -2.059033394658743230e-02 7.514625078615774778e-02 2.819070539201741846e-02 -7.267352445670688388e-02 -2.151860175048534232e-02 -1.881196503102359682e-02 2.189847366366491979e-02 1.695165269171622011e-02 1.825151482504785158e-03 -1.574481202828319562e-02 2.793569933192685886e-02 -4.143864535945679384e-02 2.741275294981829549e-02 7.706260868641887085e-02 -1.772732293272718737e-02 5.660121965720558979e-02 2.070159984744532680e-03 -1.725872808687619123e-02 1.768013930484664932e-03 1.874329229749435938e-03 6.492319888824089717e-03 -1.301501781802827037e-02 -2.728556051937224003e-02 1.859091534564263556e-02 -5.265512291478340566e-03 1.982959076035775356e-02 3.664973428686442436e-02 7.528420902919529152e-03 1.855836651507677959e-02 -7.380312131285107118e-04 3.970773624011625369e-02 -4.396770507994351984e-02 3.125056018241108985e-02 6.855472691398609153e-02 2.636838477779164872e-02 1.009955074244753004e-01 -5.505067651254375027e-02 -2.244330054837808883e-02 -6.883349091342977864e-03 2.455874008724626481e-02 -2.549738170153435443e-02 4.379553525016890991e-02 5.773151363432264815e-02 -6.307293290344653802e-02 -1.390797620379533592e-03 6.020564015446322470e-02 5.681931378628120310e-02 9.364426777594796192e-03 3.145972042816907923e-03 5.309401777295716385e-02 3.891862820204056161e-02 3.046302089440194524e-02 7.268031685563094979e-02 -4.573537760265863894e-02 1.794113891073478850e-02
-5.333144307062760367e-03 -3.208746219274592054e-02 -4.965255307042914373e-02 -1.074985992191517491e-02 -4.536255229329873989e-02 1.153986206261528764e-02 -2.004108691185868193e-02 -4.579928120090490801e-02 -2.782385116332726505e-03 1.307658406823961582e-02 -4.374757373013462430e-02 -2.799075793503281659e-02 8.312351584510801680e-03 -2.773095320387350057e-02 -2.910707709193965584e-02 7.030641150965795394e-02 -2.588514767192181751e-02 3.449348794302337790e-02 -4.886282115082932588e-04 8.444006773755398376e-02 2.169173354597837486e-02 1.245749379152202027e-03 -7.669169589336531645e-02 3.556999639613730307e-02 4.249973326963264048e-02 -4.980257243458045477e-03 1.362585136180093602e-02 -1.266743387699021707e-02 -8.800076999093802907e-03 -2.646783573353732669e-02 2.669649311822675994e-02 -4.127445876150737797e-02 8.405748613495645991e-03 -5.239033305312165018e-02 1.127233507528700544e-02 -2.176538416584959321e-02 3.152629558442401198e-02 -9.919872704962110974e-03 -4.192416438402630369e-02 -4.782852057354481518e-02 3.812626366133369665e-02 3.805369230669249786e-02 6.376804694054863387e-02 3.565659552324126208e-02 9.160934614147608554e-03 -2.487932845936964218e-02 -3.713055700248941299e-02 -2.421826658958054282e-02 -1.445904152909117078e-02 -3.957013682465629692e-03 1.731838653054541474e-02 5.337933140467968768e-02 -2.805222427608157140e-02 -7.181834050279715942e-03 2.120769964660045373e-02 -7.875000319831158835e-02 -3.270425180614849187e-02 -5.907382798731673768e-03 -2.412790815062864844e-02 1.014087000018043701e-02 3.773160300064471590e-02 5.076241333862369781e-02 -2.830383201130396223e-02 2.032341560759319890e-02 -6.315151813333239050e-03 -1.169249391285668259e-02 -5.190375303082447184e-02 3.933987911612599891e-02 5.412369472203514345e-03 -7.081022448944065267e-03 -6.848362135929415839e-02 1.323625464121868907e-03 7.120762350216568171e-02 9.474523764850079424e-03 -4.754103451531522390e-02 -2.016890693847610619e-02 -1.494845483088018574e-02 -9.401464987336552795e-03 -1.522547011615287514e-02 -2.722661570389189531e-02 1.997159469219907460e-02 -6.335571864770040210e-03 1.437269209847909799e-03 1.304166058886696740e-02 2.080319406233377064e-02 3.664171933466251613e-02 -7.963739845086035066e-03 -1.659317635139506350e-02 -3.133444929156937314e-02 5.813640703571588053e-04 -3.965639101463900446e-02 -2.988025699614968098e-02 2.632519125467725971e-02 -1.116379494411288108e-02 -9.240405019550564439e-03 4.841697309101103820e-04 -2.445326494841814843e-02 -7.892742643448776366e-03 -1.682944135671332955e-02 -8.694559830063583765e-04 -5.883230417744369362e-02 1.182324592194481695e-02 -6.358171220795067261e-03 -4.453975616150516320e-02 6.924600747109331544e-02 3.935538449974389924e-02 -2.020201235876150844e-02 1.236008229922767182e-01 -3.404816842375172486e-02 -1.136404606109098388e-02 1.886219987182475091e-02 4.759113715820676577e-02 -5.215946725116290747e-03 -2.264971219373347958e-02 -5.538085509374263832e-02 -2.386215188665417181e-03 1.044567213259858518e-01 7.699015564172342896e-02 2.083610062480189054e-02 -5.354947408413647525e-02 -1.208732773741110628e-01 6.874517602576032949e-02 2.959541947728041023e-01 2.700447018377603592e-01 1.932968261271477417e-01 2.308122842939191732e-01 2.449447418763371076e-01 1.288127020019058100e-01 1.653268208728729816e-01 1.572582837233452713e-01 2.283202396244018717e-01 3.463294336032194526e-02 -7.933973355614501455e-02 -1.984300993588534665e-02 6.333508793144237980e-02 -4.101021058942835472e-04 -1.113211756172161927e-02 1.111107441338668976e-02 -7.939674488464724912e-04 3.048355963042017822e-02 -1.004766342315894893e-02 8.422768376080379260e-02 2.719669869330002335e-02 1.745383821516093351e-02 1.370455527690310760e-01 3.030225592118483413e-01 6.472384106691909944e-02 5.784725064233797037e-02 1.333030705016047535e-01 2.401658633724273739e-01 2.377046866173128381e-01 5.341169006070101144e-01 3.612730525242230928e-01 1.156857958227853894e-01 2.763812216350128859e-01 2.829290272048542443e-01 2.973988586037286108e-01 2.650092027911947201e-01 3.489891001379467617e-01 3.226221370691264023e-01 1.934606458853415090e-01 3.359354560324370187e-01 1.539791637771464328e-01 6.620089748380886263e-02 9.472514239346039103e-03 3.560485606729891367e-02 -1.536133398619263062e-02 -6.609176945767351180e-03 4.934608474717234322e-02 -1.855623314369416951e-02 1.591291285870436931e-02 1.143952920057671359e-02 5.054581656112686755e-02 2.735194599002102045e-01 2.169266956194519369e-01 7.663945073661142249e-02 7.337714350217496018e-02 9.519553073912417895e-02 1.167044115974667368e-01 2.496015339457242632e-01 1.024528742339606696e-01 1.176644167064556240e-01 8.924947301015927204e-02 3.507505751664044547e-01 3.734027819524217140e-01 1.038316662941676655e-01 3.392893994394841073e-01 2.748088279162094194e-01 2.336980839919497732e-01 3.015644279867631949e-01 -1.948587932643798537e-02 -8.051667269318103781e-02 6.162912950276040053e-02 -1.090279310187375859e-02 -3.237198177411731298e-02 -1.216136847936526676e-02 -9.055432119495639490e-03 -2.289348716937310638e-02 1.856657149985993863e-02 2.514758473439240513e-02 2.359206826239196655e-02 2.004186937653300027e-01 3.986593499900022430e-01 2.249153591102220906e-01 1.081322156738497298e-01 1.616835591726559773e-01 2.460342540431799119e-01 1.086763514143570808e-01 2.283582669102574361e-02 -1.954490010198755776e-02 -4.072357694672386341e-02 -6.227395552206257262e-02 1.334341132977312772e-01 2.406023376766127375e-01 3.261886903435052276e-01 6.945777410209399982e-02 2.939186070502205345e-02 -7.746537849267699782e-02 -9.076948264411133227e-02 -5.265463575792414357e-03 6.463109664937530252e-02 7.211924784344643513e-02 -6.140219206190308462e-03 3.558301456093342779e-02 -4.869351512120986131e-02 -3.421943045214807105e-02 -5.133360723439175238e-02 -6.794624010495674271e-02 -1.080574735428993169e-02 7.302403305822413593e-02 3.993352308137823603e-01 1.670796212474242037e-01 2.135587519070476781e-01 2.471550349864017615e-01 1.248128907919321129e-01 7.388710845666204841e-02 1.434396927536133459e-01 1.890855528673472119e-01 -1.297940593521709485e-01 -1.107235139579253180e-01 1.516438930438950006e-02 1.120291765447270632e-01 2.193647750011446518e-01 -1.282189011319631866e-01 -1.388749785518321976e-02 -4.035908362948645474e-03 2.071541326585436271e-01 1.947957774821488797e-01 1.110570396436119829e-02 3.503621977078588343e-03 1.436357350910968424e-02 -2.153742616855161898e-02 2.114272836961292659e-02 -8.980670813530327798e-03 1.632004894790666091e-03 -3.277927382715637578e-02 1.250346551738641954e-01 2.198132112545617411e-01 2.223696328380787013e-01 1.562475663160257100e-01 2.340432010060844725e-01 8.219224137317861223e-02 -4.512934412656131877e-02 9.718389127993062870e-02 2.657062832680375242e-01 7.352884474844717522e-02 1.253104401510320674e-02 2.078861289163583814e-01 1.708913750824732902e-01 6.748503971763405995e-02 -7.627824474477960803e-02 -3.253552576059257628e-01 1.284336213675676616e-02 1.233996294044077124e-01 3.652859386153127219e-01 4.264301359480211079e-02 7.094016781056096399e-02 -4.241768671617494294e-05 -4.150810608372112326e-02 5.069171352304292083e-02 7.082422747716100864e-02 6.457977749595741890e-02 1.724749144111007229e-02 -2.817868795812308522e-02 2.698611876990123642e-02 1.012178674385452448e-01 2.691991731705764002e-01 1.159603799322730666e-01 1.737437810165805008e-01 -2.979026538765562962e-02 -6.265222425661119698e-02 9.295641141909624650e-02 -4.311184670609283232e-02 -8.167608147223022474e-02 7.751631599567654352e-02 2.925588046683106902e-01 2.981265281713275095e-01 -6.863035237784813336e-02 -2.825216451056795086e-01 -2.221123567930485820e-01 2.702393026740975146e-01 1.087916797572761746e-01 1.933561111976014046e-01 8.546727001125947049e-03 7.112538207333761464e-02 4.231484560882770724e-02 -2.105407495669051054e-03 -5.990383329544919297e-03 4.440781892824021554e-02 7.446101934660527555e-02 -1.073379153843616839e-02 -2.132316405633475839e-02 7.078975208662285912e-02 4.784893023723396643e-02 1.396947368792080257e-01 -5.934384404759671106e-02 6.743033319088816147e-02 -1.391187583292304852e-01 -2.309914269907965834e-02 -1.901929195357087710e-01 -4.473306025843225009e-01 -1.426752574685788422e-01 1.266446855977512373e-02 1.000146908353485298e-01 1.208401330010395042e-01 -3.812433092999728546e-01 -2.934490068812014019e-01 -2.228888267257942146e-01 1.193510064719489590e-03 -1.999097112103091420e-02 4.098918880004946697e-02 -2.616342712122569913e-02 -1.168998567938170537e-02 -1.899081221520251481e-02 2.464948884397372489e-02 -4.574552817532542143e-02 -2.352458418420372115e-03 1.113480289005737249e-02 -4.187535925213860949e-02 1.936149827265639875e-02 -2.706782190454570108e-02 1.314425160969521778e-01 8.518023148005109471e-03 -6.401930669141357721e-02 8.278150345983843750e-02 -1.297073883866381172e-01 -9.228678784303362415e-02 -3.416430464133403122e-01 -2.808207002131773988e-01 6.954905685907486999e-03 3.043286885344662629e-01 7.024119755511089302e-02 -8.428045433322965685e-02 -2.908443909585020637e-01 -3.771059446306967433e-01 -2.956374530133861755e-01 -3.547591890097044898e-01 -1.733876120943575461e-01 -2.180749058253863559e-01 -9.834594982272485894e-03 5.467350814942650850e-03 1.035974701710960962e-02 2.226025731356985897e-04 5.804592533934204920e-03 -4.680365273857477887e-02 2.122375526713371138e-02 -2.564669952828410940e-02 -4.511437399499410722e-02 -6.837646865627532156e-02 1.254680321938384802e-01 6.835882500648442217e-02 2.523323862089070502e-02 -1.277977600225728982e-01 -5.640674250445400217e-02 -6.753733552365881465e-02 -1.527168052239183116e-01 -5.156230955825980705e-02 1.012277102754094021e-01 -4.468575742457987082e-02 -1.612733825430368306e-01 -3.184502760706633406e-01 -4.592818846970156965e-01 -5.052207487595412605e-01 -3.716912713254932887e-01 -5.525731417383127342e-01 -4.419947181539041758e-01 -2.745157688507001703e-01 -4.142980568859474383e-02 -1.001769349066988259e-02 2.527960087683167947e-02 3.199035249336387027e-02 -4.444367593141197031e-03 -8.879028598956608884e-03 -8.380460331919524497e-02 -2.240611884589784226e-03 -2.858135515832041854e-02 -1.544420064429535399e-03 5.990060739438374249e-02 1.542311177374534881e-01 1.963572455563244654e-02 -3.623095639813906504e-02 -1.172826891278855449e-01 -2.149808972466535351e-01 -5.575306830429284377e-02 1.202203796585302464e-01 -8.437617216645254548e-02 -1.272202408094343928e-01 -1.002008389440926656e-01 -3.471144802433070997e-01 -5.257097459050483756e-01 -4.563441108935406554e-01 -2.275755870072337927e-01 -5.560698595954572943e-01 -3.253815402227673292e-01 -1.596810483465067321e-01 2.593467700249685662e-02 4.181917116252310135e-03 -3.518308705593924807e-02 -8.065243659518157859e-02 -1.663418425651116191e-04 -2.074628937758953365e-02 7.800798048687085026e-03 6.908244363079786565e-02 6.820740296155368421e-02 6.882506246439508424e-02 3.682403612260944786e-02 1.272872013233155020e-01 -1.102424940833527239e-01 -1.453476207253503738e-01 8.006537924675842521e-02 -2.305574483458819324e-02 -5.309530212169569913e-02 1.519766973941845678e-01 -3.501401937556447574e-02 -7.147868695786249726e-03 -7.618572052836027064e-02 -5.071239359112550416e-01 -4.788984857178785193e-01 -2.675941910037774041e-01 -1.248815665504765665e-01 -4.848775288083471136e-01 -3.276492771649909819e-01 -1.153302010086523083e-01 -1.718573732377124408e-01 -1.296109687005431339e-02 4.443103368347139231e-02 -3.325318870909054619e-02 -2.396515378874039884e-02 -1.639391062508621351e-03 -3.187399700676090547e-02 -3.101978969540944084e-02 -2.111560946095234273e-02 1.245653525382140192e-01 6.631260362756283278e-03 1.290753005878527149e-01 -2.150198950575764878e-01 -2.722492057601021975e-01 -4.318431231612235299e-02 1.121133155762213673e-01 1.836639924430824022e-01 -5.572037801780353738e-02 -3.175191816494994934e-01 -3.879920841482896177e-01 -3.849368235600004740e-01 -4.352318904182184700e-01 -4.367680286571106185e-01 -2.682930503318236015e-01 -2.059113078911914696e-01 -4.345591480857644018e-01 -3.300696713739940669e-01 -1.051999918244978793e-01 -1.962783103313117394e-01 3.205805330221839916e-02 3.985027599827662553e-02 1.659447710488078445e-02 -9.768587761285899354e-03 3.719484875048819500e-02 -4.370432720468133553e-02 -1.204019289335935515e-02 2.195733379760424556e-02 1.497686597977861411e-01 2.273126467405338913e-01 1.162469706318466633e-01 -1.421140165246941311e-01 -1.692587258528650482e-02 -2.421462323850054072e-03 1.899235995337057448e-01 1.978707186044589283e-01 9.323736028537198128e-02 -3.525232569118296605e-02 -1.687497784880588880e-01 -5.435362136643592801e-02 -5.673333083224888634e-02 -3.453268098132467601e-01 -1.185830695998281170e-01 -1.716058718624716151e-02 -9.659906992095068645e-02 -2.692789214407626530e-01 -1.461064871974686041e-01 -1.646923771315989826e-01 3.345712162654657790e-02 -3.944481542510978531e-03 2.352258336165289829e-02 -8.059698027275024809e-03 -2.137466618407612637e-02 3.942076375490210366e-02 -1.586842897917766296e-02 -1.776827339114218571e-02 1.919626820560119962e-01 2.719944692369059558e-01 1.991029230106469983e-01 1.461341941808288469e-01 2.162981444400229325e-01 2.699729107113245652e-01 2.923189443039518332e-01 1.706245817282514288e-01 3.510028186884611157e-01 3.418754502108861670e-01 2.892026521670548744e-01 3.231423872341896431e-01 2.523874424324263344e-01 -1.289554630549696879e-01 -1.376496491319377791e-01 -1.820950127745585290e-01 -3.473017875040482205e-02 -2.115060865102648680e-01 -1.693665214923761042e-01 -2.480829282425828924e-02 -6.506899237706300840e-03 4.178638312434333063e-02 -1.959346880795667309e-02 4.151172894489652682e-02 -2.002475545239518553e-02 5.694426623041131535e-02 -2.040933815892000472e-02 2.487814174035695228e-02 1.132875428234463022e-01 1.787839136539952078e-01 1.499125684093453870e-01 4.835083635669978203e-02 3.332175279759391207e-01 3.660906006140485225e-01 1.383186086501512757e-01 2.099701599786935879e-01 3.902654008549177322e-01 3.286615693821190454e-01 4.667359851588095965e-01 3.172490374066791463e-01 2.851607624691843701e-01 -5.243389028252068429e-02 -5.074973034143367978e-02 -4.380132561264123842e-02 1.616229759455786452e-01 3.201661306790145461e-02 -1.247989219380748749e-01 1.400789713925269277e-02 -2.914093043779339767e-02 1.826546647637055168e-02 -2.195578687033119050e-02 5.577818072005337469e-03 -2.716610881890520190e-03 -8.153072452080722607e-03 -3.404241687561449653e-02 1.352814914858619343e-02 -6.521849020790494722e-02 -5.501943354244469980e-02 -4.969093288838374173e-02 5.503168940095513190e-02 4.122925285200123580e-01 2.954382167047364116e-01 1.810251964509450584e-01 1.914945089517603172e-01 2.509046581950801769e-01 3.753575408550360315e-01 4.039246388861494341e-01 1.603721102358219852e-01 -9.695436039694889374e-02 6.902944998283515321e-02 1.279680048575984330e-01 1.356618514282716403e-01 1.322809607417249345e-01 -5.435255328991091955e-02 -2.890623717940394299e-01 -2.720214787734509532e-01 5.796207193220887649e-02 6.801357102592577031e-02 5.792183880122337564e-02 -1.344000106756989936e-02 5.011011865006078508e-02 1.962138865118915124e-02 5.822403725595578367e-02 -1.855335429777963058e-03 -9.279008453738259166e-02 -3.717314664588055456e-02 -2.649251577441786853e-01 -4.996663710977750777e-02 2.331506569120294359e-01 3.250028745175607692e-01 2.670944545849820440e-01 1.912742884353425821e-01 3.102459649706589273e-01 3.501135756519700992e-01 3.528999562370622733e-01 1.693004516048866870e-01 -8.350012475653803556e-02 1.397177691476503558e-01 2.532739841958236426e-01 1.960552365666140551e-01 5.450983488799456683e-02 -2.290898311696260709e-02 -1.418189290847735595e-01 -1.753343985415619088e-01 3.552144485913543044e-03 5.993258393122106314e-02 5.015526264114495564e-02 2.935059737960684853e-02 6.616467220670528560e-02 4.599620281952040285e-03 -4.981777707687785189e-02 3.284601388977662767e-02 -1.922433125964701428e-03 8.078337501333390791e-02 -2.437828426472347931e-01 -1.445820154240413380e-01 1.132740064925542023e-01 5.447868581553928502e-01 3.631311212227897878e-01 1.008192890903895078e-01 3.129079725497307396e-01 3.313320123931520755e-01 3.313517324033232736e-01 5.314593786361604399e-02 -1.134487362592386944e-01 3.760780664846453264e-02 2.103813282451450495e-01 1.053161593760599535e-01 3.417518518047685944e-02 1.101848932806706732e-01 3.259223376881700829e-02 -9.212242416097943254e-03 3.477017141789017635e-02 8.514109572981974974e-03 -5.608050066713457515e-03 -2.524686994711058605e-02 -5.093332448419300718e-03 -2.329062499250221692e-03 4.618545152038069229e-02 9.939188619125760918e-03 5.976430900389933382e-02 1.513108575732877437e-01 -1.629439468779087241e-01 -2.544578351572570618e-01 6.278701162505505307e-02 5.029710282576883573e-01 4.006910994394135561e-01 3.275172448864277497e-01 3.294932525228201348e-01 2.706006320505676688e-01 1.796998216885956068e-01 7.323276584242226217e-02 -3.798142275160330122e-02 1.978041356612628698e-01 1.741410797951021272e-01 -9.731244670874683936e-03 7.077935558325290644e-02 2.126983047794173132e-01 1.436424479213509742e-01 6.244922465725185820e-03 7.235563506162492322e-04 4.302708681634050819e-02 5.652366043649190847e-03 5.640228006548635500e-03 -4.119784810395833025e-02 1.406951853219039509e-03 5.491239024193530355e-02 -1.018295427980537259e-02 8.819667085203259163e-03 -3.493692634221631094e-02 -5.273087755400866728e-04 -3.281727637967781050e-04 1.218225365665169015e-02 3.031667157499516943e-02 4.609050522578669179e-02 3.015073372409523070e-02 2.403046061946388992e-02 4.173915773773926446e-02 2.458004262072410392e-02 -2.725217940711044048e-02 6.823026752704797193e-03 3.914647797172613776e-03 -2.779048775585994842e-03 4.356075684309575896e-02 3.058501029985858169e-02 1.379515614261865412e-02 5.513854554001054037e-02 2.684487556612685441e-02 4.447524342708828599e-02 -3.419557960341111473e-03 -2.424211088566893477e-02 1.311380350164940457e-02 -4.941817956297153702e-03 8.050013699652299598e-03 8.323320510208577494e-02 1.072051240129982645e-02 6.970905666399633549e-02 6.036228067071214981e-02 2.285955014190592036e-02 6.429143042411816777e-02 7.328405839595224583e-03 1.890035598714187234e-02 -8.769413607902848060e-03 4.319738841347273844e-02 -2.285856892466952769e-02 -4.749497845983837591e-02 4.045054491244664402e-02 2.220514217033839680e-02 -6.298797621551494486e-05 8.035605744850727455e-03 3.064672573278321571e-03 5.797939032779143159e-02 1.638943067753306435e-02 -1.288414881393645274e-02 2.134537584430395638e-02 -4.873546467883766581e-02 7.199040588053227940e-02 -1.427652306019612689e-02 -1.724809932107164087e-02 4.134293908781744992e-02 3.791146009400008648e-02 2.157393887223281806e-02 -5.048816977282926527e-02 6.041440555821336184e-02 3.515444599252622732e-02 -6.163524506431018735e-03 6.392024542848505353e-02 7.300587294074580014e-02 5.897748472933222325e-02 -7.502739340096344078e-02 5.103529570306585689e-03 3.249640138431420661e-02 6.360456678704794198e-02 3.046619416400575195e-02 -2.290083021819295725e-02 -2.080306618642569286e-02 1.893114295508417991e-02 9.262074454631801304e-03 -9.683809949606434972e-03 -6.158345789670512105e-03 3.569410395030849642e-02 -3.795794508076511670e-02 4.164250498463852729e-02 1.722872175883588194e-02 2.924954421781400180e-02 -2.963977801997428989e-03 2.195292291469093729e-02 -7.591377883557416661e-02 3.086691038038690341e-02 2.395722605456127377e-02 3.881214185899151820e-02 -1.720368641444178573e-02 2.513766540140488503e-03 -4.724942515641458035e-02 -4.163250903502939415e-03 3.847661956328584515e-02 -1.132639417420532773e-03 8.386252446790399022e-04 2.764076161233572707e-02 -3.319076276092574468e-02 5.800090317225802677e-02 -2.585497160732419877e-02 -4.716890498268373061e-02 5.821571811997722917e-02 -2.755500398498534134e-02 -2.934958208037138569e-02 2.084755342292569274e-04 5.496125728538995420e-02 -1.622586245787264667e-02 -2.739820270111890770e-03 7.512779040451315893e-02 2.307381816814734268e-02 -1.478430405779938275e-03 -4.933924807735802845e-03 -1.066799979487415180e-02 2.291057782673488682e-02
-3.674488517217710387e-02 9.247768517294639376e-03 -5.662897652726588821e-02 2.213621470167406735e-02 2.972200576809001099e-02 7.939021451896757092e-03 4.278822036843542981e-02 3.101440797324604010e-02 1.425443450431927543e-02 -5.347241723038026126e-03 3.203885989744087448e-02 2.975842540541188269e-02 -2.395749655963187730e-02 -6.614848054331613769e-02 7.985641222509599901e-02 -1.971961875068244108e-02 -1.295801826172160963e-02 4.983046056997800927e-02 1.095866815315907870e-02 -8.576892290445232991e-02 -5.635412184527763095e-03 -1.911938045979465900e-02 2.679034471104337761e-02 -2.982844985810804636e-02 -2.759716726627738786e-02 -2.942419305397400708e-02 4.452964920990425818e-02 -6.053610018962650441e-02 4.825899899325491495e-03 6.543042219470929059e-03 2.467729495436923881e-02 3.119115032863783998e-02 6.798714540172802467e-02 -2.502361345607824472e-02 -2.291448498606240419e-02 -1.041808187702653954e-03 1.671532905984950829e-02 -2.258776402565769014e-03 -4.578319465246066464e-03 -2.724366842025954111e-02 -8.522626818458759260e-03 3.122457242790952631e-02 -2.857730911105555230e-02 -7.820724044599873526e-02 5.129627717150415239e-02 1.309485360984988071e-02 -7.112932609663828731e-02 -2.097973176322525529e-02 -4.742458949989051035e-04 -5.933874176418588511e-03 -3.053728824139301939e-02 -2.841355186445748346e-02 2.310986513429324346e-02 1.591276681278346386e-02 1.218370176381053903e-02 2.538463689216655800e-02 -1.590414488799690024e-02 5.461853157022055621e-02 -4.064829236658514672e-02 -4.215874647455940954e-02 6.414033822521400356e-03 -3.207650041449771477e-02 1.121713184707944476e-02 -1.284471024972381158e-02 -3.529694288349707193e-02 -7.333757910615752718e-02 -2.636906655216787049e-02 4.267417630438562898e-02 -4.640344298921516425e-02 -4.191508266028042690e-02 -3.438837424816495320e-02 1.055222814610979991e-02 -2.246299444826328068e-02 -4.666293580371521504e-02 -4.689832335088577747e-02 1.270775561167327740e-02 3.617366994011108564e-03 4.036843201284163324e-02 -3.272686850369369710e-02 -7.364290320504073006e-02 1.969571006747606462e-02 2.806088416851296868e-02 2.476845487477639246e-02 -1.245430451427883244e-02 3.324793748924847331e-02 3.520784245486743153e-02 -1.588499859351920340e-02 1.079670632781173402e-02 -1.085728915379074490e-02 7.997132295080393305e-02 8.021401058254306812e-03 7.519685231241025891e-02 8.320136083969090907e-03 -4.893072116584942094e-02 -2.335803382265851363e-03 6.183924440968050634e-02 -1.233369500269903933e-02 -1.410121523263750155e-02 2.727750930178000910e-02 -4.428182719796816894e-03 2.022311829063743599e-02 1.821316312432368772e-02 -3.021081044542732463e-02 1.394283292851472393e-02 2.133814454750033313e-02 2.006794623694985180e-02 -2.554705835159507194e-04 -2.958553435266765216e-02 6.710881444973629262e-03 -6.225319616842040979e-03 3.843393358931705001e-02 -2.806759314998654147e-03 -3.165204015748903504e-02 -1.225283561663532104e-02 -3.708806965703339426e-02 -3.806542190546342158e-02 2.197644517098013700e-02 2.130178218052396211e-02 3.570792200371350478e-02 1.140466021256122953e-02 -5.901098503800918799e-02 -1.832773783319644606e-02 6.074785286751339247e-02 5.783765053012792506e-02 6.823485746939397800e-02 7.984399044366081999e-02 7.229722784422526471e-02 1.003176412373134874e-01 5.271618040293967605e-02 1.050279356787816171e-01 1.083014289160493943e-01 8.645270268065493452e-03 6.490550977068958172e-02 1.085557528715125619e-01 1.918363153498245724e-02 2.579301787181555519e-02 -1.570663970439064531e-03 -2.703316831216654587e-02 -6.664813881431519253e-03 3.386632351122848689e-02 6.761153502254856409e-03 2.661401353659167968e-02 7.525297821531397313e-02 -2.522507537334743588e-02 -4.419535833443441475e-03 5.251286703644787723e-02 3.463533964010188232e-02 1.009060934572040234e-02 8.549645355423973053e-03 6.084786002986234538e-02 4.012619085271937336e-02 1.268489674939545508e-01 1.222951648723311635e-01 5.365969616614738036e-02 1.240037895998639950e-01 8.021982797129632858e-02 1.559385138854842423e-01 1.216678848484704645e-01 1.922831741646235382e-01 9.253898698448996540e-02 1.112842774144632424e-01 3.689480572369082528e-02 1.113818774208841927e-02 3.682856128114081473e-02 -4.818369404686457386e-02 -1.195643890557552234e-02 -2.251990953828465064e-02 -8.095560731644959804e-03 -1.453100253877315923e-02 1.649122052523938411e-02 2.457302135032012058e-02 -1.010177781971949122e-02 8.980971194935537250e-02 4.514359618331414969e-02 7.604493997720593312e-02 2.190970207788253341e-02 -3.454040002058543501e-02 4.767763916554897119e-02 1.166084849186481975e-01 9.133570856748618461e-02 9.700066233585753761e-02 1.296543948502984767e-01 8.875320519310532508e-02 2.810523454339203600e-02 1.419065709205661885e-01 1.115940515355942353e-01 9.542567613521900360e-02 6.110437587432874379e-02 1.412566613801697901e-01 5.190706802926670083e-02 8.517152135232003429e-02 8.016867001987762476e-02 -4.286491353392341691e-02 1.974141298443097409e-02 -3.274555921016404376e-03 -1.251400522907918610e-02 -1.336089787522187246e-02 1.538175804689730607e-02 -6.995691991743173410e-02 4.300728629134657061e-02 2.768666186577543875e-02 5.856871674481396034e-02 9.502292462527006656e-02 7.482825001634041406e-02 7.633751779109843039e-02 6.300202742595409355e-02 1.086240578977163695e-01 1.804849377520555409e-01 1.153902367237862742e-01 6.696429793652679263e-02 2.121511125916603763e-02 8.133962294387427072e-02 6.296197385188699591e-02 1.033206077135060824e-01 1.201618757586294939e-01 9.048407435739401483e-02 9.537409963339367469e-02 -7.375065505493544685e-03 4.240822528793346258e-02 5.287619549003314684e-02 2.506406328939617123e-02 2.243126632315992075e-02 -3.013551904260538400e-02 3.645886636967123756e-02 -5.257114054256471075e-02 -4.364648767120907907e-02 -4.163445219413040160e-02 -7.466534448104443500e-02 6.453900641355661549e-02 7.155484780751568408e-02 1.118531870339408291e-01 1.193927597171948324e-01 4.469161333892620463e-02 1.020574333236636683e-01 1.255973307294852848e-01 9.626315701678042625e-02 9.618199899813963116e-02 6.219215397570652948e-02 3.478552532740781383e-02 2.306848172412280865e-02 5.843356994188412395e-02 8.796851411461599490e-02 8.512256494958453379e-02 8.756934584905685937e-02 1.369711563944857324e-01 7.863160463767042418e-02 7.129738875701067957e-02 6.522900398225717211e-02 -3.191373430729810973e-02 9.150814956487475504e-02 -3.673912386403103275e-02 -8.915267731396260553e-02 2.833056904077038696e-02 1.720028046073188849e-02 -6.859641764395414676e-02 3.929122160893690902e-02 5.748571445271349889e-02 7.584929103243266690e-02 2.287588202998555933e-02 1.137031148014776560e-01 6.118917236793326025e-02 4.677764283042116361e-02 1.462500011925952914e-01 1.441623812744783628e-01 1.330866573819073917e-01 1.184305026296010727e-01 4.841133691276135881e-02 4.937012971350828588e-02 1.678624094074205042e-01 5.996690730412708448e-02 4.422123812588375780e-02 5.957174965381237253e-02 5.673060285938396480e-02 7.534809246736125232e-02 3.059798614395705871e-02 7.425135677965269410e-02 2.349315414673017188e-02 5.415397698718799752e-02 -7.122484313112860399e-02 5.117924741552701967e-02 2.368600204586236019e-02 3.585774360423830270e-02 1.022827277492868205e-02 4.753875487156985352e-02 2.983223966110116684e-02 1.109728711183186611e-01 8.326590222702814903e-02 5.982285868639962423e-02 4.863940398127845899e-02 8.617066742050585870e-02 4.672529122449105982e-02 9.189892323919504613e-02 8.825022073555570390e-02 1.461218810689359215e-01 3.655083059766705417e-02 8.181658632205018877e-02 1.002988493726146985e-01 1.132451435111985899e-01 1.250314168624760691e-01 9.211757871617549942e-02 4.512980538322749341e-02 2.827741146894469440e-02 1.965057225180723982e-03 1.321418677281224752e-02 -5.447984571721357222e-02 4.155573413774752561e-02 8.039441326673722396e-03 3.842848106433102012e-02 8.162641442279518211e-02 1.538884445582076356e-02 -3.940202982540030180e-02 4.991248225153462927e-03 -2.094371911485628027e-02 -2.391323347947365684e-03 6.671808669779584477e-02 1.395269165597589622e-01 2.749273347097961478e-02 9.720955207148319899e-02 8.071542514188549677e-02 1.707460965018086085e-01 1.529226392738460283e-01 7.330901536125324081e-02 1.184447792134837446e-01 1.333103980657421583e-01 8.033490204594613548e-02 4.775442513222197261e-02 8.059527979834334166e-02 9.016814214754216572e-02 3.798232699992992734e-02 5.915884261411419320e-02 -1.252867262704571334e-02 1.828711504571001959e-03 3.410059444505175036e-02 2.851642565047947386e-02 4.203473851470036077e-02 2.242367465194694282e-03 1.379509592388027638e-02 2.636020395211351869e-02 -3.467523907273675071e-02 -1.061431270881945613e-03 4.203926900315056031e-02 1.040623033591994429e-01 7.579006734231960585e-02 3.607352232630717248e-02 1.308821948023973225e-01 1.633740424806011948e-01 6.595226578027697795e-02 3.742461870761600029e-02 6.418484578525331108e-02 1.304579747961181757e-01 2.050814464661220304e-01 1.318856500114964081e-01 1.420020804535263304e-01 1.654164495375402000e-01 1.440970486257843741e-01 5.803441552056251562e-02 1.361930650569490552e-02 6.317919913869757265e-02 -6.120164344738394067e-03 -5.400114200333221842e-02 2.522406113363614283e-02 4.504700803329477615e-02 -7.120779065000817920e-03 -1.956233673355511210e-02 -7.754968593047875669e-03 -3.866991384144249227e-02 -3.305558922442024955e-02 2.451478402331576378e-02 4.736204780156199473e-02 8.884317229838918639e-02 1.450952598113363912e-01 3.252811785760535701e-02 -1.080683602534001850e-02 6.617161849675603190e-03 8.566101265239878249e-02 1.066105511019328350e-01 1.354342198049107993e-01 6.370599209062216550e-02 8.015426179196889767e-02 9.998798574379717807e-02 1.240986549812639200e-01 1.440018771947966236e-01 5.022579508075956413e-03 7.087544007274430846e-02 4.988606944996329395e-02 4.058024499894321430e-02 1.372125739712429064e-02 -5.455516054913392421e-02 3.403951112353991587e-02 1.063112482139073873e-04 -6.243079228689250165e-02 6.624533877286209980e-03 -1.481817504102074176e-02 -4.439666288985141124e-02 3.062690625842749703e-02 -1.504392430294678373e-03 3.689992417136835068e-02 7.015480264944576327e-02 1.511474308303757327e-02 7.633743672009464520e-02 6.052546082334055166e-02 2.899783522515814171e-02 9.804267517412627864e-02 1.604289824510285178e-01 6.725693294140544509e-02 1.302285377794418497e-01 1.264625164720192541e-01 1.016738602828747146e-01 7.080836088274626572e-02 6.458103008070091577e-02 7.933223104953107674e-02 1.287773283781670219e-01 3.821670669688929933e-02 4.919132642497148905e-02 1.891956144482295071e-02 -9.989418839283925253e-03 -8.255852226139435979e-02 -2.861804513853051860e-02 -5.233393437489536164e-03 -1.897544645698904381e-02 1.824826712595073105e-03 3.818832545419504482e-02 2.073724775341768273e-02 5.958522568933897340e-02 5.365179143614510343e-02 7.067392600183607099e-02 -2.316236393482667131e-04 9.736731265354249543e-02 7.976407579384879598e-02 -3.206320379945311674e-03 8.188926234786378378e-02 6.288890217458865950e-02 1.689374677717093709e-01 1.344837929709817026e-01 6.405765323278728163e-02 9.584714926250657852e-02 8.083822708328890216e-02 1.021643871978972218e-01 1.208390000310751861e-01 1.114203418558994407e-01 7.090014020522854288e-02 -1.042940382794671494e-02 1.137333547895320179e-02 -2.546323503218022449e-02 -1.418155153264151133e-02 -3.147791956465157553e-02 -3.803407411998636217e-02 2.309615964143615918e-02 5.561090864042447270e-03 4.015579296015831337e-04 3.491591689337251309e-02 -3.919412614963654483e-04 5.395003107537767184e-02 8.258398980389479449e-02 6.889512473029910100e-02 7.747659482382043827e-02 1.493361062334516431e-01 1.300320651210228606e-01 8.672302587112222516e-02 1.408412433457152668e-01 1.201307135224569528e-01 1.211227526881435423e-01 6.772889267408886693e-02 5.674705309871543035e-02 8.455864051534289771e-02 1.154738726019743505e-01 2.435166757617612462e-02 1.501450309381155770e-02 3.462401677313688142e-02 8.659024587996663747e-02 5.700495184772687469e-03 -5.091020114453366496e-02 -2.748342198108088413e-02 -7.596037731654943156e-03 4.162555019691888819e-02 2.783106250674509397e-02 2.070502887141720261e-02 3.598112695739024564e-02 -3.757844574980629543e-02 -5.861106871817133718e-02 2.051705106399139000e-02 8.594402500178022208e-02 7.101766786479786486e-02 7.451458946766975622e-02 5.661292327749153225e-02 8.495452055608505859e-02 3.423938026946295871e-02 1.130361272454271510e-01 6.954540008512370697e-02 8.031975311601587120e-02 6.773514458944622507e-02 8.421143304954273323e-02 7.246959421809577584e-02 1.053024734137949087e-01 -1.233123642867588014e-02 1.501768287736642352e-02 9.379783249063362860e-02 9.002842149845660669e-03 3.649245929264491317e-02 3.681480334198342086e-02 -9.442089861222786526e-03 -2.948398694275496221e-04 2.429124909878872807e-02 -2.620748733011449977e-02 2.360248134294123251e-02 2.698769526775229941e-03 -2.499695329204151134e-02 2.922798073333114643e-02 3.987494422682680284e-02 1.262507259518294012e-01 7.829886826259001287e-02 7.780371216764998647e-03 1.027284028365427204e-01 9.794646844660349905e-02 1.051376578552414426e-01 9.087458261907420398e-02 1.068049099953996273e-01 8.420775465733058851e-02 -5.995645963362249966e-04 8.581423023396148042e-02 1.228001261355533835e-01 1.330869007660243908e-01 1.496152753763888010e-01 5.733479327023007638e-02 6.892010373084436758e-02 9.651334243420540970e-02 6.398414536826756149e-02 5.058742095822427176e-02 -6.603062290861615169e-02 2.355320020351346199e-03 2.769427525538659812e-02 -6.890145537158658129e-03 7.363895465035496732e-03 1.724897614503017457e-02 1.247748753776390697e-02 1.984158022639677388e-02 7.789033110676424343e-02 3.907748255508242813e-02 5.923813315453339834e-02 1.417294289789624295e-01 9.833972686714603784e-02 1.164613173999064916e-01 8.644357786277527544e-02 6.204832471867800792e-02 7.270618540563751619e-02 1.743229696547339905e-02 6.867786203901644904e-02 9.417513609151263732e-02 1.248124330193295384e-01 1.077268642046087799e-01 4.448574261918248479e-02 3.293067652915001361e-03 1.111928080162764496e-02 5.284668287950131105e-02 6.121212678142463198e-02 2.923836200099026728e-02 -6.320804690332808284e-02 -2.907525721628299864e-02 -3.234790219437216311e-04 -6.131425432364754485e-03 8.272824659743081843e-02 6.164585783334023935e-04 7.735143587432114984e-03 -3.396091135243781839e-02 6.206651207427427847e-02 3.621594608489007994e-02 8.844974158375461248e-02 9.330604651645374448e-02 8.458757250978771181e-02 7.161041725315826778e-02 1.775661697124078509e-01 1.247398605017404072e-01 6.356628374107066437e-02 9.410259338743183488e-02 5.982647399321366910e-02 1.328419047645705564e-01 8.870006303092251021e-02 1.131596138762713255e-01 9.508678501476537648e-02 7.073615413006556496e-02 -1.020725807976590252e-02 2.637271794685804721e-02 4.385825764363354695e-02 -9.582769351565264410e-03 4.745650766853357766e-02 2.466292329116294424e-02 -5.026472248448573404e-02 6.290760207333842557e-02 2.332580124838324470e-02 1.085481565972105759e-02 7.670735227688008778e-03 2.984951171090385880e-02 -4.788480526691694938e-02 -6.225044820266841319e-03 1.281110614023692196e-01 6.016389817739556389e-02 6.095136152674336671e-02 -8.901681772489912145e-03 8.934081861263770685e-02 1.128008621439322290e-01 1.552016969894941534e-01 8.380327488497116284e-02 6.419941448243453308e-02 1.447931164388452652e-01 5.093998562527921048e-02 2.148884374235257924e-02 6.287151046186795211e-02 5.901313117170486205e-02 -2.214747551167259385e-03 -2.763123077819840470e-02 -1.065184112562034442e-02 -3.729465565788416676e-02 7.091908995660596571e-02 1.480762860766556867e-02 -2.583654728781933918e-02 3.507412013585126803e-02 7.364219403549075470e-06 -4.374964241621502603e-03 1.533128838974734919e-02 1.308893771146159464e-02 2.801365037981634609e-02 2.439267634131253581e-02 1.201213447682027494e-02 1.971969642106163878e-02 1.150170239086615170e-01 1.464059804800449671e-01 1.690998662626514715e-01 1.269015676505683421e-01 1.545865700669471765e-01 1.314268307051924822e-01 1.418624274334307211e-01 8.029511523464623324e-02 4.806321870283313674e-02 4.012366561546171218e-02 1.308948408420680665e-01 9.110866745291029689e-02 1.156048939163012157e-01 -1.313759906556527003e-02 -6.535975337395868480e-03 2.728442462670485451e-03 -1.325967476976147412e-02 -2.294783772119288884e-02 -9.903100216986747764e-03 4.944158707760876528e-03 -3.008918010965165937e-02 1.382456385591567796e-03 6.650615354848073146e-02 -8.447064824227147259e-03 6.280592120901716535e-02 -6.408947432362849424e-03 6.221886080207463324e-03 7.454639947038610437e-02 7.934419175932284907e-02 7.060530380510576798e-02 7.499668673715627343e-02 1.213245196284728766e-01 1.135869349653498561e-01 4.820561776906519963e-02 4.607115813534625598e-02 1.770390124572291529e-02 4.105978623937964200e-02 5.138043055742838421e-03 2.602981327477977766e-02 6.023958446409290179e-02 3.541890006961513626e-02 -6.171122125074016140e-02 -9.588180515191715644e-03 -1.553315732089716877e-02 -3.677932684596477847e-02 1.501768723752187722e-02 1.260459378051419742e-02 6.528502462052057642e-02 3.117862864441516696e-02 1.476640448904596205e-02 4.486965574288477652e-04 -1.017530331077187190e-02 -1.713342371067700515e-02 -2.679708531831105633e-02 7.883782360952815149e-03 3.470635837767672288e-02 -1.130687812454803966e-02 4.478457314455234345e-02 8.850282042915337544e-02 2.280939509336862153e-02 2.790879052435768504e-02 -1.480029072812422651e-02 4.312379565072509829e-02 -4.062740828716158298e-02 3.813967853994867235e-02 2.570920060220455161e-02 -1.930555156707840919e-02 -4.485470361514148213e-02 1.746141394011845732e-02 -5.995954605223909745e-02 3.406294134705380866e-02 3.878525072150913050e-02 -1.798224060045813116e-02 1.492641877771846374e-03 5.733452184851831751e-02 2.712583843475802753e-02 6.418322317009293558e-03 -1.214667000690609726e-02 -9.805856843469852938e-03 -1.506308939487822907e-02 -3.911142778042490248e-02 -2.348177082697779777e-02 5.327855126784946521e-02 2.743239045046706737e-02 1.764436889674456457e-02 -2.954389258984256583e-02 2.457736310459435886e-02 5.355502667593216998e-02 -1.814202220843733754e-02 -6.340839320248777000e-02 -5.240465350182819254e-02 2.244576440785062826e-02 8.654707288863928982e-02 3.194139954709802887e-02 9.521361753307739859e-03 -2.605832843489813005e-02 -2.255352116462269046e-02 4.158881920613782118e-02 -9.602163226151973208e-02 -8.991849543207548756e-02 -4.038123264879422275e-02 -1.460634561271857701e-02 -2.589582370426053216e-04 1.153602428828732519e-02 -5.666873403741123222e-02 3.825959486162514717e-02 -4.008130590886926220e-02 2.935160735822049671e-02 -3.720524381806401132e-02 -7.132708709378400569e-02 -4.111956091663807739e-02 1.701760826279217695e-02 -3.207186553564967540e-02 -2.395346730355292497e-02 4.793408576327549790e-03 1.773899202553326504e-02 4.943613214686089913e-02 -1.216126786664431005e-02 3.737546994069469025e-02 4.943605872948521850e-03 -2.007103035822589698e-02 9.109754664737765989e-03 2.221244780728635210e-02 2.536060830775906799e-02 -3.711297018826217181e-02 -2.502220893736947088e-02 -5.124547718478038479e-03 -5.130904970638306556e-02 1.436313204470140124e-02 3.082910862711485400e-02 1.021044445323108889e-02 -2.812182675959950390e-02 1.282481337239740025e-02 2.312099663729329235e-02 5.328747081375829336e-02 -5.355143455284782673e-03 2.718748183338102337e-02 4.368212886347529883e-02 1.932446056155557451e-02 2.186530678245962589e-02 -1.161351747934884519e-03 7.045337578886708141e-03 -7.177211092681930020e-03 -9.681425948463847839e-03 2.746072760297999654e-02 -5.184116262827419448e-03 1.257638243397348442e-02 -1.106872124012454710e-02 -4.058688641011182902e-03 3.421253337984801052e-02 2.741052217538259700e-02 -3.393450245888388755e-02 5.068314838251068363e-03 4.141598513178937520e-03 1.737951912250216419e-02 2.275698675093576484e-02 -2.722272181202131398e-03 3.225173027221221733e-02 -5.163829423215913345e-02 5.837477989043322185e-02
8.498982721169775351e-03 1.138557220364723802e-02 -1.296830254797127699e-02 -5.374300115089546137e-02 4.044958462790133880e-02 4.883705871059663972e-02 2.267522738113719738e-02 -1.321671019343164180e-02 4.621593255306544190e-02 1.102430603843522136e-02 -2.829217653418551054e-02 -3.092840962139237898e-02 5.113208525173775290e-03 4.247099676314753172e-03 -9.407599302176488905e-04 7.463757733503705027e-02 3.062972677236337499e-03 2.773791043143004897e-02 3.017003420888494242e-02 2.877833822379518864e-03 2.416317262273902106e-03 5.345401353594597671e-02 -2.204623526751301604e-02 3.843368953865577975e-02 -2.170865253847376053e-02 2.155654418660076649e-02 -1.903795455206284959e-02 -1.590128901147264476e-02 -2.182988419400044844e-02 -4.339048117386927472e-02 4.274122012511939739e-02 -2.134252707299146012e-02 -1.994291452956138688e-02 1.695609232256298921e-02 -1.979161587481709922e-02 3.391041276987261707e-03 6.591550503462995309e-04 -9.376133502493275151e-02 6.918196234978822579e-02 4.043796947179470469e-02 -2.197541192196981758e-03 -8.554555736800289328e-03 -7.676382308905844998e-02 -3.730580488193148414e-02 4.929869859297174306e-02 -2.783174383553729120e-02 7.263110326625549446e-04 1.312777827874459955e-03 2.008965700206444271e-02 -4.542175917049201539e-02 4.913243289686666793e-02 1.787543591744340105e-02 -1.500456861480294708e-03 8.114739503525477543e-03 1.422570668709239802e-02 -3.059290120707721522e-02 -2.368648370488337512e-02 -4.731469468982328966e-03 9.376551251643109458e-03 1.297234009113697531e-02 2.642060506025054739e-02 3.089111924596973490e-03 3.407369763572838661e-02 4.980378808243979272e-02 7.738936422957606864e-02 -4.058841164415741970e-03 2.082824491366203068e-02 -6.190490050312513759e-02 -2.601913179670320431e-02 -6.306743954002354269e-02 -3.053774886912369313e-02 4.058591805096087302e-02 -2.797866121773093934e-02 2.531764227918895105e-02 2.623888071093234686e-02 8.356715176117461563e-03 -1.954052293678743002e-02 2.978785983998075149e-02 6.417361905246618883e-03 1.540285427405780130e-02 8.108292750248619063e-02 -1.205281579433996114e-03 1.000510547572012326e-02 -2.145701516722391729e-03 2.705061249644881427e-02 -6.350186199884809077e-03 -2.013345303365508127e-02 1.060580721119788392e-02 -1.122904070162999415e-03 -1.692469105603848500e-02 -3.146871604924575405e-02 6.097273809191737113e-04 -2.413636859375644511e-02 2.249301878199387594e-02 -8.431898582247493446e-03 4.230950042258050173e-03 -5.508886135624638247e-02 -5.207706959858249274e-02 4.621887936473685621e-02 1.261775787039610963e-02 -5.348204082927974015e-03 -7.462011230249747384e-02 -1.267336053951811578e-02 -3.712413014219458074e-02 -7.865834815739047858e-03 3.579846844975956288e-02 1.599358274899389436e-03 -2.808221313574749134e-02 3.804700561126185543e-02 -1.582049474514596668e-02 2.183943137589739337e-03 -4.884149260740705545e-02 4.051379180506897715e-02 2.443314271204188176e-02 6.140444519416796143e-03 3.555485524716577635e-03 7.137797214089727782e-02 3.101912456081534764e-02 -4.952647679970099276e-02 8.340860354248523512e-02 2.036322733213591085e-01 2.973664137603032609e-01 1.719090646698375191e-01 -7.837247655097349941e-02 1.100339470985542967e-01 3.663853193774126993e-01 3.533906080018166529e-01 3.029247121681996058e-01 1.357570203113695750e-01 -1.530328647844932943e-01 -2.288469424268542440e-01 4.970950838237678249e-02 4.568362723816947468e-02 2.556512892748666887e-01 1.537925063792528746e-01 2.280864689955237543e-02 2.959951373133919844e-02 1.277617962959580120e-02 1.746489404927348277e-02 1.975385041361346627e-02 -3.315128452798783796e-03 3.232088451683433426e-03 -5.721018271960222334e-02 -2.153692978036270134e-02 5.676262035693691033e-02 1.447960537862331698e-01 5.985657309952160249e-02 6.323704242185229640e-02 3.414659519081873484e-01 3.178727452144740062e-01 2.035343778725451913e-01 -1.206370592405209691e-01 2.219338178269903220e-02 3.154901037729449520e-01 3.548701774229634509e-01 3.066372824977277034e-01 9.017896390965737807e-02 -5.171353292328978446e-02 -2.297830829711065281e-01 -5.696536086233223994e-02 -7.579743865197520469e-02 9.081558280655400994e-02 -2.934749012402465725e-03 1.984985993719930175e-02 -5.795242603570709139e-02 -4.792551022730568225e-03 -3.942335916528966200e-02 -5.224662733029704353e-03 1.067026617049109949e-01 -1.590690469491178732e-02 -3.220644395731973864e-02 2.315230149455712455e-02 6.021994175924726134e-02 7.006889096758375790e-02 -6.136231382582094107e-02 -1.698365473480930796e-02 8.079463297944435018e-02 9.566204542398260013e-02 1.080648591283562936e-03 -2.499400425005673110e-01 1.844295719284744228e-01 3.202234495319377094e-01 3.118520820036818630e-01 2.605099644935547354e-01 2.312063379711425393e-01 1.078013850951716757e-01 9.583311097972010972e-02 -1.293801843775065352e-01 -1.699599264112126862e-01 -2.070591327720628511e-02 -1.980043186933520480e-02 8.791407873852374877e-02 -2.383921454698707115e-02 -2.937352441903637312e-02 -4.347280346770737713e-02 -2.637967675005274681e-02 -3.763048768164596602e-02 3.486964463848099549e-02 1.458503659009551326e-02 1.590236709921934166e-02 -1.920150836418322085e-02 2.341889101350280028e-02 6.612102052371927885e-02 -1.461491979715314436e-02 7.392549274822976524e-02 7.981905007794980189e-02 -1.544172847201129295e-01 -1.126526659785782453e-01 3.683918677823325716e-01 3.155237824115420531e-01 2.504341027193097147e-01 1.842916703588310945e-01 1.597711712224632319e-01 1.162534321100802404e-01 -8.051260557344546570e-03 -1.928396115060503624e-01 -1.669583662354275355e-01 3.338079312615543914e-02 1.597564459708510423e-02 6.453586662691228326e-02 4.558421683302787963e-02 1.845708564352960962e-02 -8.271624292091790676e-02 4.832277375203146430e-02 6.231967388369004379e-02 -2.409727341589126826e-02 -2.763968870908799919e-02 -3.430750019817303820e-02 4.431295868550790690e-02 1.314938530866059385e-01 1.288188555915537048e-01 1.242485319269572425e-01 -1.273302394275994086e-02 9.851734322195165872e-02 -6.020878532581377951e-02 1.224607075666589023e-01 4.172768845180951369e-01 2.740315555148023496e-01 2.225491911547954338e-01 8.056693168113890358e-02 7.049330557494720706e-02 -1.382940301881582790e-01 -1.811724438407985582e-01 -2.247224348651344905e-01 -1.965176176843905220e-01 -7.511141052932657214e-03 1.207070327623708111e-01 -8.721013868206112241e-02 -5.140387370859608729e-02 2.355504038974154390e-02 1.179209747473040784e-03 3.123324150933983953e-02 -1.322515486799815190e-02 -4.470560589582853184e-02 4.388219814983856937e-03 2.048285468528906333e-02 2.031932021565906743e-01 3.057774291262722599e-01 1.668603174813418633e-01 5.415832736545669879e-02 -3.790501171253861379e-02 1.126834324814405819e-01 9.143981838113449112e-04 2.439564562721338870e-01 2.597603099265323734e-01 2.699000981004396338e-01 2.176231222893117989e-01 8.951361480457020736e-02 1.153172198873047595e-02 -2.249479613039022385e-01 -2.423619648234042190e-01 -2.927322866993544714e-01 -2.419134953398624499e-01 4.547349241027643513e-02 1.061889630576703242e-01 -1.785204039310341328e-01 2.728276556565616823e-02 1.981261873258029910e-02 -3.768255524807677392e-02 -9.647863382624251305e-03 5.009364115233397308e-02 -9.131496660115957786e-03 -4.619279631233942640e-02 6.875108592365353211e-02 2.321662573194218093e-01 1.970991231021458900e-01 1.729776664168518885e-01 9.896516502245526758e-02 2.244231619606260331e-01 -1.116687512873312284e-03 1.949232939312727994e-02 2.630150466128917675e-01 2.875466046637994988e-01 2.651552993016490500e-01 4.518085860044208091e-01 3.016386217266713299e-01 2.536338582979386774e-02 -2.356522964587742797e-01 -4.265202876570405310e-01 -4.933312042658912766e-01 -2.377794054711962479e-01 1.295734197801601262e-03 1.880544634400894977e-02 -2.266520384534783661e-01 1.537544585584594550e-03 -5.590326445616135634e-03 2.464542385008841596e-02 -2.622300005820123875e-02 8.211879512726115438e-02 -4.103667783933785673e-02 1.704259811466303509e-02 7.729006152044047562e-02 1.904750951483177857e-01 7.025152017764488450e-03 1.501462365865803839e-01 2.077026527639509179e-01 4.402153107017262035e-01 -4.145221163721368035e-02 2.080747463564783933e-02 4.307479503074222449e-01 3.432621950107822006e-01 3.235065251753023174e-01 3.479789305754027451e-01 2.556092740720913858e-01 -5.931705654251265801e-03 -3.213663119953004688e-01 -3.596287936671117569e-01 -3.718701255648532711e-01 -2.489734062203415033e-01 -4.538009438039904836e-02 -3.992681083855579433e-02 -2.521815194988066833e-01 -2.483839397194221449e-02 2.738454897337763098e-03 1.862659814484204923e-02 -3.208075444271961396e-02 -2.580133559075167837e-02 5.802675023712776381e-02 -2.803251765330259937e-02 5.512908619351568340e-02 -5.855765814528676033e-02 3.765855870102799083e-03 1.433178406867833266e-01 2.831440488942310596e-01 2.245481652142729545e-01 -7.036319148354822084e-02 2.443986389557376571e-01 3.506260451150572943e-01 1.702439569875412173e-01 2.303189414433980675e-01 2.194386290585685906e-01 1.945264115729512799e-01 -9.939590250209137667e-02 -3.377662253709364792e-01 -2.089704676895221547e-01 -3.486831637191016298e-01 -1.007860091896213561e-01 -8.491130828793093388e-02 5.996582356864418525e-03 -9.666073204809177977e-02 -1.342935703745740464e-02 3.045454512186243634e-02 3.056728215548425859e-02 -2.555750375008585679e-02 -5.365942577176360806e-02 1.741398266956738911e-02 -1.836319953667681776e-02 -8.095565793787463807e-04 -3.477676622045541843e-02 -1.933938156198768479e-02 1.403190526854787290e-01 1.896846710775353106e-01 1.670644719666037059e-01 -2.072301992320502856e-02 3.503441534477747532e-01 3.952760432894349973e-01 3.047484070722492611e-01 3.558412509044840966e-01 3.239933265407876073e-01 2.768945205310384752e-02 -8.724348962190499324e-02 -2.038120234740894987e-01 4.969844891934829811e-02 -2.112791906417381127e-01 -7.087031349666432500e-02 -2.101627184440212071e-01 2.154665462279323901e-02 1.000338955891660608e-01 1.106241993067126964e-02 2.521339475007216419e-02 -2.555685565633404599e-02 -4.024715334346154472e-02 -1.643178221247621612e-02 -3.280053525684316611e-03 1.372117451576006578e-02 -1.355689934974580596e-02 -5.487840626062252120e-02 -2.543183570242675312e-04 4.893667093014909125e-02 6.841994472164052155e-02 1.440334988643740266e-01 2.830128851428221348e-01 5.442733259466642215e-01 4.827157258972237242e-01 3.921387165717485912e-01 3.019057517707400273e-01 1.888561399595773127e-01 2.152753656475717148e-01 -1.880661422388784157e-02 -1.072265871070142602e-02 1.464533485001389967e-01 1.131041877355125069e-01 -6.071856120530195328e-02 -1.494795476794361089e-01 -2.147097391087296817e-02 1.044682293885921265e-01 -3.374459625239425564e-03 3.163926779594114502e-02 1.603191561487351396e-02 -3.801119695821575384e-02 -2.494331725877919209e-02 -2.224131856536655516e-02 5.589710324608361536e-02 -1.632557538560135829e-02 -1.066209708293012343e-01 -1.633174448345211041e-02 8.384617596944782258e-02 3.730494675821850042e-02 2.007001843881945080e-01 4.640043849379223984e-01 5.857509881395058793e-01 4.025512172786605003e-01 2.866698020014459836e-01 7.448843586274249418e-02 -4.796321322770289754e-03 8.274573264854520604e-03 4.060754729545518193e-02 2.788539694936582186e-02 -1.953621238997296436e-02 8.062020456294351212e-02 -9.211475933182627918e-02 2.072308055545563944e-03 -3.932321610605563761e-02 1.928839606357883596e-01 -5.026842004768123512e-03 -1.792899695296479995e-02 5.247757738148631224e-02 -1.294819269242511103e-02 2.177216617309889191e-02 5.541835401911185052e-03 1.105729647999479856e-02 2.574076766844315967e-02 -8.179535129514386993e-03 -1.491952248942684800e-01 7.150893601227788221e-02 -2.879909682447393329e-02 1.783702686916493751e-01 3.454949648315620570e-01 2.403263041024346625e-01 2.193879340955395274e-01 7.034927294391292441e-02 -9.571992009137063329e-02 5.062253109060875500e-02 8.895347019866842175e-02 -1.275524511290275498e-01 -2.685391279916055085e-01 -3.004795800389025925e-02 -5.908375613893739747e-02 -7.940856984660413231e-02 -8.779320039022742161e-02 3.079591475161486992e-03 1.512898069971345683e-01 3.059635490051928336e-02 -5.257166966255978624e-03 4.355121159505542447e-03 -2.352938514906994377e-02 4.700257573398168576e-02 1.114036303618306384e-01 1.444423057316572556e-02 -6.011546453301566673e-02 1.260357644930114041e-01 -1.135480454805717632e-01 4.566109206920639096e-02 -6.525693685777103235e-04 1.567939432118055643e-01 7.853690781747449390e-02 1.744964246492023974e-01 1.174753647576525506e-01 8.496532777096825473e-02 1.455226298672244456e-01 7.575552994191472878e-02 -6.251681487692940797e-02 -3.383922607807701710e-01 -3.161782783453677692e-01 -1.580118330745055311e-01 -1.480117142076272929e-01 -7.439175302203820950e-02 5.712156559862465594e-02 7.180749441170469760e-02 6.303180411562504804e-02 -7.044686644671113718e-02 1.114291871586039692e-02 2.013420430918450715e-02 -3.954938252024310652e-02 1.737736723116340603e-03 1.976571055874200983e-02 6.002395738356108845e-02 2.840098229346607606e-02 1.426399385576755940e-01 -3.245132097709190616e-02 -8.457050741409195133e-03 -2.142574329927791205e-02 8.312829929421483577e-02 1.054892105152025611e-01 2.063016877372206292e-01 1.692392395299652519e-01 3.243983823897594321e-01 3.111987914177366532e-01 3.156184196469962594e-02 -1.784326696139190427e-01 -3.240451274836948503e-01 -2.225018895251220652e-01 -1.933167142239045622e-01 -8.581028173794823244e-02 -5.416418446060831254e-02 1.294344523574107036e-02 -2.459272205209098519e-02 5.880591561226781311e-03 -8.332272032513712151e-03 -1.691798444927433698e-02 7.695558807098200685e-03 2.801248590124167520e-02 4.946955527084227755e-02 3.761642429574200974e-02 -1.561221558718193722e-02 -4.244668007574273205e-02 1.660140827734480073e-01 1.112053942656813371e-01 -3.450370890307176853e-03 4.677297264315383174e-02 1.958938446270924727e-01 3.033464137732200805e-01 3.548633911088349135e-01 2.971676737429562731e-01 4.062258287985594518e-01 2.803502688778955476e-01 1.180152214479135084e-02 -1.789299113294497146e-01 -1.622535736771146819e-01 -1.284567750949405507e-01 -1.369532085071469840e-01 -1.045600172510227494e-01 -6.043051986762969230e-02 -1.714908636851271428e-01 -2.212934843000012863e-01 -8.266634595678855335e-02 2.224913427584533643e-02 2.780601513685605503e-03 4.355727975818323924e-03 -1.177064398374987400e-02 -2.925162492574687884e-02 -4.007157854421707077e-02 1.148008705137036622e-02 -1.673051041610626455e-02 1.640374887797849401e-01 1.762540490282506755e-01 -8.189475127429429735e-03 6.809030525098908049e-02 1.702615484672850149e-02 1.292191210939461210e-01 1.397734493274431777e-01 7.052823647527459161e-02 2.618053802670816665e-01 1.274590808127049890e-01 -3.692457163276228332e-02 3.449617409490505354e-02 -8.235833055947822112e-02 -1.758847453151352047e-02 1.848885270861745297e-02 -2.873968106229017883e-01 -3.384336372250429936e-01 -1.293190361812776579e-01 -2.033737242426716663e-01 -6.693557459637718143e-02 -1.702146092038499953e-02 -5.537811542526033248e-02 -4.405369442773374167e-02 1.098278738658230169e-02 4.942850873339232898e-02 -2.557638942005588389e-02 5.183266217801529852e-02 -8.168103100380574855e-03 2.482184612398399826e-01 2.378562725764718222e-01 1.460372767597147015e-01 2.980566658672137784e-02 2.436984721180767560e-03 7.742993583125509782e-02 7.829184158522334291e-02 5.146992438805432502e-02 5.035338061526443282e-02 4.127106509173202042e-02 -6.875104736153641455e-03 1.764453376204782875e-01 9.607388072817438229e-02 4.416666594940191204e-02 -2.437894724885872055e-01 -2.100603070099194003e-01 -1.264030437257375739e-01 3.234428129174958533e-02 -2.066972778146736883e-02 -9.385891156874479058e-02 -1.536698099217228414e-02 7.644524192026435098e-04 -4.189359573373092893e-02 3.125770671986567717e-02 4.541685446171551954e-02 2.586044034730147073e-02 1.580590371560427337e-02 1.928157626920975337e-02 2.082940492204460869e-01 2.755361793584851782e-01 2.675447195322304128e-01 1.609210772810913959e-01 -5.684299075059258410e-02 -1.367888499615865228e-01 -1.524221185491743680e-01 -1.650989268077187599e-01 -3.371770122379646462e-01 -3.072931204428220320e-01 2.147869748022410152e-02 6.665131770847138037e-02 -5.863476400876085209e-02 -2.445582537863313921e-02 -6.929381990037919437e-02 -4.749841306185622475e-02 2.098366754573640358e-01 8.014259000695839186e-02 4.035540720934920056e-02 -1.779312233525320863e-02 -4.637116261782096849e-02 2.188803781569233914e-02 -4.494161036202817816e-02 -3.913900043346187421e-03 5.077919588028774467e-02 2.558563959365002527e-02 -7.034367041935168582e-03 -5.090049852254408674e-03 9.552246439530195921e-02 1.010763085818862372e-01 1.793168916827203585e-01 1.679100096308389911e-01 3.949626893387017668e-02 -1.516077343633455143e-01 -2.588787727548475526e-01 -3.022790562673174364e-01 -7.857272841216834947e-02 1.628990701884033554e-01 2.237150571766783058e-01 1.328848581020129760e-01 1.639272140206017234e-02 9.468023333093308902e-03 -1.314047669301550147e-01 -3.407741551254876711e-02 3.737730999789239117e-02 5.996419060404550860e-02 4.972958722549537108e-02 -5.010375812710749638e-02 -2.976873508766893911e-02 -6.185872418162471909e-02 3.625276595829173085e-03 3.005219030871739139e-02 1.858720120354025174e-02 7.295181951419569405e-03 1.432479170623930653e-02 -1.663539584421854347e-03 -7.291703952024235214e-02 -3.479169673503931717e-03 -2.419751649854178649e-02 -3.131427283438203979e-02 1.588202125097513961e-02 -3.836316521460372830e-02 -1.171184050679694930e-02 5.790402682526181455e-02 3.160564872367649381e-02 -3.806106551148238926e-02 1.431156465898424926e-03 1.585922467309583417e-02 -6.441534923926154829e-03 -2.830112854210589668e-02 2.894169519259621320e-02 -2.176423363167431790e-02 3.392667801209861556e-02 -4.229805382323079121e-03 -3.236718459911812340e-02 2.871020310382505630e-02 -1.263247915092837598e-02 3.007171406077901316e-02 5.035053560775816506e-02 1.237800283877860119e-02 4.174349298208912540e-02 2.588261308983433318e-02 1.099677630431413963e-02 4.335112689996564739e-02 1.263769968423409523e-02 6.064107350346019387e-02 -2.611042293877520459e-02 -7.253245507893890665e-02 7.864873074760542898e-03 -4.575762141264249142e-03 -1.499704311303231424e-02 -4.521242278607978671e-03 4.187876313941391038e-02 5.263034427408017080e-02 2.853730906810839074e-02 -3.699768510323578341e-02 -7.918029915912642991e-02 -4.198490693305292898e-02 -4.269899152296727923e-03 1.705617566086356507e-02 2.394248522604166401e-02 2.578553875803588080e-02 2.855625727979579226e-02 -2.003592327429974673e-02 -5.361983059896241466e-02 -1.453815332563641177e-02 -3.325482066105454274e-03 -4.301370542994022161e-02 -1.949474275213258084e-02 2.595290362883926564e-03 3.015820787940143039e-03 5.065173829392079219e-02 -3.174621871838831377e-02 -2.989489594914448295e-02 1.111376923865834906e-02 -6.810524251183865466e-03 -2.263802044987108658e-02 1.323898471817998648e-02 2.751410508627806246e-03 -1.060230673961664151e-03 -1.961363400855196948e-03 -7.116617516475217189e-03 -2.122623360968697859e-02 -2.065781626712681618e-02 1.554770784103855219e-02 4.733743267917694952e-02 -2.471956227945851237e-02 5.903840833525355117e-03 4.279054868890655450e-02 -2.544634264682085322e-03 -4.920510464004559936e-03 2.794925234839912287e-02 2.605504718430743955e-03 -5.731191052225722725e-04 -1.489057191732020072e-02 -4.233017073153308441e-02 1.610543210676965847e-02 -1.004399550437968039e-02 -1.479254736107481552e-02 -5.631932185630626753e-02 4.722700425232012611e-02 -3.064125348293597617e-02 -2.500201924558389383e-02 7.184912799422215821e-03 -8.926320554594908974e-02 -1.793269821541689651e-02 8.816016990192970674e-04 5.587619652132429920e-03 1.792059519758058784e-03 -1.899701804396346227e-02 1.368666587323369779e-02 -5.555006049765469356e-02 -3.007422113431686833e-02 2.374204050261535370e-03 9.899170585691906971e-03 1.264791179686146350e-02 -5.119158553828492830e-02 2.806706978081522502e-02 -3.499508083856696372e-02 -5.071862614208431930e-02 1.348724763626605108e-02 3.569849059200035091e-02 -3.950871814033321550e-03 -1.567228821084838686e-02
