1.468827937645992288e-01 -1.132384602719365974e-01 -5.663711296269854367e-01 -3.118707549413667849e-03 2.307572128828759561e-01 -6.987074178885495090e-01 -1.838758830778267350e-01 -1.052855595550711565e-01 4.767743466218643186e-03 -4.577030714640992898e-02 1.283314839715595512e-01 1.609662963352744280e-01 9.712677367945346529e-02 -6.093394071195340489e-02 2.062921649714614669e-01 -4.281734004813742556e-01 5.687909165093003178e-02 -9.237394433680186714e-03 5.356842817101771514e-02 3.772384593260494356e-01 1.755279438423694091e-02 -8.307234890897580160e-02 3.066279231574052244e-01 -1.222169251711682642e-01 3.204665743784981813e-02 2.346277418154454897e-02 -1.541819561705844444e-01 3.525208026123697325e-01 1.274343634517970392e-01 -1.269327999792362049e-01 -5.641137092467830849e-02 -9.896065012212025558e-02 1.281556295802039891e-01 -5.627838391827681003e-02 -8.389633227652200376e-02 4.041725695616614489e-02 -3.050109450617729742e-02 -4.384876982615347196e-01 -4.887026925810741829e-01 -3.768490974752173456e-02 3.012945390693337888e-01 -8.240016439143975358e-02 -3.568269359940808017e-02 -8.875625016553560787e-02 -1.288834636945421774e-01 1.317561250761240255e-01 -6.449406974340087251e-01 -3.004940825433609075e-01 -5.520207917428596733e-01 1.168997640815178270e-02 -1.384489591050642177e-01 3.098826164004948869e-02 -2.756262020138411113e-03 -4.652591985920636608e-01 9.335980825663434124e-02 -3.632918910929641143e-01 2.841616518825836393e-02 2.176152539470508906e-01 -7.789132635247988934e-02 4.162472783463910808e-01 -3.519387966019420222e-02 2.084126681426725636e-01 -3.871250678703427872e-01 -1.423260434381752593e-01 4.227882260787257929e-02 -1.078931515826837828e-01 -2.674111545090793532e-02 1.825687698547158108e-02 1.103820554599407311e-01 7.396962988735054922e-02 -3.595080347214559685e-02 2.892709125291333394e-01 5.275460076760755124e-01 1.311108855083109870e-01 -8.934148622286622321e-02 -2.874675060796681447e-01 -6.639686959026948332e-02 2.048715603043570199e-01 -8.909414942360954770e-02 6.277034864348959298e-01 -7.140066128334128515e-02 -2.110768219150453706e-01 -1.987893964224105026e-01 6.446414863736890655e-02 -2.840605159796773596e-02 -1.423655469160655107e-01 2.192027676658387103e-01 -1.322698651184675001e-01 -6.766916338899015004e-02 -4.701340717100063391e-03 -6.176068363734275174e-02 -4.618801360064538758e-02 2.417197293948573911e-02 -1.336208246666736321e-01 -4.928688452299831435e-02 -7.122821492385841835e-02 -5.513852943954631325e-01 -1.307035289094097552e-01 4.323541369985150346e-02 -4.149238937395447607e-02 -2.797105858370699943e-02 2.701748136058275129e-01 -3.796313857841871614e-02 5.734174790149656475e-01 -7.623979804638354729e-02 1.970043252132336609e-01 2.896182443185204083e-02 -1.349439349543735955e-01 1.571627228765498929e-01 6.617442425139292983e-02 -1.128521047096619490e-01 -2.455837266001192898e-01 4.148263467434084445e-02 9.669487565571226184e-03 -6.651250644928750899e-02 -6.550442609558981832e-02 1.470173275988911343e-01 -6.841603505017578302e-01 -1.074244275054784953e-01 2.410217242280162861e-02 -1.238012105274580721e-01 1.022618718249646286e-01 8.087394682943040147e-02 3.014203148373995611e-01 -2.432919794950657785e-02 -3.774663864261843665e-02 -1.087151020613699899e-02 -1.698819607856430214e-01 3.021303288798836140e-01 -1.939303391509750174e-02 -1.015344901177767378e-01 5.391733868342143965e-02 -6.015153054938411105e-04 5.312021588588246301e-02 -3.038196791005945974e-01 9.646401009797936354e-02 5.771076299814675153e-02 9.237286412545056211e-03 1.681947088606756124e-01 -2.339534664388751850e-01 -3.312555902902888233e-02 -9.142875402067254798e-02 -4.448560431110186453e-02 2.407532825258733300e-02 -1.231440374010060387e-02 -2.575252186604513049e-01 9.341656172022230753e-02 -3.563961042649922695e-02 2.268451488729052445e-01 2.020849493991902501e-02 4.068657569175594679e-02 3.344804483364194336e-02 -7.143687005902249303e-03 -1.914045275440453553e-01 2.759054417866881326e-01 2.788208323445226511e-01 -6.242944102419574204e-01 -2.652997024567048112e-01 -1.110874925172600919e-02 -2.045174236271978668e-02 1.499032433101866735e-01 4.213733232577739768e-02 -3.688533475681197715e-01 -1.028822990571210544e-01 3.642802552988317344e-01 -2.814355835261043159e-01 6.834918718220155121e-02 -9.379754688437483279e-02 -5.578596839881812264e-02 -1.784956246138538760e-02 9.000296506820811004e-02 1.401797096574009804e-01 -1.981393324156532632e-01 1.113621968417583818e-01 -1.178788108424355524e-01 -9.059715279562677304e-02 -6.438704213353702022e-02 8.292298187371545393e-03 1.883130681433898557e-01 -2.071460510124600307e-01 1.879682552297083364e-01 2.401366932209610672e-01 -1.212120356302686802e-01 1.175024836549196511e-01 -1.060675097218957974e-01 -2.324488045755142285e-01 2.637722710401979587e-01 2.838688249576156730e-01 3.805564970083789855e-02 1.250201324378290985e-02 7.581884466149321766e-02 3.062723593096755015e-01 1.315598392126589820e-02 2.462962145454288820e-01 3.378874034971606627e-02 8.642808900983409703e-01 -9.818261937152657215e-02 -7.974444693953076924e-02 4.553870203066075900e-02 1.055140174585918189e-02
3.421142146901781644e-01 -6.701156086655742083e-02 3.568198219764963652e-01 -9.884303444591320542e-02 2.545304013341282423e-01 1.396311520008325195e-02 -1.161074577722100293e-01 -2.011669956111440116e-01 -1.464066843508374793e-01 1.625091434234606502e-01 -1.116160869511393927e-01 4.151993863767903248e-01 -5.165072244784399969e-01 -1.230316216890860320e-01 -2.438786255869360153e-01 4.335881238882489108e-01 9.926556619073699517e-02 1.440985975311142586e-01 -1.763489121696460923e-02 -1.103674036988985391e-01 9.251588510503640228e-02 1.179485297707104086e-01 -3.368253093773002638e-01 -5.105899783457464730e-02 1.860553182308661291e-01 -4.336655574164485186e-04 -9.692608348177686461e-02 5.155940551908689828e-01 3.078481083115371456e-02 2.950509683510094128e-01 2.508423172323058781e-01 4.873182778742491533e-02 2.321437129895027596e-01 3.635515238676714778e-01 2.101534916780653864e-02 2.660586745322245927e-01 -1.240583851749943733e-01 -1.535219779042087396e-01 2.741504283589507596e-01 -5.500149240958927821e-02 -3.499974991545987679e-01 -7.611150630274639284e-02 -5.025236510016641706e-02 2.316319758067636458e-02 -1.478541271619579767e-01 1.630630349247924049e-01 1.990151317411431586e-01 -2.671457751493864219e-01 2.811327629936085648e-01 -2.476856581248566141e-02 -7.355853949903194688e-02 -1.239688334800096298e-01 1.693277122991135482e-03 -2.021094016927896808e-01 2.167576515341041732e-01 -4.403118505613932976e-02 -5.519919379075993032e-02 -3.081751713006631865e-01 -8.648950575959973852e-02 -8.212254315859203457e-02 1.786528348171446123e-01 -5.565005686619721725e-01 -1.899552501924662573e-01 2.516552101945396247e-02 8.458460640876883790e-03 -9.994928834410901630e-02 2.835478309944034492e-01 -3.476209745889614205e-02 -1.806367535015200032e-01 -1.385358863864686041e-01 -3.041543208507550000e-01 2.696796166358915101e-02 -2.815936352253133323e-01 3.317752603569957270e-01 -1.261962654738106593e-01 3.394813640695795720e-01 -8.976963472269734734e-02 5.833852812033391011e-01 1.592674535480860243e-01 -2.858561207823581696e-01 -6.292418878312973710e-03 -4.958343905900348264e-02 -5.761204488708571159e-02 9.841827238046751969e-02 6.118805098320465735e-02 -4.101666489720346420e-01 -2.006013588321924890e-01 1.354187807918277517e-02 -7.058955641169668838e-02 -1.031269207630328422e-01 -6.357884432397596652e-02 -2.491965850779013017e-02 -5.217842732436545061e-01 -5.212664149285368975e-02 -1.132342893205391804e-01 -5.398547650933022135e-02 -4.067566384234506116e-01 1.692952884702290592e-02 7.181445540411061229e-03 -5.947053425724844328e-02 -1.396236291292439757e-01 4.057962540858485456e-02 -1.630421656629392757e-01 -1.129441388697061538e-01 1.674945782169745892e-02 2.498923652112546023e-01 -2.738645412924654576e-01 -6.193906316362620020e-03 1.583669563560135274e-01 -2.992420547094504224e-01 -2.804632395019488467e-01 -2.809364589804604351e-01 -2.446701064634357603e-01 -1.293689006818888598e-01 -4.555820990141575266e-01 3.826002006164280680e-03 4.698595181533059273e-03 1.298864848345117617e-01 1.461786446006721300e-02 -2.851574363897125056e-02 -7.660232700917141146e-02 -1.409830772073639160e-01 -3.526598409461374761e-02 4.844426852361131686e-01 4.234713405556151528e-02 -7.120013968060967535e-01 -2.152913218587608479e-02 1.097455621012888433e-01 3.302696155798445776e-01 1.383861647836290842e-01 -6.266939323331012501e-02 -2.785165392862470456e-03 5.414095571158931142e-01 -9.859142337483797758e-02 -7.509231611708957477e-01 -5.103336777225710996e-01 5.037247368679229759e-02 2.168022970417998740e-01 1.430405536921451094e-02 1.512143397705086600e-01 -2.545713210299743734e-01 -3.133639632461300839e-01 -1.080604111152045632e-01 -9.426415276234965945e-03 -9.262242262599777731e-02 3.566492523270810011e-01 -1.163308385380289467e-01 -1.193942882352424240e-01 6.911777412193580439e-01 -6.357972239701691584e-03 1.229906593567219319e-01 -5.075925926191674487e-01 6.599871937914888326e-03 2.691162899032823255e-02 -8.674331471914308034e-02 2.624016788526528643e-01 1.783718321334943624e-01 -9.113388653757555080e-02 -1.938635566021707779e-01 -1.223514721191789889e-01 -1.116003727720360217e-01 3.354050387074768991e-01 2.518070283957111744e-01 -9.475934707040421789e-02 2.635289652698191154e-01 1.264669474669216920e-01 1.021981645366016045e-01 -1.811117292315180677e-02 -9.101875365615323676e-02 1.336435876075624529e-01 1.646719564661745516e-01 7.033537075751193635e-02 -6.350683381664994076e-02 2.190984955257406497e-01 -6.860764594912613368e-02 -4.716760090453734344e-01 -2.893621474000821966e-02 -3.571601531822319459e-02 2.990211548955943321e-01 -4.399000385029821353e-02 -1.515535995587029006e-01 -4.351420737288673457e-02 1.645727510886765485e-02 -1.044146058945539801e-01 6.620799614003304578e-02 -3.454400404531463714e-02 -7.223909788172563906e-02 4.383871588093044003e-02 -9.882328311161273082e-03 -2.998239158686465955e-01 5.233631825083770450e-02 -1.822401500445828826e-01 -3.293142271348976080e-01 6.933610928815139851e-02 -8.029311833000990148e-03 -1.373873044433739365e-01 3.226195551179545928e-01 -1.661888188037970171e-02 9.005880677608120444e-02 8.844272523197478642e-02
-6.009842560950914292e-01 -6.131370109535758811e-02 2.749678712196091945e-01 -2.552819373569080175e-01 -5.953243302074479049e-01 1.240837030205114294e-01 5.067180664873011109e-02 1.685933916848714464e-01 -1.008317296027634313e-01 -6.860782526851320895e-02 1.143589541813025134e-01 -2.908858312344313468e-01 9.627195525312072510e-02 -4.638094974240091622e-02 -1.209026081792533361e-02 2.204035545605414204e-01 -4.735646766103235317e-02 -1.786310133781448262e-01 5.733896790747538413e-02 4.568083144108096016e-01 -6.124902069414783767e-02 6.935168433722141770e-03 5.317711199523834226e-02 -1.164294941937714517e-01 -2.877870757814826042e-01 -1.353729650566279086e-01 -4.997446150386055524e-02 -5.290956863668125898e-01 3.162346351946266482e-02 2.674814807057037669e-01 -3.870283247873964466e-02 2.173702967079588488e-01 3.033699492358092331e-01 1.367357557426512049e-01 -4.800928396394337633e-02 -2.522488000852637913e-01 -3.295223292848223351e-02 1.756981238411234048e-01 -4.602859194843132717e-02 4.603827009975004075e-02 -5.151757130291859665e-01 -5.774745363655624242e-02 9.816915542069712744e-03 4.326991984403891212e-02 -7.152712186910594079e-03 8.862516243805310112e-02 3.061023898155042500e-01 -4.025105280241568773e-01 -1.989036932824748694e-01 -6.122400979504718371e-02 -6.261094115184794029e-02 -1.363473526090297760e-01 -1.085400494074628547e-01 3.242787004073265922e-01 2.491909356286088340e-01 1.928370832747390851e-01 -5.946326488626099693e-02 2.875302178139503284e-01 -5.877383540251058386e-02 -1.159575104778716864e-01 1.803636087543295519e-01 1.119553256259184920e-01 1.493240326978745591e-01 8.472269973851687119e-02 -1.678927935214938674e-02 2.698833591294752879e-02 3.387906598326213548e-01 4.453961422298629430e-02 -5.741867607093434009e-03 -9.824525571169157728e-03 -2.634404749334124177e-02 1.572813311625665122e-01 -2.513194504038955834e-01 -3.095490657077701324e-01 -1.738192789254159806e-03 1.135942957624990202e-01 -3.158295479146371737e-02 -4.501885005839841858e-01 1.112097643775206979e-01 -4.143411757674091977e-01 -1.407544946018823850e-01 1.372833040037234331e-01 8.389538031615675906e-02 1.330258294185402423e-01 -3.506991300074350781e-01 5.035716458674204254e-01 3.179815866657578066e-02 -1.218033880176310341e-01 -1.861764678695066733e-01 -2.705576752690372899e-01 3.460300687222293836e-02 -1.806663403080885910e-01 4.847036567027495635e-01 1.707948528150886238e-03 -3.641342499279998091e-02 -1.797257142116854070e-02 1.059162573257105555e-01 -2.149136527174180106e-02 -1.479246016971966782e-01 -3.722440516219034656e-02 4.600658566189573528e-02 -3.483604779991968381e-01 5.321827182771281944e-02 -2.656251931709887049e-01 4.760188954661881411e-02 3.227908643695000246e-02 -4.412504557487594709e-02 -2.008914231468688846e-02 -5.048129091478157360e-01 6.592733406642639626e-02 4.594482312144381742e-01 2.124230952990715030e-02 1.592387859504148795e-01 -7.947115743433567914e-02 3.705840770320870670e-01 3.511426361249370132e-02 -7.205454453236677381e-02 -4.291726782318070615e-02 -4.425924930876968394e-02 -2.342723300465135786e-02 1.003799567427769435e-01 -2.053416456641227461e-01 -2.575357263168667199e-01 -7.701411689079810940e-02 -1.204253918056806261e-01 1.835946970110838294e-01 -1.331118432312604627e-01 -9.151309707566031640e-03 -3.000558874907224838e-01 1.521016345971441981e-02 -1.781193110683762793e-01 1.284464755042220852e-02 -5.893503496936622899e-01 5.206431078150199933e-03 1.450683889530828830e-01 2.012802503854744796e-01 -5.796557919088956429e-02 -7.518966056721756441e-01 4.138435305993082985e-02 5.236244051584914017e-01 -4.172374291203558294e-01 -3.144166988319194167e-02 -1.673308521904227075e-01 -6.981686426581730498e-02 2.917297741601333760e-02 -3.383998948757782621e-01 1.396472762124312261e-02 -1.559946171233348722e-01 -5.108654575819772115e-01 -8.297238183530626643e-02 7.546326246145975900e-03 3.075750563308030441e-02 -7.788122641355506304e-02 7.291306910820638532e-02 -3.549150342486986909e-02 -8.332092261606897921e-02 1.816411342507146531e-01 -1.263951496984925538e-01 -1.605545977443960728e-02 -1.201013553355067820e-01 -2.308792541501835105e-01 2.065206271155597684e-01 -7.425899194792388858e-02 -1.089737070548071375e-02 -4.979043967537127857e-01 1.026838937046641448e-01 7.790607407131189613e-03 -6.268802236704652808e-02 -1.486963333098027251e-01 9.526011857790328552e-02 -7.530284358799912980e-02 2.139694740610132428e-01 3.085739953724490198e-02 -2.221336729849120728e-01 6.771970252634178233e-02 8.642217425948880982e-03 2.049991192355180014e-01 1.514079571859896500e-01 -2.665873703021982011e-01 2.271016017725702996e-01 -1.612593548934899146e-01 -4.220226982256128911e-01 -1.333691134102996667e-01 -1.343646233769890119e-01 5.903165668935902444e-01 3.134370886796405409e-01 -5.803290809210766010e-01 -1.569139710831425061e-01 -1.145445950739889113e-01 2.987295567706810262e-01 -1.695724922329536330e-03 1.923220313379964963e-01 -2.427258094192952520e-01 -1.307776274839134688e-02 5.977472086162866072e-03 -6.886010971096964695e-02 2.323481667116797100e-01 -1.075198789962133056e-01 -1.068275168028854777e-01 8.023258922824726136e-02
2.135440077995900410e-01 -1.624923094734237808e-02 3.651769219664658950e-01 -1.246124536157371399e-01 1.420704793875898486e-01 4.403113839794223217e-02 4.218787718770957568e-02 -1.282953899153638742e-02 -1.266801608635468313e-01 -9.614904081015465676e-02 1.433094392441972287e-01 1.881450137284101931e-01 2.556114016396359157e-01 -1.134971503172588214e-01 -1.709758547526303019e-01 4.567041166332286989e-02 5.683922861729313880e-02 6.203897974760428508e-02 4.305007803541934658e-02 -3.435814034650169768e-01 7.169977613472235112e-02 9.354479051011291291e-02 2.217262083410836693e-01 -4.559409418422604582e-02 -3.794875320164598498e-01 -1.738038041217548901e-02 -4.534209938543135726e-02 3.579134356928076466e-01 2.627317589242643692e-01 -3.633322493849394097e-01 -9.124051029389404488e-02 2.529288955452286269e-01 2.322483835723495316e-01 8.712091145675696091e-02 1.200288967835414222e-01 -4.994320717893558914e-01 4.542465526448303398e-02 1.255838395654548245e-01 1.913425492195945654e-01 -1.926748414820243227e-01 -3.633590890534275641e-01 -1.300219836175638089e-03 -4.972426962958834129e-02 -8.491736460375971796e-02 4.983297426771512995e-02 5.414963273799501264e-01 -6.825174655591610406e-01 1.897045643163068271e-02 8.098095361350881108e-03 -8.639920925457553191e-02 -9.370695186258128084e-02 -1.041903461598855385e-01 -2.261674357212744776e-02 4.091223595577484495e-01 1.179974299251972253e-01 7.252514023058626025e-02 -1.649459549104975997e-01 -5.241712066463152242e-01 8.988345962621012430e-02 -2.074996144460580505e-01 -2.100519823103424166e-01 3.112464375520034299e-01 -1.410034490923879891e-01 7.186765851037985042e-02 -3.949584075772547692e-02 -1.290078647515881249e-01 -1.677302129848119994e-01 -6.341573589937794797e-02 -6.857992473169631509e-02 -2.227052243142976437e-02 1.104417676806649373e-01 -2.869783566106404171e-01 9.789629087115445105e-02 -1.840364301700000149e-01 -6.471039943405337835e-02 -1.839136226393128237e-01 -7.746646022476802451e-02 3.333667619062524734e-02 1.322963472192567602e-01 -4.490379901685951913e-01 -4.676850025360323321e-02 1.423740182522404973e-01 -6.589043052434316594e-02 1.448707221470433570e-01 -5.068855735508569493e-01 -1.491287738897407456e-01 1.802460462397345864e-01 -9.437952830634584178e-02 -5.941190588289728403e-02 1.758516771017389416e-02 1.633425288198987399e-02 -9.924070293261855885e-03 -4.891620611420139930e-01 -2.868000411938684963e-02 -8.157901261666723747e-02 -5.843007567246163991e-02 2.015128882006639033e-01 -5.974489877470708782e-02 -9.093406663488429187e-02 -6.498348103648578233e-02 1.035012782975574738e-02 -3.724317689296215983e-01 3.360047080881262832e-02 -5.768621304504265718e-02 7.445227445318844395e-02 4.715237133133056147e-01 6.886418215994868745e-03 -4.346993473658895824e-02 -1.530515342647106036e-01 -1.285625093496917115e-01 -2.655092255682783287e-01 -5.870239319179500898e-02 1.974420069804173894e-01 1.508644057767977859e-03 3.933459104678834195e-01 -7.267730390442392330e-02 3.179058795725951403e-01 -7.011425711834183561e-04 -4.199929289134479021e-02 -1.923023496189389669e-02 -4.684418989310397408e-02 -1.830682818317478089e-01 -5.724827570284604650e-02 5.636505813743208915e-01 -1.362271311285986886e-01 -3.879636997917088048e-01 -4.205649271569290165e-02 -7.341824496003311606e-02 2.200521711903884459e-01 -5.980925721760162878e-02 -4.118234730137735472e-02 1.356000397210322672e-01 -4.340526105469578733e-01 -2.079111815929253482e-02 1.749442469016185969e-02 3.206400780001751327e-01 -3.696626132784078603e-03 -6.503748581287037700e-01 1.324608965942392913e-01 -2.780246052938554202e-01 -4.032601001230362581e-01 -1.001158138988454682e-02 -4.920345514363608230e-02 -1.629010442906085321e-01 -2.688154158934613971e-02 -3.844537577765280711e-01 1.381998064701641105e-01 -3.179263721294272593e-01 3.210247000236736703e-01 1.231114513945997663e-01 -7.565051599984025377e-02 -2.159499737935435260e-01 9.855325882277005123e-02 3.998603318035426867e-03 -9.288372469088787553e-02 -2.941693859188358462e-01 -4.355881909972822430e-01 -6.048099733471607592e-02 6.525118559663312112e-02 9.248751246221806332e-02 7.985275429614126230e-02 2.621501765456585864e-01 1.435590586170175653e-01 -9.456746809453145386e-03 -2.534919387846960026e-01 -2.119337374400790674e-01 -2.322544631187068165e-01 -1.714886009607133679e-02 -6.574062302118863221e-02 2.324451563781329555e-01 1.765628359502468547e-01 -2.936772501043322103e-01 -5.305035917895956771e-02 -4.096453577294455473e-01 -5.021163105793461506e-02 -1.048881373969523384e-01 -2.101010579315066434e-02 -5.496389403393529827e-02 2.524581624948593617e-01 -2.754043867517708133e-01 -1.142719074977089772e-01 -1.888340965738607991e-01 -1.166069937992153388e-01 2.383257847553072600e-02 -1.078195984466629072e-02 -2.562692556612908845e-01 -3.813815270030621041e-02 6.111243140140660834e-01 -1.003349267584587867e-01 -4.788544791835164793e-01 8.005619105864045237e-02 -7.284226757452803847e-02 3.920535429302204888e-01 -2.368361294673259829e-02 9.452739161323146788e-02 5.208294419058852043e-01 3.981610879849504236e-01 -6.390510396919399372e-02 -6.267484219383438748e-02 -9.528587498544930853e-03
6.264797112545092417e-02 -7.248091815714743924e-02 8.710818722523960833e-02 -2.314129202999599122e-01 2.440042245533914633e-01 -1.885965188696246131e-01 -2.296625163196112235e-02 -2.847159707062782430e-01 1.257779804858501563e-02 4.798118093033325315e-02 -1.385317075008258257e-02 2.446301607661137412e-01 -9.356796252337377245e-03 -1.624446967105668271e-01 -4.285039768499655788e-02 1.666785489405713527e-01 -2.022169714955242628e-02 -6.965480191529567489e-02 -5.952669395890146375e-02 -1.936352780035779653e-01 1.463325870146433005e-01 -1.164300368396783136e-01 -3.349046682625277105e-02 -1.323129526669130362e-01 2.102940572109708861e-01 5.114036301729716488e-03 -7.582652631649292041e-02 -1.649684768288328107e-01 -6.970510327177230625e-01 1.104379158741860822e-01 -1.046370613162368179e-01 8.451699925497981047e-02 4.504539938095141194e-01 2.611421224789337581e-01 3.441043479826529777e-02 3.392181453660848139e-02 -8.581984383220368773e-02 -1.404381038061015274e-01 1.261073889620202004e-01 -3.186203445790893735e-02 -2.005612615188350489e-01 -1.381786098632314108e-01 -1.176695309416178198e-01 -3.442796562306845321e-03 -1.121428551318286865e-01 6.079127820609708799e-01 3.817448027647544762e-01 -4.609500133456903015e-01 -1.432459804582814356e-01 1.582086108669636948e-01 -4.734382606028337409e-02 1.225742020431424065e-03 9.107541499079620240e-02 -5.266471176969972356e-01 1.660413583882101585e-01 1.521318318943805092e-01 2.785375211949438490e-01 3.869011388104743876e-01 -4.422044408093890600e-02 -1.585856873425986191e-01 -8.873810347436066059e-02 -1.288939552047134451e-01 5.642968603229674140e-02 -2.522336437752624103e-02 -7.980084535875195395e-02 -1.426505047462386377e-01 2.715161275095944737e-01 7.704169527984841039e-03 -1.454754171046557243e-01 -5.452351215722692906e-02 -1.829609607803387439e-01 3.574813278813701589e-01 -2.484649025110395315e-01 5.626593117017981704e-01 -1.046645299390743938e-01 -1.789868084929648329e-01 -9.730096385154021754e-02 -1.191859896871272778e-01 2.431318622015859465e-01 -4.530689175824621495e-01 -8.478390757526364785e-02 2.527687648870140247e-02 -7.140722755999270865e-02 -1.063762717142939657e-01 1.647755520136390955e-02 5.014726750694982194e-01 -2.005528066516142627e-01 4.598165384695432345e-02 1.040304313081605488e-02 2.349765680619808270e-02 -2.675085156376376394e-02 -4.317487467392014389e-02 2.684072411882952869e-01 -8.044948045903568823e-02 -1.236625256773424015e-03 2.910856951111540428e-02 8.359883377841879903e-02 -1.218627249409604159e-02 2.742134480300378527e-02 1.062304102971822935e-02 -2.291883621980381203e-02 1.732814516924644499e-01 9.028107069923421713e-02 -1.767140984581927754e-01 1.759929435991445731e-02 -2.689266932367725960e-01 -2.960663373910577545e-01 -4.517354469847259524e-02 2.294508865353729055e-01 -3.308660890566140211e-01 2.351859402423412959e-01 -2.648794154874474227e-01 -4.264161772129510530e-01 -1.440798733188604908e-01 1.184297731201370968e-01 -1.184269823218608159e-01 -2.098091219678093755e-01 4.322100045749716762e-02 8.230848860347061632e-03 3.972700802298439332e-02 2.705758218719667499e-02 7.503860128797268381e-02 7.826756595208329836e-02 -4.883110849925633157e-01 -5.248209479953332146e-02 2.648044326188596642e-01 -2.547647636979066821e-01 -1.681703506638259349e-01 -2.288022866205617623e-01 -1.246968382875777021e-01 1.839169559834398157e-02 3.496836418775517430e-02 1.050517271328133134e-01 -8.875241229209500371e-02 -3.795858506775431906e-02 -8.389619760521609404e-01 -1.013979458733677702e-01 3.826938319575027281e-01 3.202845953612713098e-02 2.829652164091998046e-01 2.005918896334804302e-01 -8.427094185709780444e-03 -3.216232483047402717e-03 -2.696860417527290749e-02 -3.359738424122831607e-02 2.194775695030698470e-01 -1.258018718936258773e-02 2.549455486043582519e-01 -3.439779510674711993e-01 -2.772643107312057834e-02 -1.157449208550342390e-01 1.144405880381350882e-01 -1.056401156724300905e-01 -8.816733073014550170e-02 -5.061039411924949522e-02 2.060102731632753592e-01 2.765767988190944160e-01 -3.673956654611491013e-01 -7.208635927662765397e-02 -1.986919530189452665e-01 -9.668528562456014941e-02 -4.187993401171588581e-01 -4.383633742229924024e-02 -1.126794185565625078e-01 3.937407332084927880e-01 -1.379231137782843397e-01 -1.164913877494841848e-01 -5.691308685874398032e-02 -5.419407194961166352e-02 -3.365475351303894719e-02 1.631535197129851955e-01 1.616206176533990235e-01 -8.267067093973333447e-02 4.050275872538848243e-01 -9.534082669666381349e-02 -9.308020101906581967e-02 1.369437666525826110e-02 -2.210339922055142015e-02 2.491446015854577867e-01 9.214175611772167096e-02 -1.304490051483530588e-01 -3.845701785114947757e-01 -2.091082306462047763e-02 -1.175103859219713415e-01 6.140931462367004157e-01 -5.214039570514856781e-01 3.245797807268994625e-03 -2.585877101318154181e-01 -1.152897215289145072e-01 7.468484097870651262e-01 -9.197453800480619168e-02 -6.065162616032975657e-02 -2.963825388168602748e-01 2.456626331940197916e-01 -1.285616816597156264e-01 -2.088300550867945304e-01 -4.479872404903442185e-01 -1.969752792831169080e-02 -1.022150150646855410e-01 2.640048901672190432e-02
4.861831254222427623e-02 1.466769075804052747e-01 -3.288016776974707622e-01 1.111194969186233422e-01 1.578455045454137951e-01 2.723007221438373260e-01 -1.468862115721519257e-01 -1.902355070368272061e-01 -5.700497149668305036e-02 9.500277449010458009e-02 1.166449260515003417e-01 3.658042526708854547e-01 2.380219476007227331e-01 -2.612512237080784339e-02 2.723759005879731188e-01 -6.949050846678277160e-02 -1.572159174814756477e-01 -8.536803056163623504e-02 -1.358002956716635734e-01 2.735384128045313945e-01 7.221431840945945202e-02 -1.667616364730944989e-02 1.839772447133967148e-01 -3.701096170901146953e-02 7.197640618852935157e-02 -8.683778686785882661e-02 -1.476293828940352937e-01 -3.600328728335014938e-01 -4.185993625322991657e-02 5.005025135017602406e-02 1.775402876923600215e-01 -1.093942164999490638e-02 -3.688215808745161084e-01 -3.126568183430563086e-01 -6.842402698411541306e-02 1.890406111692339575e-01 8.407007698903680437e-02 3.710459363484142070e-01 -5.067100070529461098e-01 -1.310888951099902777e-01 1.685412800238783870e-01 2.126673173438804396e-02 -2.318315555860898658e-01 -6.450616742202711085e-02 1.814308846893856741e-01 1.472458986725391772e-01 2.520790676659925844e-01 -3.126788540924810289e-01 5.400672280889363686e-01 -8.392100505789554243e-02 -1.189207372999477041e-01 -3.678638227434650326e-02 -6.046892236315023345e-02 -3.649380051656214707e-01 -3.692190592442256558e-01 1.234185894621584179e-01 -2.208174614284279802e-01 1.537811620607538454e-01 -1.129329505375242515e-01 -1.731709742474087377e-01 -1.517521978287382500e-01 -1.699513340172860709e-01 -1.049746205709188862e-01 2.390404719814774592e-01 -2.669161144107393309e-03 -7.781805185306175932e-02 -2.710661874731116749e-01 -5.601579041097299455e-02 -5.618969326913261092e-02 -9.939635268471476437e-02 -1.794127215519370211e-01 -2.710562925485935359e-01 -2.430367307335930607e-02 5.824787745429173963e-02 -1.326546626243197136e-01 -2.022528475749870713e-01 -9.332503804991511276e-02 3.000338028395383438e-01 -2.777066940331542333e-01 2.107280813837510702e-01 -1.521568453073280647e-01 2.466397664553323099e-01 9.554037248198000987e-02 1.447289322435488523e-01 6.053485957843523363e-02 8.326118509457262895e-02 1.237440076564926827e-01 -4.997848129568838171e-02 1.171323850749556722e-01 9.027885805641051864e-02 -9.620447677234623962e-02 -5.996622949321064183e-02 2.077287266006496158e-01 -2.356036191888467024e-01 6.429164114946342434e-02 -4.206460737597275679e-02 -2.194553316814612867e-02 -4.604532214310554095e-02 -2.770572233942256157e-02 2.993832791857864439e-02 -4.017275437147628699e-03 -5.194350232704499915e-01 -2.521779355020404845e-01 -4.565740976274848539e-01 -6.200254997203812762e-02 -4.971255587102054729e-01 1.614810195387859637e-01 -7.771625194618969265e-03 -6.585092018341501818e-01 1.355998579325311815e-01 2.128033720544363627e-01 5.923129073586015370e-01 4.192859916456551095e-02 -8.591901556775043136e-02 1.821597862129500645e-01 -1.057802335192279536e-01 -1.285285689848910951e-01 2.249610177981281600e-02 -4.750855380225840752e-02 -4.069465304883130297e-01 -1.189254564741321907e-01 1.879688662410945177e-01 -1.015290338115786700e-01 -3.060124651983875399e-01 -1.386389992428888607e-01 6.107734453129070457e-02 -1.010340534887393393e-01 -1.008824895473917627e-01 1.285464431523054007e-01 -3.856859982474177689e-02 -2.710573055561855613e-02 1.026041182301026811e-01 -2.386153964590780607e-01 -6.551830111333338535e-02 3.367226822159929966e-02 1.806655767154163039e-01 -1.656108044638049115e-01 2.603020168152792579e-01 2.359634917940076626e-01 2.408352467091279536e-01 4.820943706169274479e-01 -2.386087131649430038e-01 2.771193249081031762e-02 -1.579491964986505792e-01 -1.433568882256341936e-01 1.374984526772314586e-01 -2.878312337923048525e-01 -2.094170064404160189e-02 -6.771337599002907881e-02 -1.402440099272630192e-01 -1.182154224958121141e-01 2.437687666744889903e-01 -7.925838284912761766e-02 -1.080612115149459131e-02 -6.834880671758659758e-03 2.014214970496649437e-01 2.159836972449040160e-01 -4.143663291272107682e-03 -1.481197099395304417e-01 -2.410862235615306992e-01 -4.003437212758681474e-01 -3.667862974587755565e-01 3.007709935927711520e-01 -1.801548626506713213e-01 9.280584534814744282e-03 2.317876452156305001e-01 -3.166140045872508496e-02 -9.955747612166250538e-02 -1.851300235107269238e-02 -2.620206346321717339e-01 -6.409739423538139691e-02 1.050319815796375671e-02 -2.087125832140823700e-01 -5.254945139360308465e-02 -1.353705260157226642e-01 -6.169251864088481224e-02 1.544771844107103442e-01 -2.033003417358095755e-01 3.295415577740675728e-01 2.896737622550419819e-02 -6.865656343286676011e-02 -2.360857500674820864e-01 3.594902338073652226e-02 3.355874456467468070e-01 -4.431921084400453625e-01 -2.636738378739054700e-01 2.613346437309144177e-01 -5.668672982092587409e-02 -7.168775124442514080e-02 3.247602661440888300e-02 2.899632697251749904e-03 -3.252509069798470431e-01 8.932869152050931794e-02 -4.123193515066405079e-01 -3.178465252359957693e-02 -3.151534172138101275e-02 -2.401554381999292109e-01 -1.572075200298168329e-01 8.791806853708905578e-02 -2.520106403098186856e-02
2.073145117244536706e-01 -6.016013733712860523e-01 -3.233369313545664259e-01 -2.020131345127548217e-01 -4.435715645723214418e-01 2.527302263903594137e-01 -8.220774841254703535e-02 3.765675051297259768e-02 1.909991494438151652e-02 3.841271360468721807e-02 1.731438480108580813e-01 -5.846925542408073495e-01 3.081841595741905415e-01 -1.060665426433586300e-01 -4.032645763368348235e-01 -1.753085022106796731e-01 1.054429871054411022e-01 1.674065498972345661e-02 -1.038818429174374058e-01 9.340849760221189846e-03 9.865175865979555758e-02 4.852081260880789643e-02 -2.618189795003548759e-01 -4.119556514448032003e-02 -4.431178260753176196e-02 1.660007805385860236e-02 -6.612003561081205780e-03 -2.172515841005497605e-01 -1.703051308690065047e-01 3.594726415976790546e-01 3.049060098280575448e-01 1.772982265090027390e-02 4.444752440608314981e-01 2.747956047649286471e-01 4.843405249668944479e-02 -1.751799075569762665e-01 -8.688108039915560382e-03 1.802680975568077618e-02 -3.999872491668113872e-01 -1.131270375983774584e-01 1.741835614319607595e-01 -3.621236564079057668e-02 -2.463301813220584446e-01 -1.033407601938458459e-01 -1.875510825743427132e-03 -9.761946323348162646e-02 3.728149902417076111e-01 -2.720038393998360782e-01 -2.130032920363955085e-01 1.139350171172912318e-01 -6.693146065139710110e-02 -7.952742402450500847e-02 -4.092831441088584828e-03 -4.256907677401926549e-01 2.452135719972402539e-01 -1.022768784539708431e+00 -2.944176245807178516e-01 5.906685221310080565e-03 1.167740072147138534e-02 -5.453451189142299871e-02 6.073281815685265261e-01 -5.781253400231167044e-02 -2.181830396098533853e-01 2.786060257600446177e-01 -4.406102508796644335e-02 -9.320201665307022154e-02 3.767145535200622786e-01 -1.173581242913534529e-02 -8.752766738801816271e-02 -4.810146019602800499e-02 8.947458971939746541e-02 3.609985068151483345e-01 -2.276072717119891342e-01 1.232512169526058798e-01 1.348060207392646516e-02 -2.838895251179985868e-01 -1.483043202446538214e-02 1.825051384816579747e-01 4.653163799592023864e-01 3.798984073236355008e-01 2.316261714065407859e-02 -1.369655761565717091e-02 1.158098927500127717e-01 1.507953296124966425e-01 2.727096148683033072e-01 -1.127004850708709927e-01 5.380031680444313097e-02 -7.759984318728900543e-02 -5.047297186029909427e-02 1.509609696474375172e-02 5.854327336810790511e-02 -4.503566146841596340e-02 6.036138579393487101e-03 -4.314740544657279936e-02 -2.679846301655396112e-02 -1.913563405879686180e-02 2.037761899700001600e-01 -4.978999841980408583e-03 -1.959643488141497580e-01 1.089076766269944652e-01 -1.263358429609452993e-01 -1.196881956990258067e-01 -1.602882734097620110e-01 1.325835470600119637e-01 -1.945085323671381927e-01 -4.885680849677555559e-01 -2.359577356111684232e-01 -1.957143260409328345e-01 -4.363801669481293111e-02 -2.532131548726571091e-01 3.220888088579964559e-01 2.480577791244043331e-02 8.884653446598433923e-02 -7.959402767932277634e-03 -2.863506558741893970e-01 -3.680860344314646621e-02 -2.859524067113921597e-01 -2.563615500984046114e-01 -1.095875968896505848e-01 -8.646558174917635953e-02 2.261202593748663087e-02 -3.417615688701926002e-01 3.798640364981935302e-02 3.058651864467484272e-01 -9.916422213209572650e-03 -3.617679669413670918e-01 1.902273262193796000e-01 -7.153613637476195775e-02 6.481649964770237471e-01 -1.260869390914642549e-02 -8.554226221681375530e-02 -4.752104888965589385e-02 2.654635379689153640e-01 -6.764701473417596145e-02 4.732114686284577543e-02 3.328808182319782372e-01 -7.827490622758251360e-02 -5.337925686788240753e-01 1.732782164911139955e-01 5.512904823604404259e-01 4.616779354660718315e-01 -1.465631878184577852e-01 -1.888148004093231080e-01 -1.701582478377088037e-01 -1.691438393414320673e-01 -1.954212342613733111e-01 -1.256447389394949599e-01 1.424291978095841849e-01 -2.178124417749175146e-01 -6.139034427611643474e-02 -8.825255649281203707e-02 5.343080459224700679e-02 -2.578114513086149709e-02 -1.386183433487699068e-01 3.885390709880171684e-02 3.200843550427632245e-01 4.225691496042450340e-02 -1.605170849893423624e-01 -3.800964634796351327e-02 -3.385953516676872277e-01 2.179030169017099478e-02 1.823101261958526564e-01 4.396875496976602182e-01 -1.864006240782372856e-02 1.359866879886945101e-01 -1.904185268968562328e-01 1.702102006494021491e-01 -6.987077996708507266e-02 2.115117362297509046e-02 1.100913495630128497e-01 -1.484852278729185612e-02 1.484702348129697536e-01 -7.886640770026204228e-02 -5.610135937535688094e-02 -1.407798495800163634e-02 -3.565008558828693941e-01 -1.913309199457210452e-01 -1.025914799823484796e-01 -2.322984332828473553e-01 -4.651776338159293450e-02 -1.533240066950316283e-01 1.957707937599932613e-01 9.281115260721864435e-02 1.394221724706870835e-01 -1.100683935007665398e-01 6.517740210983462290e-02 2.000943669829644278e-01 -9.439972434839324911e-02 -5.516220878168633796e-02 3.297583611773126089e-01 -5.955298188323823044e-02 2.593569216923744536e-01 -7.641840331283872301e-02 -6.060902201147141261e-02 -1.535058167454270150e-01 -1.053139958353365019e-01 2.926796397833307251e-01 -1.374019540215300206e-01 -4.477249279838570878e-02 -1.261308034431339598e-01
1.483993922265651466e-01 2.962493695671436500e-02 -7.600029246460907606e-01 -4.776161407495110867e-02 1.500257153909631824e-01 -2.305899754324709228e-01 2.486296087804114666e-02 5.329678011151191969e-02 -1.249736659495228469e-01 -4.215909019502819821e-02 -5.694667502930265621e-03 -5.627145741724195460e-01 2.058465095559580127e-01 -6.846057656957671433e-02 4.095343325877535134e-01 -1.021048977093206162e-01 1.934526532826120245e-03 3.065732601924616232e-02 6.140089951326655089e-03 -4.450107280054234060e-01 1.345976544554257359e-01 1.166495512739736534e-01 -3.441620775642049157e-01 -2.958649042736630208e-02 -4.563452498456770784e-02 -7.406857638446642800e-02 1.492735281862099354e-02 3.985299569524924229e-02 2.496253706873484413e-01 -1.117391018615231969e-02 -4.107499384170716639e-02 -7.596978246631014287e-01 -1.804715714154961903e-01 -4.271062007365094004e-01 -6.075667686852470606e-02 1.251136929201838166e-01 6.123105616699218295e-02 2.063095204904077593e-02 4.560961622233266483e-02 3.227462741201507501e-02 3.610672826521761913e-01 -7.371840080696467901e-02 -1.103198446065575405e-01 -7.769700092570969163e-02 3.123967854056189028e-02 -3.829991772019000762e-01 4.710070166418562909e-01 2.964886038798501544e-01 2.292589770659776427e-01 -1.486459610312649247e-02 -8.501994070347745902e-02 -2.473326523706465691e-02 4.302311095725512569e-02 -1.494127914964433340e-02 -3.418112823567742709e-01 -2.451062933485808060e-01 -1.731221857653033880e-01 -4.487983644298115804e-02 -1.118703156237056406e-01 1.539063691377215715e-01 -1.072248218631596944e-01 -5.180254294525201558e-03 -7.894423111890103151e-02 7.382664385112150396e-02 -1.001038162992296393e-01 -9.085930982878745454e-02 -6.244464539954744930e-01 6.498102761843162732e-03 -4.807609534270571028e-02 4.937322788048411487e-02 3.509195872431420532e-02 -1.340346951318397428e-01 5.060164189745175456e-01 6.328206159486732263e-01 -7.852866044236955778e-02 -3.397079471445690335e-01 -9.631408640983946112e-02 1.768075192668851769e-01 -9.818742750019923693e-02 7.166154206111214134e-03 4.909781750943806311e-02 2.295388328238174430e-02 -2.296014581906955232e-01 4.625562647296548729e-02 1.276479508630105342e-01 -2.919678719842371817e-01 2.690233073224528038e-02 -1.739087828697469945e-02 -1.904673856989683514e-02 -3.436029446307296148e-02 -2.272552465763725549e-01 -8.265934626075492619e-02 5.787680369526308072e-02 2.757634002061458769e-02 2.739519858267218735e-02 -1.291000732880619728e-01 -5.008115854352599428e-01 -1.950999714429116350e-01 8.858565252522725489e-03 4.359282945611483301e-02 -9.769578709576461073e-02 2.132562640362937190e-01 -1.335580349051844300e-02 8.199897728571615974e-02 -2.016074226531880120e-01 -3.995651193471906892e-01 -1.000119179314492082e-02 -4.291751357465219824e-02 3.454199435997698520e-01 -2.680915375884457830e-01 -2.455619162051749793e-01 -1.050180023661219930e-01 -5.147777474968168177e-01 4.268481077075628183e-03 -2.230182704223944712e-01 -1.131246849837876101e-01 -1.667447472462728619e-01 4.738699769054487421e-01 -7.523039851653107180e-02 -3.114668907872822010e-02 4.700609508377801699e-02 -1.288825966489639541e-01 1.271373661432016224e-02 4.170564338142133121e-01 -6.637586159561068011e-02 -4.732054674255540827e-01 -9.569505708295659996e-02 4.065267863188148922e-02 4.045065809585454142e-01 -7.321987744739005821e-02 -3.936468499776416691e-02 1.260798530105333159e-01 1.624094652223571911e-01 -1.011429618707988948e-01 4.902349203883561019e-02 1.932773965432987295e-01 -9.482115067129633090e-02 -9.278881518944644136e-02 1.533443562273546501e-01 -4.155665336304019686e-01 2.799460494852524239e-01 9.710611458962280229e-02 -3.301051411084134773e-02 3.991030526059238109e-02 -1.359676650301963330e-01 3.453333323326661097e-01 -9.933968522015618197e-02 2.159291966503238402e-01 1.679566319528065232e-01 -1.656576015005046532e-01 -7.459430367597621146e-03 2.996187607341892489e-01 1.624888687480300232e-03 -1.384623365893478675e-01 1.405263512922909352e-01 -2.277170440001976548e-01 2.247601994146975479e-01 2.059187488625571216e-01 -8.078544152516259347e-02 8.697947434781592990e-02 5.721861807501571473e-02 2.886102826011892608e-01 2.447644939584586454e-01 -6.763099353662707647e-02 4.586110547798611936e-01 -5.326305568012486003e-01 3.864203533759741349e-01 -1.116712242681831280e-01 -2.261629267901025808e-01 4.762058637933871269e-02 2.405539634263530735e-01 1.744782072470783263e-01 3.574486139002615390e-03 1.615243629432401296e-01 -8.045731868624769745e-02 7.687886877580883682e-02 9.125371017943639806e-02 -1.167134378076511297e-01 1.836244462414038103e-01 -2.053698372827704455e-01 -1.978961377818211076e-01 1.751779986416974466e-01 2.457832606303624740e-02 -2.649464470562200580e-01 -2.035879336548308827e-01 -3.355925341412775986e-01 6.787213178002555747e-01 -4.444052138618664882e-02 -1.593316993826413841e-01 -2.028266548570307470e-01 4.992951954488710625e-02 -2.396102034249675272e-01 -1.086337544626802577e-02 3.113703853355801465e-01 -1.852337654028270719e-01 -8.729311568244506325e-02 2.858265475329670458e-01 2.030096910383345776e-02 8.408751480547621560e-03 -1.021329102966365421e-01
-3.701292221184257492e-01 1.109236547004578965e-01 1.650612385164892948e-01 4.984543444012144719e-02 -5.702578805921402205e-01 -5.031046322756843603e-01 2.505667869129778527e-02 -1.162161226924637303e-01 -1.355575907880315067e-01 1.650478260356272875e-01 -6.263806369479827385e-01 2.411254738392950847e-01 -1.624767459345349552e-01 -6.334339611173564477e-02 -1.199423600809504387e-01 -2.983748465041565212e-01 -4.804501619568353754e-01 -7.624489914675536273e-02 -3.549329242677252971e-02 1.235781640702176276e-01 4.497431935742463721e-02 8.366266711350470175e-02 2.129089319336081865e-01 -1.795438298698422697e-01 -9.440931389022463871e-02 -1.909909188890923093e-01 -9.999514086192519413e-02 2.541749840272533034e-01 -3.392616741323556395e-01 2.629002185963519866e-01 1.732129086863134770e-01 2.126513146265824883e-01 -2.903150404159561826e-01 2.783630901236870403e-01 2.284832876071569291e-02 2.661898132167185849e-01 -1.264224835155666193e-01 3.207470523102432663e-02 6.258302686719155461e-02 -1.664820206690801815e-02 -7.057363372047383010e-02 -8.871161733510181391e-02 -1.546590224223830419e-02 -9.511839906212857243e-02 -1.526991951811228765e-01 -1.581424084808960573e-01 -3.658523078174861776e-01 3.947342155064934577e-01 -6.860939672611526818e-02 1.824092623938696617e-02 -7.351113164255111687e-02 1.350503449103536424e-02 -1.461702861789548613e-01 3.700179355435705419e-01 -3.153258180948774192e-01 1.565006340539637497e-01 2.429749356493022538e-01 -4.715529268551581915e-02 -3.300446947874050713e-02 -1.809824046624922966e-01 -3.296017553353146612e-01 -1.396701276640843481e-01 4.066391825905362745e-01 6.112270644581944273e-02 -1.634542861422472737e-01 -6.612880336045226515e-02 1.349506084704585329e-01 -6.696115295359696129e-02 -1.788968205682397658e-02 -2.383896808334326489e-01 -8.811023534395805157e-02 3.460440353939860381e-01 -3.894451665736690105e-01 -2.786141349189671379e-01 9.409753368872030010e-02 2.731605271894669840e-01 -1.712020645934659302e-01 1.962993447252071311e-01 -6.411005991767809720e-02 -2.222907373173770851e-01 -1.566596665486449935e-01 4.528434012192729119e-01 1.707083047882205495e-01 -1.207957344600953413e-03 2.208184012288749443e-01 -3.374489100854641266e-02 -2.300947630402895572e-01 6.757217102736645664e-02 9.591237333149449720e-03 -1.116003429072831010e-01 -2.563616197021285903e-03 3.282149591343182585e-03 1.579615507691035925e-02 4.688087143643998589e-02 -1.261948636656673173e-01 -4.244918129235678017e-02 1.269334543653524196e-02 6.593682199404805877e-02 7.177790732904103244e-02 5.079875123937343390e-02 -4.088238957773694671e-02 4.925998730679344573e-01 -5.784522497051736850e-02 -1.182043846563110706e-01 1.208396682114179777e-01 4.050682794150010091e-01 1.615256864010523041e-01 -2.070597066677970222e-01 1.546556879901527515e-01 2.344142453967611867e-02 3.706838161091801087e-01 4.178197634701272256e-01 1.271991132855004036e-01 -9.703188851808877691e-02 -3.354229624223022954e-01 7.380638661267611977e-03 6.281279706310417821e-02 -1.477104198770422538e-01 -6.650285436830281893e-02 -1.443763606126582770e-02 -1.148535438226840240e-02 3.976122782946356349e-02 -1.750366455808458899e-01 -1.219379491411413247e-01 -8.738010785055123908e-02 2.841153652409387220e-01 -1.105459169736125284e-02 -9.060848395518056320e-02 -2.679954765785501070e-01 -5.814432125302160942e-02 4.584507074866317478e-02 9.202210034462256216e-02 -8.057413376398506188e-02 -1.024576399604913562e-01 3.360247810808741908e-01 -2.011030066282125661e-01 -3.785451128209996186e-02 4.038475406162307935e-01 -4.660912191415267358e-01 3.009991138285068035e-01 8.365557204661651369e-02 1.311078985887032811e-01 -9.868023933063425901e-02 3.808634642483182953e-02 -8.621369199435262309e-02 -2.546407212583359225e-01 3.294507672411841823e-03 1.045834629815022704e-01 -1.612425791013995524e-01 -5.230419323150099775e-02 8.335911752231174587e-02 1.058149237646310303e-01 -6.852597632792818694e-02 3.356927761558341217e-02 -4.942733765355233205e-02 2.075610224895954870e-01 -2.149574487934754474e-01 6.943950699381125358e-02 -4.641523757643865877e-02 -1.131511953073050802e-01 -2.139330631240313543e-02 -5.795465226205971376e-01 -1.782750703566519934e-01 -1.543004259860552840e-01 -5.636853991420780474e-01 3.734025614740791865e-01 -1.505398377394416565e-01 -5.003444204604761553e-02 3.378308398850121685e-02 1.055369290888817924e-01 -1.287848742703237917e-02 -7.242311933519328393e-02 -7.690845561357270710e-02 1.864782110320461206e-01 -7.452104867588521531e-02 -1.067711661389345555e-02 -3.196115687336702482e-01 -3.282954171234548062e-03 -3.302273249580277292e-02 -2.434903155624581206e-01 -6.059632071669225628e-02 -1.391348570708786370e-01 -8.609424758813420675e-02 -8.197640625640788270e-02 1.834849544001495025e-01 2.116846512209603071e-01 -7.215772645948652364e-02 -1.199301324733549057e-01 -1.253720355169982148e-01 -2.049828018441250399e-01 1.747138084574876085e-02 4.738435411769006955e-02 -3.568466115401634497e-01 -6.340352288405576298e-01 -5.374029455656118698e-02 -1.600334620792351337e-01 1.202707064019931243e-01 7.539540148854975699e-02 8.105805118135070084e-03 -3.283552790484924738e-02
-5.396770118455952447e-01 -1.140735183830990096e-01 -2.768235780234934440e-01 1.271738995395907401e-01 -7.088684721750614370e-01 1.117263028628171506e-01 4.152657243276359697e-03 -1.346401776478950985e-01 -5.478664854746051471e-02 -5.918766972965087275e-02 -8.640954027136255045e-01 2.379791995244110447e-01 -6.811398231866680475e-02 -1.012926637924801559e-01 -2.078976331187289694e-01 2.311206621134130612e-02 -9.410627736908490359e-02 -4.323601051534409212e-02 1.672506826264783322e-02 9.246499073968311722e-02 -7.113046985231250008e-02 -1.103538819685744576e-01 -9.588812624996050082e-02 5.150123755455575381e-02 1.056917335298941801e-01 -7.635344325977555351e-04 -9.584777884590900410e-02 -4.006039578888042074e-01 2.595525616298978433e-02 2.305968250019805321e-01 -3.308135160456859847e-01 7.679408992067431050e-02 -5.413893891622063581e-01 3.255827731677919945e-01 -9.074792174567314351e-02 3.068217075581246012e-01 -2.844554699486873811e-03 -2.214640056282033698e-01 3.977911061364362566e-01 9.119522068206999121e-02 3.227583199328757924e-01 -8.016813959760439980e-04 -2.659419278336083020e-02 -4.481196809945489634e-02 -7.924559750788506829e-02 -1.191204213244289739e-01 1.283309335926384742e-01 -3.061829759714768118e-01 9.046988428817023808e-02 1.254855908617317495e-01 -5.582258731771213428e-02 4.835627699667328222e-02 7.333359467659189557e-02 2.870833106351687869e-01 -3.223241506886720398e-01 -2.071449481749101096e-01 8.999214147135990716e-02 -4.601296816546533025e-02 4.194704476015035516e-02 -2.291038285466331093e-01 5.105168434046232218e-01 1.531901052765036186e-01 2.000259963367632676e-01 -2.079739929673778687e-01 4.598406798536235768e-02 -1.249413909683468188e-01 3.270657093191128156e-02 1.898196082230067458e-02 -1.281844610957650829e-02 7.765960846194358558e-02 6.001246667686738201e-02 4.074611530507004642e-01 1.949442030736203979e-01 -1.260517467981840112e-01 4.338960815976029145e-02 -6.872016034210329770e-03 -9.177713982670306081e-02 1.764219970864763509e-01 -2.872577888411004809e-01 -1.797726111556069428e-02 -1.888380418471300587e-02 3.026641530931971080e-01 1.647563723348962894e-01 -2.402813939570341145e-02 2.442564755412309219e-01 7.099488255305293205e-02 1.845620573077459414e-01 -6.363138046196339936e-02 1.405345518227012480e-01 -9.281994646299562834e-02 -1.127503198218132996e-01 -6.082439135469765862e-02 -2.884653523332602054e-01 3.036493876952053861e-02 2.638214562605016664e-03 -6.656496018588223262e-02 -7.932361137190748965e-03 -6.095475469783117467e-02 -1.582696853831653816e-01 1.418866801511555614e-02 -2.434468403712380935e-02 -6.416785586275313147e-01 -8.314861659587949316e-02 -8.302766192071479867e-02 -4.929194234787612205e-02 7.205138702855032329e-02 -9.648747007632672845e-02 1.088441494668420800e-01 -3.597358727578116588e-01 1.877693745898602606e-01 2.859427040969538258e-01 -3.246015377576093597e-01 1.259083629292976347e-01 -4.489142472413957391e-02 -9.876117159525638067e-02 -1.085986068087238694e-02 -8.211570370049951773e-02 -2.722802925147989050e-01 -2.191364635339654657e-02 -7.528888968774376245e-02 -5.899031793323368522e-02 6.435641459528558539e-02 -1.434719490746837467e-01 4.251462709852399380e-01 8.302687327177553367e-02 3.793079029416245029e-02 2.373059312839781096e-02 -1.274236165798868677e-02 4.586475916628286464e-01 -7.591882526904460138e-02 -2.349941400751343057e-01 2.563607016402063492e-04 -5.624442766288436507e-02 -1.548565960118911955e-01 -4.526157718992290246e-01 8.059962415807307712e-02 4.762655135551500246e-02 -6.902557895272125599e-01 -5.782628127537680074e-01 3.800420336868942650e-01 -3.078451418727051747e-01 -1.695440077828617303e-02 -1.779524295369486753e-01 1.278241239468763148e-02 3.570667956866199061e-02 1.504747366262869923e-01 6.988915572145189270e-02 7.408965360646363463e-02 -7.486592631698352207e-02 -1.706475869238610610e-01 -4.494653123233698089e-02 -2.503347807071208339e-02 3.926903692992578937e-02 6.430758957508673872e-03 -7.780265925137506977e-02 4.543952072379608964e-01 3.357796001604475000e-01 1.105517073769073794e-01 -1.835894759297912113e-02 2.408143583298787138e-01 -2.394808563968639226e-01 -5.584946552087376864e-02 -9.161398601513194573e-02 -2.176707595657844177e-02 1.595633225501791319e-01 -4.044469026148959090e-01 2.895052644951444654e-01 9.837319790728493718e-02 5.134557603551456045e-02 1.847849700383415172e-01 -3.215161614635979603e-01 9.022264775680122195e-02 1.103386500253573793e-01 -7.314679437310348019e-04 4.436998233931760405e-02 -4.111507155896221288e-01 -5.081413597517078218e-01 6.050418455263644607e-02 1.125457347274660819e-01 7.994307849051157655e-02 -1.615457539962957424e-03 5.324402946431073813e-01 -6.016066382247901162e-02 -3.372469523701809857e-01 -9.836738266522081220e-02 -4.684792204682435846e-01 -1.399079055845997913e-02 -2.606295978842450012e-01 4.075942228978900184e-02 -2.305304344467034028e-01 -8.939369402545212229e-02 2.842916220547868703e-02 -1.392348061224443767e-01 -2.947725212202791378e-01 -7.651758238768339992e-02 -6.176325691389713407e-02 -2.918270408282706008e-01 -2.051977764408151328e-02 -2.315174311722018128e-03 -3.727932749364970544e-02
-1.940899932256546501e-01 9.896150296243792777e-02 1.348609222709489242e-01 4.066413785661489311e-02 2.321219715365927805e-01 4.988656820527687802e-02 -5.855115524687842105e-02 1.566810375425070345e-01 -1.008085388143109204e-02 -7.372306220757890438e-01 1.471452790776472952e-01 4.193960888100326523e-01 2.300064815275522714e-02 1.184643332097189139e-01 -5.596197916861843369e-02 1.481221925012434978e-02 2.567051632493553420e-02 -1.186018204868563991e-01 -1.910489706952060440e-01 4.355747720555453451e-01 5.282272594435349217e-02 4.326263316930681335e-02 3.934955278579775895e-01 -5.844244512714102946e-02 2.141773205104535727e-01 -4.498322341996981860e-02 9.182131207186494670e-02 2.280756447319880476e-01 -1.668393276107396905e-01 2.796055024847586834e-01 1.473954474411006410e-01 3.969949671332151375e-01 3.879471785944358514e-02 -8.114197022344658006e-01 -7.857214824753536164e-02 3.653307792221548445e-01 -1.769534186197208314e-01 2.549392953533454742e-01 1.303221205111194936e-01 -7.656976853507442560e-02 -5.598828821966118641e-01 9.562446209285617102e-03 -4.189658284355725348e-02 -4.345286634025252032e-02 8.981041266663762623e-02 -2.383499739483763147e-01 -6.221537490840488571e-01 1.796382168104210253e-01 1.248502516225906411e-01 2.094311888947294337e-02 -1.466725169242560356e-01 -7.393533654125686305e-02 -1.509473316076298532e-01 -4.536841031306648730e-01 3.486742784741523327e-01 2.401776080045263037e-02 -1.741230829052172191e-01 -9.655479092993804469e-02 6.654132297422915565e-02 -1.706520039203909545e-01 -2.894687858387063328e-01 -1.153168642140831451e-01 -2.744791428910455244e-01 7.005337578149029021e-02 -8.764477916199821250e-02 -8.130186116602108881e-02 -1.554233766876798040e-01 -6.219115830266343237e-02 -1.882857440213139485e-02 5.161170715443422034e-03 -4.556697552337564128e-01 -4.743448484695136913e-01 1.086383033702054551e-01 -1.086408293438326234e-01 -4.235664502363260808e-02 3.601080495989937846e-01 -1.686864896148040915e-01 -3.287284270718283663e-01 -2.759393838901339491e-01 -4.847740911492144922e-01 -1.040785239703802684e-01 -3.060178823074771182e-01 -1.399159433468505076e-01 -9.958946594178484657e-02 1.771437223358877933e-01 -1.063867741243536003e-01 -2.468022716290539653e-01 -5.902252325018410295e-02 -2.092056357258529065e-01 8.666877158682433427e-03 -3.321085392354154037e-02 1.220324306579697801e-02 1.016424284331242933e-01 1.134870644385200938e-01 -5.245380574281396924e-02 -5.430944101466760390e-03 1.496460933101723513e-03 -1.412080771125027445e-01 -1.918409709602829361e-02 -7.370400713564762007e-02 -2.746239168878002006e-03 3.348215672472227844e-01 3.622043297731570438e-02 -3.276946766801848154e-01 -6.591712802933181320e-03 -1.799625288795780875e-01 1.270602624461138475e-01 -1.911499490016611569e-01 -1.086716735230142672e-01 -3.624625424718595779e-02 2.629875022864201078e-02 3.099969161628839398e-01 -4.535972403117184415e-01 4.743643485995541892e-02 2.613301647437659136e-01 5.089855937855870122e-02 4.556337548692462325e-01 1.476561489692435891e-01 -1.035481984484371287e-01 -6.346534562076529447e-03 -1.485612999864368566e-01 6.697570538253830308e-02 -1.501812668221068070e-01 -3.757079228209286859e-01 -5.167313761433898339e-02 1.967755148179810842e-01 -1.337071628311601312e-01 -1.277701001522610347e-01 -2.778916337664377734e-01 -9.359943615474192180e-02 3.355380801204084495e-02 1.252906046273434722e-02 4.243830475099671928e-02 8.296564908766016627e-03 1.082531938528158572e-01 1.391666838203172440e-01 -3.192991671704353829e-02 3.169540800329939123e-01 2.493433463150772911e-01 -5.695188710873378968e-01 1.441669003221539291e-01 -8.551900008700727071e-03 -2.542300405216660689e-02 -5.164797784321562002e-02 -1.421284283621254974e-01 -3.081677434661916348e-01 -6.777339509544848262e-02 1.933865975815166893e-01 -1.948319852948656727e-01 -9.828920358901313548e-02 -9.483696945022986047e-02 -1.034495550698488892e-01 -1.074907323529492725e-01 -1.053357615804113440e-01 4.447148875961380310e-01 1.353309249386896729e-01 -2.811612878526644210e-01 -1.436231015697571334e-02 -7.619398049255209082e-02 -1.511402221286408665e-01 2.503481770384145128e-02 -7.356474054716088951e-01 -1.090365533980943158e-01 -1.356030082088484634e-01 -3.271406916076546323e-01 2.668534886318864041e-01 -2.218311053733760807e-01 -7.477089434250848432e-02 -5.218725383496046477e-02 4.640097024656159724e-02 -5.826283420814502012e-01 7.660873830662545160e-03 -6.730029923325471508e-02 4.489281982340607297e-02 -4.592441658783680963e-02 1.808543218654904972e-01 1.229110088378490145e-01 -9.484243808100194240e-02 3.831948187033679121e-01 -2.170936250027427628e-02 1.453411947818516736e-01 9.425616710003802134e-02 -1.109509058201347126e-01 3.248454782142290442e-01 1.054460237728576943e-01 4.497348840077750598e-01 -1.627107825925294959e-01 3.109585295830139540e-01 -4.012249590180849701e-02 -3.999148710416028929e-01 3.858166737746184655e-02 -2.024185056554473616e-01 3.321550207519450848e-01 2.799653845691917886e-01 -6.172316173856932237e-02 -5.964307616347326590e-02 5.682041470093632252e-02 5.512235441024042337e-02 -3.440984102374824993e-02 1.726074716247774088e-01
-5.943424305834249088e-04 1.198318943911998863e-02 1.979730886983049332e-01 -3.141352663779991422e-02 -8.269470892037272813e-02 -3.123686286444527296e-02 -2.170595938281843218e-01 2.876441152060412176e-01 -6.264589678365282965e-02 1.138592025847194600e-01 1.306045574032206891e-01 -3.870684633357551752e-01 1.706633914432576227e-01 9.244014744277689877e-03 1.781909536174330067e-01 -3.402990083709979685e-01 -5.110180914151413178e-02 -1.453459133680958248e-01 -1.580292772238234278e-01 -1.376100949885918634e-01 -1.112257418618089466e-01 4.147178338691130672e-02 6.474209062551838922e-02 8.406959790608198313e-02 -8.248608665654055816e-01 -1.123351626180840862e-01 -1.614424084621642608e-01 5.224817256943505850e-01 -6.334730329363043033e-01 1.975505840795749226e-03 -3.798540264028946178e-02 1.794227529733478377e-01 3.181654872140761703e-01 7.972687441268865027e-02 -5.697954477946696322e-02 -2.522824366963913878e-01 4.923253508529648603e-02 3.661017975124620238e-01 2.858064767459994604e-01 -2.818891177748363355e-03 -1.934736687006122502e-01 -6.773992091416747297e-02 1.274033655195070669e-01 -8.179635855581694759e-02 5.073835724458760493e-02 -1.217708586838946866e-01 2.530521884495976481e-01 3.869339631502498600e-01 9.188376468162784416e-03 -1.628854942039823506e-01 -9.121514883492459758e-02 -9.445027289601479192e-02 -5.340357971046646307e-02 2.691705181905171274e-01 -2.989439101634466800e-01 1.581376478713259481e-01 5.365385669813154887e-03 3.342460092564576990e-01 -2.628676683715410259e-02 -1.031483928203049197e-02 -1.137061316444974990e-01 -3.292372691430795473e-01 -3.591789197836768588e-02 -1.958480697430763778e-02 -1.466821523733136401e-01 -3.831066134881005829e-03 -9.764412516054631064e-02 9.106902032532089922e-03 -4.232197401781026894e-03 3.557041176477269973e-02 -7.003705754074726619e-02 -4.385202572899604134e-01 -3.259527623775098498e-02 -1.355394434981910534e-01 -1.124051531265549964e-01 9.314245819658446834e-02 -5.214069499276816760e-02 -3.309171297915250998e-01 1.595792380498597951e-01 -3.664501328107288569e-01 -6.657774183029722959e-02 -2.612057359944619517e-02 1.031545725919525980e-01 -4.126137586676160152e-01 -6.245148283726567051e-01 1.310237954923920700e-01 -3.936937853571260137e-01 -5.073343975285170976e-02 -9.819708083562624090e-02 -2.092462021010334516e-01 3.245612271971135693e-02 -1.022671142490588631e-01 3.763329078832636232e-01 -1.160599133758868050e-02 4.993736355991907488e-02 -1.071326110329491876e-01 1.818947772986464206e-01 -1.879074878070155774e-01 -7.238466540301867480e-02 -1.522430829830766774e-01 -7.315095263771251299e-02 3.468900901670172732e-01 -6.611598306503315347e-04 2.615416021437081961e-01 -4.842493288635723453e-02 5.152939206425299901e-02 3.999096253443024107e-02 -1.106884103346540277e-01 2.840425023849815767e-01 1.879143016961311585e-01 1.528355509759822817e-01 4.518083128448374675e-01 3.304065267682117918e-02 -5.621351112313432291e-02 2.963337368888018242e-01 -1.097249750410290020e-01 -3.279371750514279982e-01 -1.666960934912454229e-01 -7.677995520463022638e-02 -7.106186695275036602e-02 -5.034386689834370598e-02 -1.987896983404550608e-02 -2.222920096230468767e-01 -4.816046573346802750e-01 -8.818142521553871960e-02 2.595272167254989437e-01 -1.265105417120068187e-01 -1.753520685575303828e-01 -1.958885931726226659e-01 4.307660961634782702e-03 -1.950488571067820753e-01 1.627293704015052994e-02 -6.153499420124326769e-02 -1.836796939377896218e-02 1.239508429387449207e-01 7.637718829035340315e-03 -2.767153648810218372e-02 -7.270830870888920702e-03 3.763230396275626249e-02 -4.548729017195221602e-01 1.991586324649988748e-01 -1.033972240075767962e-01 -5.749221150948081310e-02 1.809033880061222677e-02 2.712413118943941132e-02 -1.712043980013407962e-01 -1.307939849395126364e-01 4.053771073821517135e-01 -3.939719593337275838e-01 -1.062452119299840160e-02 4.258342019436629766e-02 1.766544747321909525e-01 3.841039082639040661e-03 -2.792109665490016129e-02 -1.002928621783826524e-01 -5.580859959842653373e-01 2.471146728161146000e-01 6.404113399486721647e-02 -1.209855420612166409e-02 -3.132494967754768656e-01 3.555426844689386079e-01 -2.336894857259510516e-01 4.753131208866931412e-01 -2.371486365266564644e-02 -4.007769854179433211e-01 -1.959152862933657702e-01 -2.619235549771156135e-01 -1.591808366744756065e-01 -1.007209449159262443e-02 -3.442362755056336265e-01 1.831143577383493593e-01 1.420995310210387830e-01 -6.104953909575846355e-02 1.332594722185010405e-01 -6.873575668091702617e-02 2.748518226499679362e-01 4.994550492787097618e-02 -4.438922257551492639e-02 1.986775051656091695e-01 2.356386078854048882e-02 -1.628068352884939340e-01 -2.166058582411101163e-01 -9.004622754713224875e-02 -5.616494502092593544e-02 2.645582600278048035e-01 1.893688563315064355e-01 5.835381077878699918e-02 -3.724813499626399016e-02 -2.454179363223409766e-02 4.973022314274589961e-01 -1.088951460634401402e-01 -2.293782036917500766e-01 2.422891109611825800e-01 1.270071623787265014e-01 -1.008020400475985734e-01 2.640595093005459471e-01 6.710312511738883434e-02 -8.355026676895394022e-02 -6.716975561571633668e-02 -3.001347022021322308e-02
6.531086726767237893e-02 8.340991337750389145e-02 -3.727994364127891480e-02 -8.299806846988357079e-02 1.077473216552702062e-01 2.911255452584095571e-01 -5.195727088994950976e-02 1.695186188741795996e-01 -3.794107539444447480e-02 -3.432649949933138100e-01 -1.123899856684876103e-01 4.695053817664815443e-01 1.149993216018023318e-01 -1.826029880883931200e-01 1.975307518289659003e-01 -7.293795850188763974e-02 9.536862928771305814e-02 -9.222575328553714313e-02 -4.584384210915907337e-02 -8.596427232252643602e-01 -5.812716593434658074e-02 -4.461878149569845076e-02 3.340195720274374142e-02 1.423153301339450116e-01 2.957267427025950940e-02 -3.595488590371583720e-02 6.703333697456556606e-02 1.339304444756715951e-01 -4.690147851685382702e-02 -1.851981249819010245e-01 7.301069067034440807e-02 1.110929868583026559e-01 4.150960040512751553e-02 -1.593395586753711679e-01 -9.325077829537030405e-02 -2.870844073236434313e-01 -2.088299187367373411e-02 -2.364556692445936303e-02 -5.019005016252552354e-01 -3.280590348062207423e-02 -8.016546767843604759e-02 -3.766374196724330686e-02 -9.922706461586013049e-02 -5.111162879652279140e-02 -1.250714178684633471e-01 3.639677611084708997e-01 -1.898451466561435763e-01 2.075181850441421560e-01 1.298420904723615321e-01 1.436597642488360027e-01 9.702328564002370495e-03 -7.879113791552430635e-02 7.167186802132882555e-03 -3.611010310416680746e-01 3.669386300163151454e-02 2.752515424623465101e-01 1.837236681252573181e-02 -1.402220570969498203e-01 -4.188703674094925583e-02 3.860617813349946359e-01 -1.959041481494189496e-01 1.747825335843291306e-01 -2.512175013364323362e-01 1.168989830292327912e-02 -3.358733828921345310e-02 4.887657583688425830e-03 5.765667308849903999e-02 2.899650156644122123e-02 -1.285852180119065047e-01 -3.768749313852431254e-02 1.842109595448342130e-01 1.897488345246690911e-01 -2.534669703012052966e-01 -1.947974782203272248e-01 1.066091583552822644e-02 3.635155793577500571e-02 -1.294148824094022154e-01 5.138309916107504371e-02 1.087443914243673010e-01 2.390020554147550269e-01 -1.015409269885384214e-01 -2.263656809821804894e-01 -2.580988151197051717e-01 2.027406537708981160e-01 3.949977145407201212e-02 -3.867147649091756678e-01 1.207303158773895685e-01 -6.090704023247378585e-02 -3.313278023759241159e-02 7.447828111468111911e-02 1.227969413574549890e-01 1.080121568627512713e-01 -9.467086388025000576e-02 -6.751404513420472542e-02 -6.410967854017143863e-02 -6.415946525144025636e-02 -5.442457331057763970e-01 -6.417480219966871513e-02 1.344374054181957621e-02 -5.247458967175471223e-01 -2.616208543919279830e-02 -1.799707317905252860e-02 -2.292418512740597436e-02 -1.435583079265634332e-01 3.725844920414989048e-02 -2.899800416838603234e-01 1.127896307700941708e-01 -7.157124739215543112e-04 3.075794331720402841e-01 1.167778592566680734e-01 3.569225115583073149e-02 -1.575652153035136394e-01 1.307210000992090337e-01 -1.124590123427049865e-01 -1.679395755960508829e-01 -3.065367632353761806e-02 7.852941117587823594e-02 1.528082645323225186e-01 6.229579424600284465e-02 -6.300750008402221380e-02 -8.463537468079663714e-03 -1.226475052405371843e-02 3.132457703785756359e-02 6.829042040388584589e-02 2.327278171267102222e-02 -2.269381125435764313e-01 1.543780699109578844e-03 8.529382089366698005e-02 1.756941722881409998e-02 -1.457415943219378396e-01 4.348493446616821106e-02 1.038181595920437267e-01 1.818211261636972775e-01 2.077439501710781622e-01 -8.955028776706346061e-02 -5.102604303431670374e-01 -6.754951735615273567e-02 1.742605501985762251e-01 1.280698390797204433e-01 -3.459940037685479974e-01 8.719319686184463791e-02 -4.128556878366136662e-02 -3.412393613897670569e-02 -1.175362079364649648e-01 -1.184479225576089839e-01 -6.756823865797459971e-01 -4.358272353753764317e-02 4.957360090266518804e-02 -2.430657910569312963e-02 -2.067323364590894011e-02 5.189896985299253390e-02 -6.033338743877905141e-01 2.575621321588509021e-03 1.299222230206342477e-01 5.201098177018234070e-01 2.450581999492984497e-01 -4.871031973860680542e-01 1.692798334420213546e-01 -7.498849579919025787e-02 4.706203959453358898e-02 1.481501309717281056e-01 8.044496489300553832e-02 1.452982924577055079e-01 -8.774511484970959341e-02 2.315053317423485801e-01 -1.276780009605839872e-01 -2.668714095643545114e-01 4.980226588007172217e-02 5.920805228197807690e-02 3.657095530499556574e-02 2.052950247580020149e-01 1.311205195625738396e-01 -3.625948337261617610e-02 2.308148634837056401e-01 -8.684954745584226588e-02 -5.753880665040478348e-01 2.639940759135654402e-01 5.685569779295004261e-02 -3.860450067518362283e-01 1.903272192758894144e-01 -1.421384653219602001e-01 5.378375411282521057e-02 -1.505592018235829277e-01 3.258133652287837911e-01 -1.235300485156509420e-01 2.905430348598024223e-02 3.520717280210579614e-01 -6.337256364610619353e-04 -7.424810837093859250e-02 1.727542520201205689e-01 2.572659587489259641e-03 -1.218135695491535525e-01 2.910679477426510453e-01 -5.546168436319157680e-01 -8.340492008928453160e-02 -2.151925002803098952e-01 -2.258670221857005667e-01 8.387864769289218869e-02 -1.854580459516218249e-01 -7.991724456039792646e-01
9.153740850988732747e-02 1.178167056529997106e-02 2.268814597187472359e-01 3.419814894334904237e-02 2.356380638214918832e-01 4.123908931977561532e-02 3.237542144812984024e-02 1.400969955041175274e-01 -3.643747468878019702e-02 -5.268555907766937774e-02 1.757052565043892012e-01 -4.739994927045742545e-01 -1.472162800864665611e-01 -6.758509127868837785e-02 2.528463710427321653e-01 6.308836011906866770e-02 -2.944681762432017902e-02 -8.797948743555485118e-02 -9.211487004954702074e-02 8.238542758035372060e-02 -1.339710642804742557e-01 1.193454822489601816e-02 6.789536803785794746e-04 3.241794961820843729e-02 9.009070350637753133e-02 2.262736750030961905e-02 5.299959169681364018e-02 2.760750096724133851e-01 -3.582581586082889298e-03 -6.011671756607446515e-02 2.747785396211485653e-01 -6.519939485448115191e-01 2.442898326157878219e-01 -5.192682785384385991e-01 -5.092211401204727733e-02 2.245145736944795800e-01 -7.655354641756124956e-02 -1.496824225438697122e-02 -5.859415339111982979e-01 -7.712674715045547691e-02 3.264506919490266501e-01 -1.012212423308394976e-01 9.908643535660776117e-03 -1.959596480363414925e-02 -3.426267337134259621e-04 -5.343602954199093702e-01 -6.429269801504999826e-01 3.186513220897500553e-01 4.457505110493654304e-02 6.355851199716451572e-02 -1.581773004731976406e-01 -3.978548339418884472e-02 -1.025160875408320516e-01 -1.182196777685064759e-01 -1.193988109731066172e-01 -9.764871105019432007e-02 -1.469235256529539124e-01 -3.570726552939966214e-01 -7.946390023222990595e-02 5.892386589234416272e-01 -3.290931327915233573e-01 6.427640395818705332e-02 6.060039961800642860e-01 2.566906990873870503e-02 -9.415076896348534979e-03 -1.062836353434060549e-01 -2.154473489225367522e-01 -1.212034219079359265e-01 5.803199491399646005e-03 5.475740726619786336e-02 5.016530347656388000e-02 -1.810412697082442735e-01 8.905642677373637461e-02 8.338003797227992731e-02 -1.592044020391041870e-01 4.607249622586023774e-01 -3.759640534726305106e-02 2.953746397051404057e-02 1.668242134945482347e-01 4.279723902824997817e-01 -1.997718107185085523e-02 -1.653417944707039067e-01 8.541852634721790183e-02 5.847743783994575201e-02 1.170569106971727086e-01 -1.465281684987023991e-01 4.628485736752734753e-02 4.010836644629877518e-02 -4.164723680514272747e-02 -1.689380173114882200e-02 1.987133903645232208e-02 2.493576798683719981e-02 -8.163202273917730123e-03 -5.453507018069879420e-02 -5.986416566167293563e-02 -1.266264562494886781e-01 4.094745197446907764e-02 -2.084995978294496566e-01 -5.248019209266038820e-02 8.807540129006823093e-02 -3.700683853252175609e-02 2.052191349657029318e-01 -1.011950933622209753e-01 4.270015664475828032e-01 -5.520192621485608270e-02 -3.362778614935632016e-01 -8.958322453871106830e-03 -9.214425165476129720e-02 -1.644419648067272852e-02 6.205453118377201802e-03 -7.726583734265643488e-02 4.939061788918165941e-01 4.926866647183703041e-02 -9.888466132342757509e-02 -3.319991765082726531e-01 -8.133865621507588295e-02 -2.026652104414609912e-01 2.186937745585719184e-01 -9.860891134292244786e-02 -9.653041699819606136e-03 -1.162630046713089144e-01 1.318160293107406844e-01 -4.382212985479386896e-02 -2.353765942798792532e-01 -1.832667910670348066e-01 1.092796451774952771e-01 -4.969338126042514153e-02 -1.036470904088105383e-01 -6.441816007468280370e-02 -3.507078264371138454e-02 -8.435396656028093521e-02 -7.668627127645145924e-02 2.442944650366125903e-01 -1.354702008764026777e-03 6.990371745785815827e-02 -5.752773638027482844e-02 -8.863668919737191509e-02 1.441624766443386774e-01 2.263227302435333044e-01 -2.050769303857245263e-01 8.176300626970411933e-02 -3.953618225504232364e-02 -6.867364363380870640e-02 -3.093603605295029355e-02 -3.695738598525013900e-03 -1.298937113570761415e-01 -2.608475459773244576e-01 9.467207046090869715e-02 2.558754994964475005e-01 -1.314414875687011097e-01 -7.186978828061693636e-02 1.597065520348239509e-01 -2.068120089567587472e-01 -6.644339551961106483e-02 -7.177949234647278479e-03 -6.862551181847647008e-01 -7.236836399767762051e-01 2.765830659823881321e-01 -1.615332930101499587e-01 6.159166392585272432e-01 -2.147827257444671553e-02 3.324615450695581065e-01 8.418797832796191816e-02 1.064926829145613173e-02 -5.006165409573863911e-01 3.253431705236757288e-01 -2.198349327162962552e-01 -1.591490831600013700e-01 -8.042338822319354541e-02 -9.572211749885732590e-02 7.557698288491794536e-02 -7.173347484766194881e-01 -2.824128903620575642e-02 3.238349360132363741e-01 -1.277661611188760440e-02 2.323051050099835535e-01 -8.808905808414944916e-02 6.264989237242574172e-02 -3.220349292635653060e-01 -2.370420225788591462e-01 -1.485316601634707467e-01 4.070913912831918280e-01 3.923535377192555879e-02 5.189234991024306298e-01 -8.727321455495894165e-02 3.584106733391504429e-01 -1.061271818182645682e-01 -7.884945723079978680e-03 -9.062863304383253840e-03 5.212545062496225512e-01 -1.175229424264899181e-01 4.235856485093349860e-02 -1.186385584237911461e-01 -1.001177340648450459e-01 -9.071840308895808003e-02 -1.396868499488408411e-01 1.527278647959725844e-01 -7.747592960048393929e-02 -8.115715088415609291e-02 -5.458082273023522335e-01
1.772105118775995913e-01 9.881501211313495348e-02 -3.000438856092714768e-01 -1.847494727592674524e-01 1.076345559776791944e-01 -1.146442613217228818e-01 -6.445602189706070573e-02 -8.216531893742921866e-02 -6.923007638429098986e-04 3.183431829116147721e-02 8.272423035757085763e-02 3.409244811111509788e-01 1.817041261087630130e-02 -1.725883569207887769e-01 1.696358440354334696e-01 -1.387588105373762648e-01 -1.201534013308084570e-01 1.480224548735426526e-01 -1.701054531550129367e-02 -4.157142013564007477e-01 -1.023867705091385527e-01 9.332261500140009991e-02 2.068591845532571083e-01 -1.045205770871213136e-01 8.256367390300810294e-02 -5.137913767917021667e-03 6.946415070322261090e-03 4.302164408152634595e-02 2.811081405213959883e-01 -6.982559206732570356e-01 -4.941530545510347538e-01 -5.678393584524142309e-04 -2.504401957119922195e-01 1.581621681762058751e-01 5.743940156960673088e-02 2.251357620276659144e-01 7.224842900284300651e-02 6.056698895429582508e-02 2.042549119520327416e-01 -7.602059642863218114e-02 -4.132059579782192127e-02 -7.360706252988215292e-02 -4.556340668868093247e-02 -2.014393618301300523e-02 9.585116339583792805e-03 2.144628936064224278e-01 3.004538248660953426e-01 1.216773181258326425e-01 -3.826753823283841199e-02 -5.184584259775351089e-01 -9.402760634774136317e-02 -1.174212199151427882e-01 -3.958685166151168326e-03 3.547517764275711083e-01 -9.169534880601806770e-02 1.440854219991739571e-01 2.567791856545656448e-01 3.654546646792044551e-01 -1.579530895961194226e-01 1.824297072772638195e-01 -1.433140693321012793e-01 9.353971017205373051e-02 -1.909511293916200947e-01 -1.777645422500916672e-01 -3.722227765587415860e-02 -5.207033490668587505e-02 2.467733578742337397e-01 -5.496612125570971702e-02 -1.670231802331865190e-01 -2.855476251223136933e-02 3.967125510847488434e-02 1.925197592800612367e-01 7.535074177875844548e-02 9.021357795611570363e-02 -2.755469296377002775e-02 -4.694554925205497997e-01 -3.234800019476989641e-02 -1.709651209552435769e-01 -8.912349309552175525e-02 3.438077461700215359e-02 1.537535410194577554e-02 1.706142379053786629e-01 -1.004848613081877201e-01 2.617057593732116313e-03 -3.131514074667606784e-01 9.879155363541068657e-02 1.571312701961879166e-01 -1.243761045480308233e-02 1.198693863047300620e-02 -1.925527064855934722e-01 -3.811514986241747172e-02 -1.129207895582391291e-01 3.675500056706541008e-01 6.521482722521701469e-02 4.278506434372254114e-02 2.719152299393792598e-03 1.881559712246680671e-01 -1.458358237151727022e-01 -1.307375431320134396e-01 1.346795164985751733e-02 -7.616169356574076232e-02 2.601612577350185564e-03 6.841636245988030884e-02 1.470454905399510015e-01 -1.455612565065705633e-01 2.744271578166536663e-01 -2.297392329176700387e-01 -1.435429380237969628e-02 3.142669840837180040e-01 2.419710007115440011e-03 -4.626276262545628293e-01 -1.303699420418862887e-01 1.347670957807336201e-01 -1.269033831445981197e-01 5.243878460196929048e-01 -4.249699995631742167e-02 -6.383849743510806342e-03 -5.076426861726241347e-04 -1.382348698489710148e-01 6.364326869708376855e-02 5.202972549815015196e-02 -1.376261164885393407e-01 -7.683059613331962023e-02 -3.401011494164166149e-01 -3.060780247325362372e-02 9.877384584109159815e-02 -3.931482689058498486e-02 -7.381914052228122358e-02 -1.490325082843133586e-01 8.257961258806094038e-03 -2.398412628157739479e-02 2.966552488075336474e-02 -1.984337545202612130e-01 -5.807046131928667726e-02 1.018715774807844449e-01 -6.203997787230203231e-01 -1.740044406019741474e-01 2.659107832950114991e-01 -4.168441148083375930e-02 -5.505522250059783351e-01 7.596695151548643610e-02 -4.483138230510110706e-02 -8.325999053717525467e-02 -9.314883257810216421e-02 -2.248488887049794258e-02 -7.738931369148073502e-02 -1.096232693514165718e-01 -8.148163106620464058e-01 7.719661500764384010e-02 -1.656482365781967170e-01 -2.880154049749800160e-01 8.192658649504358515e-02 -7.197715503518027635e-02 5.237281313796291610e-02 -7.850645265796368788e-02 1.808787264722908905e-01 2.806023311350722138e-01 2.179676961877229091e-02 1.030902617276111266e-01 -1.758188830149330917e-01 4.654300565748307195e-01 2.846532807474967952e-01 3.214416485531592510e-02 -2.112352778334924686e-01 -2.761466515104938346e-01 2.659608173862346159e-01 -1.856704820135543776e-01 -4.927802705624707152e-02 4.887630118973722293e-02 -1.690782527745390562e-01 1.123009495147620496e-01 1.943566756447468735e-01 -2.078689814672705638e-01 -6.787835953434824265e-01 -7.159505131805500577e-02 3.522302514460312617e-01 2.342135861843267497e-01 -1.197321664118363403e-02 3.057980102028901581e-01 -9.737485218881841709e-02 -2.298898319775779242e-01 -1.497728925904495412e-01 1.151760835540394405e-03 -4.274577637278592634e-01 -1.463946781308837208e-01 -3.744145495643558252e-01 6.022006711481177055e-01 5.882529360086389408e-02 -1.039929792650774037e-01 -8.756892826742017355e-02 -4.335349155731793580e-02 -2.440959029459714436e-01 1.112523513078679666e-01 3.081289416954928195e-01 -7.333191211140216437e-02 7.225585740810754887e-01 -4.694477341437516271e-01 -3.793569324382973368e-02 -1.078920230652309110e-02 -6.061613760390059495e-03
4.402431352445401042e-02 1.086574144100915101e-01 -6.226726917108377224e-01 -1.575506438647917284e-01 2.316380316514381199e-01 1.316979420565478343e-01 -6.369228268386750540e-03 -5.205948407599148009e-01 -7.362063670480684108e-02 8.422326268748984990e-02 -1.222656423125687980e-01 2.936068002051512860e-01 -9.431764187350449857e-02 -1.370149906282573382e-01 -4.703261827381109011e-02 1.581369793998418094e-01 -9.592933551031102013e-02 8.109914709026702639e-02 -1.694875650911180087e-01 -1.227798576835882061e-01 1.135612961457567460e-01 2.356261116235559491e-02 -2.105851313627416996e-02 -7.037687465186166780e-02 4.171680466879153920e-02 -1.150102971503585564e-01 -1.113322253369547071e-01 -3.977952350077291338e-02 3.313041788264255993e-01 -1.017197900855366655e-01 -2.364445232662304719e-01 1.602213284935225523e-01 -4.008405589907011457e-01 -6.822373020413811939e-02 -1.071816543054596865e-01 2.253823609379140835e-01 -2.434199837779238516e-03 1.295976985050400487e-01 -4.908375144951178382e-02 3.322448655828655339e-02 -2.237312985638097718e-01 -6.872387046995706572e-02 -1.310670214051602202e-02 -9.889665292700513741e-03 -1.260050649635521269e-01 2.605877211559235254e-02 6.449640248920973651e-02 -3.967956887861837090e-01 2.217979505995707756e-01 8.954379452672664441e-02 -1.386092280741000639e-02 -5.591197084431640506e-03 1.372880195451550711e-01 -5.114740198067667665e-01 1.998700786379546332e-02 -1.839607886768997863e-02 -1.285405110939837059e-01 8.835454315618547494e-02 -2.830503070715262998e-02 -7.029803202416673447e-02 -4.128131320364548107e-01 6.827240846063131752e-02 -2.961368334660710033e-01 -4.964870098676162080e-02 3.386732106659927355e-02 -7.011103110400682126e-02 -2.600907622868408112e-02 1.056076009502763119e-01 -9.758033801965847187e-02 -8.699577903034465265e-02 -4.537583751887598327e-01 -2.535707289234978012e-01 1.932761271587887519e-01 2.267612441785460120e-01 1.761900975906884742e-02 2.608851267831785448e-01 4.882165319825779864e-02 -4.441434153956125286e-02 -6.067260725396083076e-01 -2.147242345294775867e-01 5.405733265819918226e-02 1.592205950965916161e-01 -1.706225079095705643e-01 1.278895635441171241e-01 4.205303303467922832e-02 -2.575302296002038305e-01 -3.028573574472785968e-01 3.244620681534713530e-02 -6.208510716750682140e-02 -4.246142155417074321e-02 2.167008579147651492e-02 -2.138962752415320134e-02 -5.960134640051501648e-02 1.187419557736603681e-01 -1.013811908919120264e-01 -1.552199213310054282e-01 -6.393977040100425890e-01 4.431821489406346376e-02 -5.998577917504040874e-02 -9.663819741442952749e-02 4.592811657600645581e-02 7.205107470802027403e-02 1.519443015045621181e-01 -2.871675485944212847e-01 -5.260386834569880793e-02 -2.802464398700451609e-01 3.511308463144720560e-01 4.784355631106798450e-03 -4.856208426840430414e-01 1.261565978352055528e-02 4.587231856026223464e-02 -4.687546317968021015e-01 -7.418049168635310053e-02 -4.660870464442699174e-02 5.352632455756137775e-01 -1.089708263371888669e-01 2.887934680765132378e-01 9.519097253892156232e-03 -1.022501884513993264e-01 2.851762491229246910e-02 -8.925756235741069688e-02 1.417954699166089627e-01 2.958222430582085893e-02 -1.686677532570688559e-02 -8.887652959582646728e-02 -5.793811476545966954e-01 -1.143780441892463667e-01 -1.339003800858386828e-01 -1.008505627869280274e-01 -1.366329856777140188e-02 -8.119670951746104509e-03 5.117905284247314252e-02 4.646011972099306497e-01 -8.017108725493207744e-02 -6.628337133521171320e-02 2.142083475758863043e-02 -1.563684250227778336e-02 -3.567077015903603598e-01 -8.237024812134816076e-02 -1.153712073385243231e-01 1.540123878961234816e-01 8.247853736235570554e-02 -2.060892683672951170e-02 -6.891971170409778510e-03 -2.894241449030455701e-02 3.325646504312408380e-01 -2.957669935463922914e-02 -4.953735923611345959e-01 -4.956452383203098222e-01 -7.487895736400761171e-03 -3.126753059181080346e-02 -9.196655303140596760e-02 -4.616721403721969763e-02 1.980764812325604834e-02 2.165055621946314346e-02 3.232639296117664207e-01 2.008849860316734293e-01 -7.460668207824703302e-01 -9.858805786536552207e-02 -1.921228753440309689e-01 1.092107769838503578e-01 -1.623205963983088695e-01 -2.050515923053483902e-01 3.079638464726753427e-02 1.004893470021189367e-01 -2.894005532050947793e-01 6.339574910257887996e-01 -3.689833320902297792e-02 -4.869920683264953448e-02 2.568144010741685301e-01 2.250562373894593737e-01 -3.348759094648532525e-02 -2.635736330482394418e-01 1.558661355026194073e-01 2.045577216100262496e-02 -2.879214642983590200e-01 5.511359489360855403e-04 -2.682253379823282963e-02 -1.169230433475327985e-01 3.062244191568415652e-01 3.999937534207022027e-01 -2.065637452183337608e-01 1.148761725934701466e-02 -3.689939803624317505e-01 5.846467941404336344e-01 2.052703752614244426e-01 -1.319420318638185319e-01 2.043376609689717682e-01 -7.897389046574170013e-02 3.613758122814795248e-01 -3.310818371632952284e-02 -1.827090979617853050e-01 1.455526326607140264e-01 2.022771262457734656e-02 -3.885179694371644621e-02 -1.868414414588901173e-01 5.227242427226877486e-02 -7.441776315124484786e-02 -1.393854624513730656e-01 1.796884351514107248e-01
7.276802706889497208e-02 8.628582361907814746e-02 -3.024405276221777128e-01 1.741995776117032657e-01 3.296812704398353194e-02 -4.621555258398005878e-02 -5.655070284363727939e-02 -1.145068887050756795e-01 3.870677106687690078e-02 1.233215585328423930e-01 -2.007386886386642449e-02 -6.515652344245205230e-01 -8.663736637724321621e-02 -5.066358865657740601e-02 3.041644531651360728e-01 8.716537224179823906e-02 -9.534635674785275905e-02 -8.017780015331033017e-02 9.385063365802637225e-03 3.996574608822121566e-01 2.678920493396440977e-02 -6.896531380337989070e-02 -2.036834917536450296e-01 -1.439797470275430147e-01 4.508714754009196697e-03 7.674417230282760960e-02 -2.969282083075987927e-02 -5.554821090437132014e-01 -3.706504913796838246e-02 1.709493303422592730e-02 -1.853445392288612936e-01 5.936573032115188830e-02 -1.165568680819171477e-01 1.793758480109316766e-01 -1.169816535152379544e-01 -2.586405736845084902e-01 -7.837691005352770413e-02 -2.605407020012038832e-01 -5.795460564570988904e-01 -5.979165881244324909e-02 7.066686372682094708e-02 1.496050743716701922e-02 6.684103159797435967e-02 -1.093508741977544489e-02 1.193048011811217862e-01 3.547723183857019041e-03 3.384903282796000723e-01 3.199593031860698544e-01 -2.403395397909645625e-01 -4.209561895225481798e-02 6.174033881204414771e-03 -6.146803319117603165e-02 -8.592767449617137732e-02 3.048098912472445576e-01 9.486724758509895716e-02 -1.094178076380308284e-01 3.032414248397440892e-01 -4.107076768823638563e-02 -7.504250899081046922e-02 -2.907682568046058846e-01 1.306656453947357688e-01 1.710491476065032213e-01 1.504459765742572341e-01 8.306909956734824518e-02 -1.027527870831160262e-01 -1.098742926062092895e-01 1.721697481487904913e-01 6.925619589046344560e-02 -4.490589172114192729e-02 8.735582775746449091e-02 1.252839666587215739e-01 3.054948882353197837e-01 1.017562346583364419e-02 -5.723452338233828707e-01 -1.044694339307307429e-01 -2.990294515995607916e-01 -8.410801005123587359e-02 1.196695396349218288e-01 1.615463799862834615e-01 3.773161907449224528e-01 6.317715685888051005e-03 -2.187261507845853770e-01 1.076394038542711346e-01 1.063526351938175324e-01 2.975230620676252991e-01 6.416879029619383390e-01 2.811231604145477680e-01 6.421693977567539957e-02 -7.208327138530418177e-02 1.446693431731901555e-02 2.150826835316477920e-02 4.147793838059361804e-02 -2.049763884482202203e-01 -1.364523949421969362e-01 3.574184689590594911e-03 -6.313361608566268879e-02 2.435276836902110775e-01 6.314925809872561080e-02 2.026740142218327184e-02 1.737661517897702290e-01 -7.602681981051066795e-02 -1.199266970712202368e-01 -1.959040010823285757e-02 3.410204595541319605e-01 -1.449201396180376800e-01 -5.032527365255937690e-01 -7.532652725561589380e-02 4.244122920724892507e-03 8.199746107832833752e-02 -8.566925637545279304e-02 -4.145294695577020905e-01 -1.867411086750838667e-01 2.165783302751295436e-01 -2.023484679256865384e-02 -2.474675861884463590e-01 -6.670841558369493274e-02 2.995496704701853252e-01 -1.863260793015210836e-03 1.817386034958133612e-02 4.906026988364945579e-02 -1.338425134305745549e-02 -3.069785639944953015e-01 -1.548473332940812630e-01 -1.275208542341400575e-01 -7.258980145046982357e-02 1.926244281396176095e-01 -1.671185885420809272e-02 -3.423375119458829663e-02 -1.095652272083765116e-01 5.464499832250057504e-02 -1.670358268011095937e-01 -2.082768958859624112e-02 3.384913180312248970e-02 6.866590111278300657e-02 9.929306165688095431e-02 1.232202922345674023e-01 -4.394258401326052443e-02 1.107364699792536405e-01 9.349609863581599678e-02 4.071580743183808582e-01 1.521214491887117326e-01 -9.383588169066871265e-02 -4.181364466419342646e-02 5.247710243480642467e-02 8.915461099585995919e-02 3.287387800442594273e-03 -5.500264148774456491e-02 7.932716751183867265e-02 -2.688543505053140326e-01 -9.580476357324227421e-02 3.554468332212207954e-02 -2.422324341756540780e-02 -5.121077627081218470e-02 -1.433742052701397207e-01 -1.895096439529387056e-01 -3.914628314775843443e-02 -4.052546796469881640e-02 8.850523250501005079e-02 -8.380274094087572512e-02 -5.508631439076995540e-02 -3.150349299015222648e-01 -3.628582129178515303e-01 -2.621644531758365315e-01 8.536079341381350508e-03 -5.972246965349812253e-01 5.617327524144097861e-01 -2.305266214282018777e-01 -1.117710999595091514e-01 -4.690454388564203880e-02 -7.739814028683957847e-01 -4.837237665325833103e-01 -2.974470384417307600e-01 6.734106188733569864e-02 -5.194234900397712851e-01 7.212579576127929604e-02 -6.335725974563005680e-02 -4.070837942804166332e-01 -4.903245434888250237e-02 -5.582077878409679172e-01 1.056520874144163541e-01 -1.544152450430593404e-01 -1.690532410161495469e-01 -8.953642838539767335e-02 2.970879114117646602e-01 -3.630992546246198382e-01 -6.094046015299812297e-02 -2.055936524275929767e-01 -6.111490468286714939e-02 -3.887186912946018202e-02 -9.397295894929062754e-02 -1.237460554056093315e-01 4.811826639342869916e-01 -3.100525447099884979e-01 -2.019657771070725860e-01 3.750502464442576761e-02 -3.093396202893072475e-02 -2.124814510549523361e-01 -1.535030835802290994e-01 -1.444318343568458118e-01 5.590149641944432146e-02
2.144990853205212267e-01 1.522108453557222962e-01 1.618929151580940640e-01 -1.616978115982192765e-01 1.973417711685933329e-01 2.388188480645072470e-02 -2.857321367186576103e-02 1.025929420001882170e-01 1.940558183571390594e-02 -3.800075459336080264e-01 -7.054906204742414540e-03 3.144692608034907466e-02 -3.664826656780765246e-01 -3.948181913641765628e-02 6.809201717836432799e-01 2.290804889972841429e-01 1.447180812676240880e-02 1.065320829457863661e-01 -1.412948197850008303e-01 3.848325886873763535e-01 1.023332115763024158e-01 9.580136053207490010e-02 -5.603143909728046657e-01 -5.757941485686755151e-02 -1.417067195379320688e-01 6.994957116828741384e-02 -1.243273861748044606e-01 3.257938141616073535e-01 -5.345425643986367881e-01 1.321838750832490458e-02 -2.531014420941130605e-01 -4.216826628214464523e-01 1.589736337075592365e-01 -1.944847151566111709e-01 -3.017107547283204641e-02 -1.909446365831934667e-01 -1.837449140480568177e-02 -4.491767071429845770e-01 4.360950756185700411e-02 -1.367948310566101111e-01 -2.910708690961800738e-01 -2.402423954240701098e-02 1.545139955366483520e-01 -3.224176509364233556e-02 -7.462105906588964443e-02 1.213710809091453902e-01 -2.403062907327512820e-01 3.322419256310387564e-02 -4.251501737901140499e-01 6.121423306548882254e-02 -2.028075711199027811e-02 -1.313234606671477567e-01 2.151411497906739745e-02 -6.846268035603148006e-01 8.998485441960388242e-02 5.143229671986089546e-02 6.578780233288279433e-01 -2.672505838841319759e-01 -1.183530679170560207e-01 3.162176609731532917e-01 -5.081191803205177271e-01 -2.006989365338898157e-01 -2.814602929927434438e-01 -5.282403644700436190e-02 -7.191858967400569999e-03 -5.759657762634157185e-02 -2.258321256342340697e-02 -7.225745995199570060e-02 1.184709607011889820e-01 -5.617251515331168898e-02 -1.389118133215916651e-01 -3.629198586900557744e-01 -2.738501648672714839e-01 5.935967334336939710e-02 2.859684767993441595e-02 3.015908184516643553e-01 -1.616503315108242800e-01 2.969574448387193866e-01 3.683099583714508629e-01 1.623981144795224318e-01 -5.911493336320034625e-02 1.358182914928309504e-01 -2.828850960814142113e-01 -6.958202597428014835e-02 8.625471362424895483e-02 -1.602188164742975318e-01 4.085892471228596001e-01 -4.299316919718100538e-02 -4.669833296284620766e-02 -3.352193952843717656e-02 -1.398936308603631641e-02 -1.026683911058302590e-01 -7.097148755260838104e-01 1.409202015902830118e-01 -1.186314332257437931e-01 6.718314047470111405e-02 -4.407894126251974409e-01 -1.272797791131599354e-01 1.232637708748502287e-01 -3.248019589069460478e-02 -1.077609348747192164e-01 1.756971752308269519e-01 -1.359907213127134751e-01 -2.407425166414296769e-02 -1.166409009253170908e-03 -1.837539974173253987e-01 -8.592962967490491363e-03 2.701559252827084867e-02 2.172407430073224413e-02 -2.455288121761955988e-01 -1.752707327190585473e-01 -2.884632219771856576e-01 -4.529922304705749636e-02 -6.218230846347309188e-02 -1.569931822005590505e-01 -3.783825112596349988e-02 7.369822584353807882e-01 2.088977558907909315e-01 3.744900354018385931e-05 -6.661805956628989722e-02 -3.002161606615661241e-02 4.114374266451663320e-02 -1.638225895274624810e-01 3.573350782882684373e-01 3.664976100222891442e-02 6.504125431297173854e-02 -7.345313802227831923e-02 -5.184428621135497850e-02 -7.509328660002048683e-02 2.428663705642248802e-02 6.164792538161707747e-02 -1.214699832443728589e-01 2.854391733917618912e-01 -8.091909221171013356e-02 1.752418011741280895e-02 3.717367224513097868e-01 -3.697963724329453999e-02 1.437821266511588869e-01 7.565814450346304565e-02 2.152938000594820933e-01 5.204695603442491825e-01 4.799413791694839143e-02 -2.226367314333781156e-01 4.750229474413279057e-02 -6.995702961956448696e-02 2.482097774667760548e-01 -1.969572772495469665e-02 1.694237271205992490e-01 -2.666846649487011334e-01 -1.585524729504237396e-01 4.496473941045773387e-02 -6.136778600446304299e-01 -3.796142341567353140e-02 9.695599676512321741e-02 1.131100916514864718e-01 1.399367052546016399e-01 1.952227077826081403e-01 -1.787573215179992514e-01 -5.079408846479432221e-02 1.755085239918866558e-01 9.686200100797144608e-02 -9.289234021780254924e-01 1.489694663756366277e-01 -1.353255583881543198e-02 -5.782128567676343700e-02 2.309183249259928183e-01 1.804907409587789002e-01 -8.538679667594133160e-02 7.738862995975648307e-02 -1.554157818216766185e-01 -3.664259117491009410e-01 1.859205773899557934e-01 7.603132484371068200e-02 3.068850550575160652e-01 -1.659347021135193501e-02 -3.654027491603524247e-01 2.395292592609787885e-01 -1.529757518130235756e-02 3.208157382935207802e-01 9.553310271873634296e-02 -2.253061330689900832e-01 -5.219509785292528181e-02 -1.352970700868772434e-02 1.068677488251996432e-01 -4.707571105652095383e-02 -2.082106806638528429e-01 2.050514685883824684e-01 -4.074528416985961909e-01 -4.656046249818252686e-02 1.451656289410804268e-01 1.245777836518260351e-01 -2.010504952161273340e-01 1.594616755691711518e-01 8.337220669193851075e-02 4.105001059732434066e-02 -3.676219841212291506e-02 1.702981430093339077e-01 -9.499892860021580399e-02 -8.613123898479725649e-02 1.859393132140796101e-01
2.351765645680188033e-01 -5.021380756835955861e-01 2.497884436455797830e-01 -1.711962425974550839e-01 -4.034596898046570179e-01 -2.955569000666301016e-01 -7.920918190323912589e-02 -1.858775560202145516e-01 -4.602209392249483749e-02 4.616765203262634260e-02 -6.502973150796349799e-02 2.722708282616888992e-02 3.315904916028096505e-02 -1.188182984376619580e-02 3.348312707425958878e-01 -1.740493182261824978e-01 -2.648680946036698763e-02 1.800809598516957266e-01 4.616834423942652726e-02 -5.110143833908641353e-01 9.291720304364910199e-02 -3.465009127723964882e-02 -2.847085760227130447e-01 -4.415973189615444300e-02 -4.424735707877399532e-02 -9.938846861889016893e-02 -1.647560550303304172e-01 -2.783362871887012369e-01 -8.273978115133270861e-02 3.177762758593825621e-01 2.124081439141886907e-01 1.975282524555711794e-01 2.439383116786881245e-01 1.260617794798509494e-01 -1.374784583903273516e-01 -1.004781636386230387e-01 1.311538465540800294e-02 -2.342325431760921839e-01 1.618546842305199351e-01 -5.289038548024903308e-02 -8.386085882427919691e-02 -1.535764555548264909e-01 -5.064018243278696485e-02 -1.441069898778158526e-02 -1.827640298252025397e-01 1.616864815871660865e-01 4.529890148220215296e-01 -1.822388967762665068e-01 -3.578580482406204522e-01 -9.525573680151619982e-01 2.272469206224765267e-02 -1.675437567807711720e-02 -8.964050281384673691e-02 5.015234469445223331e-01 2.929330254207035411e-01 1.113335938776632145e-01 3.187622432410835982e-01 2.661534205691770683e-01 -1.658763711830597842e-01 -4.825010840433392040e-02 6.958438458582644204e-01 1.430500229043936700e-01 -2.406717518662383759e-01 -8.548740823414271994e-02 1.064221108659488824e-01 -1.425839165192741564e-01 2.196925865880905160e-01 -2.105755325374440712e-02 7.715650195405563370e-03 -2.226873413897468429e-02 1.134656851076596001e-01 3.537336450741149774e-01 -2.771014924013487923e-01 -2.518217796615416226e-01 3.387279365908555523e-02 -3.995357376523139825e-01 -3.313594832837993970e-02 -2.438776249398574014e-01 2.558236062284452994e-01 5.062215105080581923e-01 -1.975589981919559646e-01 1.147100784718930455e-01 1.510226141240507969e-01 -1.230740503070713865e-01 -9.421106894807520504e-01 1.617483765784851184e-03 3.041908507190690600e-02 -9.392642215592152122e-02 -8.149277244130902209e-02 4.222004255409785023e-02 -9.971181035390866421e-02 -5.012768584968810281e-02 7.072894326289752565e-02 -1.680758661106027119e-01 -9.951039722094727827e-03 5.195728382285622754e-02 1.388878598825528388e-01 7.002444537617771077e-04 -1.242245824215680167e-01 -6.914028759784382472e-02 -2.570141422401573100e-03 -3.714740618827392926e-01 -3.642319301917150420e-02 4.453151175380457572e-01 -5.912984865394509820e-02 3.663869996439525489e-01 -2.377826036937251419e-01 1.036327853085284439e-01 2.959954027964488699e-01 -1.648497398945426573e-01 1.914371208261637092e-01 9.834317723321549243e-02 2.049653383407935847e-01 7.095270644584779351e-02 -1.380930189770172289e-01 -1.101974067120199546e-01 7.148060137987950757e-02 -1.672667797654952548e-01 -5.683274373924539213e-02 -1.560155397443232506e-01 -4.216570767489302013e-02 -1.876489013447875109e-01 1.028143361443353311e-02 -1.344807329119084294e-01 -1.333873039593231127e-02 2.711175279809249217e-01 -2.071680523433937771e-01 -1.121243026088017125e-01 -1.938269951462903151e-01 -8.302387115533547968e-02 1.680250287219998279e-02 -6.305097049850107160e-02 4.795767711808252010e-01 -3.767115516928936508e-02 -1.759504445361470271e-01 -3.484143422567957393e-01 7.251901527218923733e-03 -9.343483833205675979e-03 -3.249198132440112574e-01 5.490509968316431566e-01 1.488701572339727885e-01 -3.611361197855125771e-02 -1.165284124313915731e-01 -6.968272735406795537e-02 -1.247607410373440667e-01 2.611338416056196432e-01 -1.535583675183912339e-02 1.669503646753720261e-01 5.573290881898425031e-01 -8.955796338792952702e-04 -2.817242570675237978e-02 6.265723853602390980e-02 8.041516679899744779e-02 -8.187681706641056906e-03 -1.261391486547918522e-02 2.807642231949551426e-01 1.192753820044299695e-01 -2.866827792096026117e-01 -4.649077977028725356e-02 -8.606810107929072085e-02 -3.253966808932319266e-01 1.156026941229269800e-01 -3.081948193444099537e-01 4.760847084853319505e-02 2.279025613351039203e-01 -2.204020534382082341e-01 4.941916093560862477e-01 -5.664520938572920050e-02 5.641184675180670877e-02 7.964722474687824239e-02 3.442170892034495111e-01 1.745235032395506258e-01 -5.169128103239785041e-05 -2.431064543481092355e-01 -1.070152086329314300e-01 -3.642239367203304878e-01 -2.282707477113116168e-01 -8.260639890626729487e-02 -2.669375588193198881e-02 1.108855626707531405e-01 -2.813116147235066866e-01 -4.433351097289880277e-02 -5.677905346546669590e-02 -3.193855620164867126e-01 -1.161424919210993570e-02 1.485244230543256716e-01 -5.317746265185916560e-02 -1.571322813467241897e-01 2.831803735134213670e-02 -2.463230260050395803e-01 -5.056917440672898528e-02 1.007909080095722443e-01 -3.458359287085826517e-01 -3.041503397417002173e-03 1.233227784142852529e-01 4.883648715059255019e-01 6.734071701295744894e-02 1.245128202662399396e-02 -9.419432420630311983e-03 9.993602458162435809e-03
